svm_type c_svc
kernel_type rbf
gamma 0.045454545454545456
nr_class 2
total_sv 8965
rho 1.6487774782488058
label 1 -1
nr_sv 4473 4492
SV
1.0 8:1.0 11:-0.740074 12:0.173553 13:0.001223 14:-0.004674 15:0.020349 16:-0.010873 17:-0.022051 18:-0.071992 19:-0.047286 20:0.02104 21:8.51E-4 22:-0.004636 
1.0 9:1.0 11:-0.74144 12:0.176697 13:-0.008145 14:0.03488 15:0.014671 16:0.030835 17:0.025971 18:-0.104256 19:-0.028515 20:0.022239 21:0.023832 22:0.023646 
1.0 9:1.0 11:-0.744046 12:0.177734 13:-0.027767 14:0.012827 15:0.001284 16:0.008061 17:0.025719 18:-0.094664 19:-0.013193 20:0.012084 21:0.020298 22:0.019883 
1.0 5:1.0 11:-0.74684 12:0.179169 13:-0.013193 14:0.012084 15:0.020298 16:0.019883 17:-0.009724 18:-0.064782 19:-0.008448 20:0.02301 21:0.041359 22:0.022585 
1.0 9:1.0 11:-0.735261 12:0.175659 13:0.019172 14:0.0407 15:-0.00853 16:0.008549 17:0.010197 18:-0.107232 19:-0.014822 20:0.022482 21:0.012801 22:0.027819 
1.0 8:1.0 11:-0.731042 12:0.171081 13:0.017353 14:-0.013047 15:0.021806 16:-0.010311 17:-0.01489 18:-0.061412 19:-0.025449 20:-0.021941 21:-0.07922 22:-0.09465 
1.0 1:1.0 11:-0.740631 12:0.171204 13:-0.010311 14:-0.01489 15:-0.061412 16:-0.025449 17:-0.021941 18:-0.07922 19:-0.09465 20:0.002312 21:-0.011467 22:0.0477 
1.0 2:1.0 11:-0.748029 12:0.171204 13:-0.01489 14:-0.061412 15:-0.025449 16:-0.021941 17:-0.07922 18:-0.09465 19:0.002312 20:-0.011467 21:0.0477 22:0.004755 
1.0 9:1.0 11:-0.748096 12:0.177216 13:-0.011467 14:0.0477 15:0.004755 16:0.010317 17:0.040629 18:-0.09501 19:-0.003718 20:0.054073 21:0.023108 22:-0.069187 
1.0 3:1.0 11:-0.747756 12:0.178772 13:0.040629 14:-0.09501 15:-0.003718 16:0.054073 17:0.023108 18:-0.069187 19:-0.005823 20:0.040518 21:0.022049 22:0.022475 
1.0 2:1.0 11:-0.740147 12:0.178131 13:0.022475 14:0.048823 15:0.017928 16:0.008836 17:0.009256 18:-0.066706 19:0.021616 20:-0.014009 21:-0.075275 22:-0.031814 
1.0 5:1.0 11:-0.745417 12:0.178528 13:0.008836 14:0.009256 15:-0.066706 16:0.021616 17:-0.014009 18:-0.075275 19:-0.031814 20:0.02736 21:0.041723 22:0.016587 
1.0 3:1.0 11:-0.740893 12:0.178009 13:0.041723 14:0.016587 15:0.025179 16:0.026282 17:0.029475 18:-0.076696 19:-0.009337 20:0.055713 21:0.018588 22:0.014688 
1.0 1:1.0 11:-0.738195 12:0.17749 13:0.018588 14:0.014688 15:0.030241 16:0.006914 17:0.003521 18:-0.085216 19:-0.0034 20:0.048642 21:-0.009771 22:0.039203 
1.0 10:1.0 11:-0.730769 12:0.171875 13:0.027646 14:-0.015979 15:0.002778 16:0.004497 17:-0.019051 18:-0.070787 19:-0.028875 20:-0.070449 21:0.005665 22:-0.022041 
1.0 2:1.0 11:-0.738247 12:0.172913 13:0.002778 14:0.004497 15:-0.019051 16:-0.070787 17:-0.028875 18:-0.070449 19:0.005665 20:-0.022041 21:0.036478 22:0.006267 
1.0 6:1.0 11:-0.729655 12:0.170441 13:0.008695 14:0.004944 15:0.001756 16:-0.029643 17:0.005109 18:-0.08196 19:-0.039438 20:0.007796 21:0.003057 22:0.010742 
1.0 3:1.0 11:-0.735758 12:0.172272 13:0.007796 14:0.003057 15:0.010742 16:0.006635 17:-0.007333 18:-0.0631 19:-0.023451 20:0.040052 21:0.02581 22:-0.015835 
1.0 8:1.0 11:-0.739427 12:0.174072 13:-0.0631 14:-0.023451 15:0.040052 16:0.02581 17:-0.015835 18:-0.074789 19:-0.043122 20:0.031521 21:0.017743 22:0.02045 
1.0 6:1.0 11:-0.731836 12:0.17279 13:-0.002208 14:0.015567 15:0.016634 16:-0.024647 17:0.011058 18:-0.081554 19:-0.028025 20:0.021291 21:-0.014738 22:-0.018688 
1.0 1:1.0 11:-0.740332 12:0.174347 13:-0.081554 14:-0.028025 15:0.021291 16:-0.014738 17:-0.018688 18:-0.071929 19:-0.007311 20:0.030178 21:-0.006983 22:0.017558 
1.0 6:1.0 11:-0.74328 12:0.1763 13:-0.071929 14:-0.007311 15:0.030178 16:-0.006983 17:0.017558 18:-0.071502 19:-0.007657 20:0.045485 21:0.017961 22:0.030026 
1.0 7:1.0 11:-0.733068 12:0.17514 13:0.019528 14:0.0305 15:0.007026 16:0.033133 17:0.018575 18:-0.092454 19:-0.011863 20:0.001032 21:0.006052 22:0.024783 
1.0 3:1.0 11:-0.736708 12:0.174866 13:-0.011863 14:0.001032 15:0.006052 16:0.024783 17:-0.00194 18:-0.066354 19:-0.024991 20:0.036493 21:0.015541 22:0.024781 
1.0 6:1.0 11:-0.724754 12:0.16861 13:0.006177 14:0.010144 15:0.022285 16:-0.031408 17:0.010274 18:-0.078889 19:-0.022107 20:0.013564 21:-0.024996 22:-0.025665 
1.0 10:1.0 11:-0.732477 12:0.171204 13:0.032491 14:0.02534 15:-0.009172 16:0.004428 17:-0.018378 18:-0.066967 19:-0.016342 20:0.005232 21:0.023791 22:-0.004174 
1.0 10:1.0 11:-0.732997 12:0.172272 13:0.025976 14:0.005587 15:0.010058 16:0.027615 17:-0.015522 18:-0.069059 19:-0.011696 20:0.016418 21:0.025425 22:-0.094001 
1.0 4:1.0 11:-0.737832 12:0.173431 13:-0.015522 14:-0.069059 15:-0.011696 16:0.016418 17:0.025425 18:-0.094001 19:-0.002513 20:0.010372 21:0.009842 22:0.017895 
1.0 9:1.0 11:-0.740584 12:0.175385 13:-0.094001 14:-0.002513 15:0.010372 16:0.009842 17:0.017895 18:-0.071405 19:0.018682 20:0.021309 21:0.02707 22:0.039027 
1.0 5:1.0 11:-0.73695 12:0.1763 13:0.018682 14:0.021309 15:0.02707 16:0.039027 17:0.010581 18:-0.069096 19:-0.013109 20:0.01044 21:0.037658 22:0.02385 
1.0 1:1.0 11:-0.728224 12:0.170563 13:-0.001404 14:-8.27E-4 15:0.033585 16:-0.002496 17:-0.009202 18:-0.097397 19:-0.099889 20:0.006524 21:-0.006611 22:0.033002 
1.0 2:1.0 11:-0.735671 12:0.170563 13:-8.27E-4 14:0.033585 15:-0.002496 16:-0.009202 17:-0.097397 18:-0.099889 19:0.006524 20:-0.006611 21:0.033002 22:-0.003588 
1.0 8:1.0 11:-0.728306 12:0.170441 13:0.005421 14:-0.005187 15:0.024762 16:-0.004156 17:-0.011792 18:-0.072905 19:-0.039891 20:0.017091 21:0.021111 22:0.019609 
1.0 7:1.0 11:-0.732787 12:0.171478 13:0.019609 14:0.014767 15:-0.023484 16:0.020917 17:-0.022356 18:-0.068161 19:0.018549 20:-0.003851 21:0.01569 22:0.009264 
1.0 4:1.0 11:-0.735528 12:0.171722 13:-0.003851 14:0.01569 15:0.009264 16:0.007375 17:0.006481 18:-0.089847 19:-0.012899 20:-0.069662 21:-0.005932 22:0.019937 
1.0 6:1.0 11:-0.741847 12:0.173309 13:0.009264 14:0.007375 15:0.006481 16:-0.089847 17:-0.012899 18:-0.069662 19:-0.005932 20:0.019937 21:-0.079958 22:0.003953 
1.0 9:1.0 11:-0.747014 12:0.174988 13:-0.089847 14:-0.012899 15:-0.069662 16:-0.005932 17:0.019937 18:-0.079958 19:0.003953 20:0.02968 21:0.032322 22:0.045653 
1.0 5:1.0 11:-0.741878 12:0.178009 13:0.003953 14:0.02968 15:0.032322 16:0.045653 17:0.010194 18:-0.056066 19:0.017617 20:0.034367 21:0.042366 22:0.017978 
1.0 7:1.0 11:-0.730348 12:0.174072 13:0.021496 14:0.021814 15:0.001068 16:0.052031 17:0.002292 18:-0.083465 19:0.004326 20:-6.03E-4 21:0.013451 22:0.019984 
1.0 5:1.0 11:-0.732213 12:0.172119 13:0.013451 14:0.019984 15:0.013091 16:0.016467 17:-0.026966 18:-0.064699 19:-0.007705 20:0.020813 21:-0.076169 22:-0.114492 
1.0 8:1.0 11:-0.736963 12:0.173187 13:0.016467 14:-0.026966 15:-0.064699 16:-0.007705 17:0.020813 18:-0.076169 19:-0.114492 20:-0.006545 21:0.030469 22:0.028188 
1.0 9:1.0 11:-0.745827 12:0.174072 13:-0.026966 14:-0.064699 15:-0.007705 16:0.020813 17:-0.076169 18:-0.114492 19:-0.006545 20:0.030469 21:0.028188 22:0.043377 
1.0 4:1.0 11:-0.725007 12:0.167175 13:0.006389 14:0.002569 15:-0.019858 16:-0.015921 17:0.012605 18:-0.094376 19:-0.019793 20:-0.019853 21:-0.066156 22:3.27E-4 
1.0 7:1.0 11:-0.732809 12:0.16861 13:-0.015921 14:0.012605 15:-0.094376 16:-0.019793 17:-0.019853 18:-0.066156 19:3.27E-4 20:-0.004712 21:0.009246 22:0.010423 
1.0 7:1.0 11:-0.735086 12:0.170685 13:-0.003961 14:0.02598 15:0.023895 16:0.024046 17:-0.033651 18:-0.081981 19:-0.012146 20:0.007414 21:0.028025 22:0.019886 
1.0 3:1.0 11:-0.728668 12:0.168091 13:0.027795 14:-0.023867 15:0.003622 16:-0.017046 17:-0.007606 18:-0.066756 19:-0.045647 20:0.025481 21:5.46E-4 22:-0.077076 
1.0 7:1.0 11:-0.735887 12:0.169769 13:-0.007606 14:-0.066756 15:-0.045647 16:0.025481 17:5.46E-4 18:-0.077076 19:-0.024812 20:-0.002697 21:0.006063 22:-0.071996 
1.0 1:1.0 11:-0.743059 12:0.171478 13:5.46E-4 14:-0.077076 15:-0.024812 16:-0.002697 17:0.006063 18:-0.071996 19:-0.003871 20:0.049368 21:0.004645 22:0.022613 
1.0 10:1.0 11:-0.730134 12:0.169647 13:0.013202 14:-0.010482 15:0.013865 16:0.011966 17:-0.020217 18:-0.080075 19:-0.105424 20:-0.016015 21:0.030495 22:-0.030591 
1.0 1:1.0 11:-0.738064 12:0.170441 13:-0.010482 14:0.013865 15:0.011966 16:-0.020217 17:-0.080075 18:-0.105424 19:-0.016015 20:0.030495 21:-0.030591 22:0.026112 
1.0 2:1.0 11:-0.733813 12:0.1716 13:0.002268 14:0.005603 15:2.37E-4 16:0.013065 17:0.004097 18:-0.082197 19:-0.004138 20:0.009127 21:0.02332 22:-0.016919 
1.0 9:1.0 11:-0.738578 12:0.173187 13:0.009127 14:0.02332 15:-0.016919 16:0.014932 17:0.007426 18:-0.09653 19:-0.017997 20:0.033093 21:0.040521 22:0.014648 
1.0 7:1.0 11:-0.730512 12:0.171875 13:0.023158 14:0.020063 15:2.86E-4 16:0.017248 17:-0.008183 18:-0.086165 19:-0.00851 20:9.44E-4 21:0.005734 22:0.002738 
1.0 4:1.0 11:-0.73539 12:0.171997 13:9.44E-4 14:0.005734 15:0.002738 16:0.014594 17:0.011848 18:-0.092395 19:-0.011802 20:0.014321 21:0.027301 22:-0.006426 
1.0 1:1.0 11:-0.739192 12:0.173828 13:0.014321 14:0.027301 15:-0.006426 16:-0.015197 17:0.00976 18:-0.067865 19:9.63E-4 20:0.025489 21:0.030851 22:0.029181 
1.0 10:1.0 11:-0.732033 12:0.170044 13:0.006189 14:-0.007959 15:5.49E-4 16:0.010038 17:-0.040784 18:-0.064417 19:-0.018047 20:-0.001436 21:0.01652 22:-0.085553 
1.0 4:1.0 11:-0.738729 12:0.170685 13:-0.040784 14:-0.064417 15:-0.018047 16:-0.001436 17:0.01652 18:-0.085553 19:-0.001332 20:-0.009164 21:0.002675 22:0.008089 
1.0 9:1.0 11:-0.744526 12:0.174744 13:-0.085553 14:-0.001332 15:-0.009164 16:0.002675 17:0.008089 18:-0.075079 19:0.002224 20:-0.073887 21:-0.003661 22:0.04779 
1.0 1:1.0 11:-0.750199 12:0.176178 13:-0.009164 14:0.002675 15:0.008089 16:-0.075079 17:0.002224 18:-0.073887 19:-0.003661 20:0.04779 21:0.036094 22:0.034805 
1.0 7:1.0 11:-0.746986 12:0.179291 13:-0.003661 14:0.04779 15:0.036094 16:0.034805 17:-0.002214 18:-0.07253 19:0.024121 20:0.032943 21:0.040803 22:0.039651 
1.0 9:1.0 11:-0.733626 12:0.175262 13:-0.006105 14:0.034729 15:0.028185 16:0.030063 17:0.00543 18:-0.103633 19:-0.009971 20:0.023245 21:0.016838 22:0.020951 
1.0 8:1.0 11:-0.731329 12:0.17279 13:0.020951 14:0.001114 15:0.03091 16:0.007216 17:0.003115 18:-0.06271 19:-0.005061 20:0.01862 21:0.013779 22:-0.003374 
1.0 3:1.0 11:-0.73455 12:0.172516 13:-0.06271 14:-0.005061 15:0.01862 16:0.013779 17:-0.003374 18:-0.067024 19:-0.043429 20:0.029683 21:1.63E-4 22:0.023664 
1.0 7:1.0 11:-0.731841 12:0.171204 13:0.016534 14:0.037606 15:-0.014229 16:0.018963 17:-0.024014 18:-0.081789 19:-0.00131 20:-0.001989 21:0.005325 22:0.00281 
1.0 5:1.0 11:-0.730213 12:0.169647 13:0.002788 14:0.012225 15:0.004254 16:0.013243 17:-0.042579 18:-0.068342 19:-0.024028 20:0.016014 21:0.002292 22:-0.09043 
1.0 9:1.0 11:-0.737445 12:0.171356 13:-0.042579 14:-0.068342 15:-0.024028 16:0.016014 17:0.002292 18:-0.09043 19:-0.018022 20:0.013417 21:0.009605 22:-0.072603 
1.0 3:1.0 11:-0.742646 12:0.173309 13:0.002292 14:-0.09043 15:-0.018022 16:0.013417 17:0.009605 18:-0.072603 19:-0.094852 20:0.031491 21:0.017163 22:0.018248 
1.0 4:1.0 11:-0.750133 12:0.173309 13:-0.09043 14:-0.018022 15:0.013417 16:0.009605 17:-0.072603 18:-0.094852 19:0.031491 20:0.017163 21:0.018248 22:0.01235 
1.0 9:1.0 11:-0.751745 12:0.177338 13:-0.094852 14:0.031491 15:0.017163 16:0.018248 17:0.01235 18:-0.099242 19:-0.083485 20:0.017136 21:0.024367 22:-0.044796 
1.0 10:1.0 11:-0.758573 12:0.180206 13:0.031491 14:0.017163 15:0.018248 16:0.01235 17:-0.099242 18:-0.083485 19:0.017136 20:0.024367 21:-0.044796 22:0.023546 
1.0 3:1.0 11:-0.758846 12:0.181793 13:0.01235 14:-0.099242 15:-0.083485 16:0.017136 17:0.024367 18:-0.044796 19:0.023546 20:0.058002 21:0.034868 22:0.011323 
1.0 8:1.0 11:-0.752206 12:0.185303 13:-0.044796 14:0.023546 15:0.058002 16:0.034868 17:0.011323 18:-0.046676 19:0.026948 20:0.061723 21:0.01341 22:-0.068932 
1.0 2:1.0 11:-0.749534 12:0.185425 13:0.011323 14:-0.046676 15:0.026948 16:0.061723 17:0.01341 18:-0.068932 19:0.028441 20:0.028157 21:0.054216 22:0.027349 
1.0 2:1.0 11:-0.723684 12:0.169006 13:-3.56E-4 14:0.030952 15:5.5E-4 16:-0.010329 17:-0.00659 18:-0.079596 19:-0.013488 20:-0.018618 21:0.027465 22:-0.019146 
1.0 6:1.0 11:-0.72871 12:0.168488 13:0.017712 14:0.025949 15:0.012387 16:-0.041581 17:0.014498 18:-0.084214 19:-0.044315 20:0.027941 21:-0.001956 22:-0.002607 
1.0 2:1.0 11:-0.736157 12:0.17096 13:-0.044315 14:0.027941 15:-0.001956 16:-0.002607 17:-0.008024 18:-0.070752 19:-0.001478 20:-0.020695 21:0.037089 22:0.028892 
1.0 9:1.0 11:-0.739828 12:0.17395 13:-0.020695 14:0.037089 15:0.028892 16:0.007957 17:0.006099 18:-0.105864 19:-0.093061 20:0.01988 21:0.046397 22:0.022984 
1.0 10:1.0 11:-0.747092 12:0.174988 13:0.037089 14:0.028892 15:0.007957 16:0.006099 17:-0.105864 18:-0.093061 19:0.01988 20:0.046397 21:0.022984 22:0.012289 
1.0 9:1.0 11:-0.728156 12:0.171478 13:-0.019845 14:0.031715 15:0.00325 16:-7.28E-4 17:0.015011 18:-0.096463 19:-0.005635 20:0.020296 21:0.022695 22:0.016967 
1.0 7:1.0 11:-0.725988 12:0.168732 13:-0.003362 14:0.018724 15:-0.009472 16:0.023648 17:-0.006628 18:-0.084162 19:-0.0136 20:0.001595 21:0.017587 22:0.006491 
1.0 9:1.0 11:-0.729153 12:0.169128 13:-0.011339 14:0.026324 15:-0.00368 16:0.022639 17:0.006829 18:-0.100936 19:-0.030024 20:-0.004808 21:0.004295 22:0.01731 
1.0 2:1.0 11:-0.731492 12:0.171081 13:0.013903 14:0.034607 15:0.014939 16:0.001651 17:-0.004262 18:-0.082175 19:-0.005214 20:-2.21E-4 21:0.029682 22:-0.001327 
1.0 5:1.0 11:-0.732615 12:0.171081 13:0.010344 14:0.015596 15:0.023911 16:0.01161 17:-0.042378 18:-0.07191 19:-0.032106 20:0.016672 21:0.021147 22:-0.00171 
1.0 7:1.0 11:-0.733744 12:0.172394 13:0.013792 14:0.023503 15:-0.018893 16:0.044773 17:-0.011594 18:-0.085774 19:-0.019047 20:-0.011868 21:0.017696 22:0.012623 
1.0 9:1.0 11:-0.735322 12:0.173431 13:-0.010565 14:0.035829 15:-0.003748 16:0.030086 17:0.006948 18:-0.100844 19:-0.016725 20:0.018033 21:0.032122 22:0.027422 
1.0 7:1.0 11:-0.73735 12:0.17395 13:0.032122 14:0.027422 15:-0.022998 16:0.018054 17:-0.008655 18:-0.073983 19:0.012421 20:0.018592 21:0.003775 22:0.013454 
1.0 7:1.0 11:-0.739286 12:0.174347 13:2.53E-4 14:0.02466 15:0.001523 16:0.022109 17:-0.041241 18:-0.080971 19:-0.006906 20:0.010414 21:0.017579 22:0.018826 
1.0 9:1.0 11:-0.738097 12:0.170685 13:-0.03464 14:0.0299 15:-0.018259 16:0.00114 17:-0.052673 18:-0.101383 19:-0.006974 20:0.025206 21:-0.002938 22:0.015558 
1.0 8:1.0 11:-0.741157 12:0.174072 13:0.015558 14:-0.049396 15:0.026324 16:0.008788 17:-0.0043 18:-0.052107 19:-0.001068 20:0.014746 21:0.020053 22:-0.012417 
1.0 4:1.0 11:-0.746299 12:0.176422 13:-0.001068 14:0.014746 15:0.020053 16:-0.012417 17:0.010554 18:-0.097685 19:-0.087739 20:0.007362 21:0.046094 22:0.053056 
1.0 5:1.0 11:-0.753322 12:0.176422 13:0.014746 14:0.020053 15:-0.012417 16:0.010554 17:-0.097685 18:-0.087739 19:0.007362 20:0.046094 21:0.053056 22:0.003225 
1.0 2:1.0 11:-0.748618 12:0.180725 13:0.046094 14:0.053056 15:0.003225 16:-5.1E-4 17:0.014002 18:-0.064642 19:0.028896 20:0.051744 21:0.047111 22:-8.98E-4 
1.0 5:1.0 11:-0.728622 12:0.169769 13:-0.016914 14:0.006472 15:0.015894 16:0.0123 17:-0.034213 18:-0.069613 19:-0.025743 20:-0.014102 21:0.023804 22:-0.023294 
1.0 3:1.0 11:-0.737894 12:0.171356 13:0.023804 14:-0.023294 15:-0.009402 16:-0.004059 17:-0.007771 18:-0.063114 19:-0.030222 20:0.048947 21:-0.017382 22:-0.02863 
1.0 8:1.0 11:-0.744947 12:0.174744 13:-0.063114 14:-0.030222 15:0.048947 16:-0.017382 17:-0.02863 18:-0.063999 19:-0.029333 20:0.024717 21:0.013538 22:0.016967 
1.0 4:1.0 11:-0.74598 12:0.177856 13:-0.029333 14:0.024717 15:0.013538 16:0.016967 17:0.044241 18:-0.083155 19:0.012984 20:0.02069 21:0.031385 22:0.053591 
1.0 2:1.0 11:-0.731598 12:0.171875 13:0.007487 14:0.020107 15:-0.03302 16:0.008315 17:0.004924 18:-0.078911 19:-0.003339 20:-0.016995 21:0.023863 22:-0.078773 
1.0 6:1.0 11:-0.737263 12:0.173035 13:0.004924 14:-0.078911 15:-0.003339 16:-0.016995 17:0.023863 18:-0.078773 19:-0.021689 20:0.039226 21:-0.006339 22:0.02987 
1.0 6:1.0 11:-0.731474 12:0.173187 13:0.027781 14:0.034326 15:0.028562 16:0.007237 17:0.015713 18:-0.077785 19:-0.016084 20:0.013879 21:-0.005037 22:0.023594 
1.0 4:1.0 11:-0.73565 12:0.173035 13:-0.005037 14:0.023594 15:0.010039 16:0.012464 17:-0.007757 18:-0.086675 19:0.015946 20:0.045624 21:-6.1E-4 22:-0.073567 
1.0 8:1.0 11:-0.736602 12:0.172913 13:-0.007757 14:-0.086675 15:0.015946 16:0.045624 17:-6.1E-4 18:-0.073567 19:-0.054489 20:-0.05997 21:-1.65E-4 22:0.015384 
1.0 10:1.0 11:-0.745449 12:0.170685 13:0.015946 14:0.045624 15:-6.1E-4 16:-0.073567 17:-0.054489 18:-0.05997 19:-1.65E-4 20:0.015384 21:-0.046143 22:0.00242 
1.0 3:1.0 11:-0.74789 12:0.167694 13:-0.073567 14:-0.054489 15:-0.05997 16:-1.65E-4 17:0.015384 18:-0.046143 19:0.00242 20:0.025943 21:0.007294 22:-0.054939 
1.0 7:1.0 11:-0.749418 12:0.16626 13:0.015384 14:-0.046143 15:0.00242 16:0.025943 17:0.007294 18:-0.054939 19:0.022782 20:0.009531 21:0.040205 22:-0.011481 
1.0 2:1.0 11:-0.7501 12:0.164429 13:-0.054939 14:0.022782 15:0.009531 16:0.040205 17:-0.011481 18:-0.069662 19:0.015721 20:-0.02266 21:-0.017021 22:-0.085556 
1.0 6:1.0 11:-0.759028 12:0.165222 13:-0.011481 14:-0.069662 15:0.015721 16:-0.02266 17:-0.017021 18:-0.085556 19:-0.005155 20:0.00654 21:-0.096486 22:-0.00962 
1.0 9:1.0 11:-0.767063 12:0.166656 13:-0.02266 14:-0.017021 15:-0.085556 16:-0.005155 17:0.00654 18:-0.096486 19:-0.00962 20:0.021032 21:0.001497 22:-0.078902 
1.0 3:1.0 11:-0.772798 12:0.169647 13:0.00654 14:-0.096486 15:-0.00962 16:0.021032 17:0.001497 18:-0.078902 19:-0.01526 20:0.036183 21:0.02465 22:0.011724 
1.0 2:1.0 11:-0.772511 12:0.171875 13:0.011724 14:0.027934 15:0.005307 16:0.017107 17:-0.02223 18:-0.082231 19:0.008607 20:0.005579 21:0.028038 22:0.011851 
1.0 9:1.0 11:-0.776617 12:0.174744 13:0.005579 14:0.028038 15:0.011851 16:0.005314 17:-0.00788 18:-0.097706 19:0.00111 20:0.027451 21:0.025322 22:0.029438 
1.0 5:1.0 11:-0.778246 12:0.177338 13:0.00111 14:0.027451 15:0.025322 16:0.029438 17:-0.024108 18:-0.077193 19:-0.033316 20:-0.074955 21:0.01536 22:0.023864 
1.0 7:1.0 11:-0.788231 12:0.178131 13:0.025322 14:0.029438 15:-0.024108 16:-0.077193 17:-0.033316 18:-0.074955 19:0.01536 20:0.023864 21:0.024011 22:0.025635 
1.0 7:1.0 11:-0.780679 12:0.182434 13:0.017078 14:0.030255 15:0.017968 16:0.03555 17:-0.01658 18:-0.091863 19:0.007484 20:0.017831 21:0.025412 22:0.019509 
1.0 3:1.0 11:-0.782185 12:0.184265 13:0.007484 14:0.017831 15:0.025412 16:0.019509 17:-0.010886 18:-0.075875 19:-0.004808 20:0.038876 21:0.030859 22:0.02401 
1.0 2:1.0 11:-0.758085 12:0.176697 13:0.01575 14:0.034066 15:0.001076 16:0.02442 17:-0.01156 18:-0.084 19:-0.003917 20:-0.017481 21:-0.10312 22:-0.099224 
1.0 5:1.0 11:-0.768621 12:0.180359 13:0.02442 14:-0.01156 15:-0.084 16:-0.003917 17:-0.017481 18:-0.10312 19:-0.099224 20:0.009754 21:0.042734 22:0.023267 
1.0 6:1.0 11:-0.777365 12:0.180359 13:-0.01156 14:-0.084 15:-0.003917 16:-0.017481 17:-0.10312 18:-0.099224 19:0.009754 20:0.042734 21:0.023267 22:0.051908 
1.0 8:1.0 11:-0.723657 12:0.178253 13:0.023007 14:-0.009715 15:0.018522 16:-0.011176 17:-0.003662 18:-0.065865 19:-0.021499 20:0.021184 21:0.013945 22:-0.075878 
1.0 2:1.0 11:-0.728195 12:0.178925 13:-0.003662 14:-0.065865 15:-0.021499 16:0.021184 17:0.013945 18:-0.075878 19:-0.00842 20:-0.002997 21:0.044507 22:0.009818 
1.0 9:1.0 11:-0.729551 12:0.179443 13:-0.002997 14:0.044507 15:0.009818 16:-0.006205 17:0.039706 18:-0.094735 19:-0.007624 20:0.027288 21:0.047095 22:0.029965 
1.0 9:1.0 11:-0.71439 12:0.169525 13:-0.034115 14:0.022264 15:-0.011318 16:-0.013997 17:-0.005158 18:-0.098289 19:-0.035855 20:0.00811 21:0.002723 22:0.010151 
1.0 8:1.0 11:-0.72344 12:0.173706 13:0.010151 14:-0.025598 15:0.001843 16:-0.02616 17:-0.013492 18:-0.048895 19:-0.004055 20:0.009762 21:-0.011325 22:-0.073008 
1.0 2:1.0 11:-0.729181 12:0.175385 13:-0.013492 14:-0.048895 15:-0.004055 16:0.009762 17:-0.011325 18:-0.073008 19:-0.01278 20:-0.003201 21:0.039752 22:0.016684 
1.0 8:1.0 11:-0.723946 12:0.176422 13:0.021685 14:-0.013451 15:0.020826 16:-0.011904 17:-0.002095 18:-0.070337 19:-0.020039 20:0.022289 21:0.022083 22:0.017689 
1.0 3:1.0 11:-0.71953 12:0.174622 13:0.055857 14:-0.011763 15:-0.010056 16:0.009628 17:0.00454 18:-0.065864 19:-0.019858 20:0.036534 21:0.010319 22:-0.024248 
1.0 5:1.0 11:-0.720388 12:0.173187 13:0.01695 14:0.001185 15:0.009769 16:0.040368 17:-0.042705 18:-0.065342 19:-0.022199 20:0.011638 21:0.024293 22:-0.010969 
1.0 1:1.0 11:-0.721673 12:0.164947 13:-0.016403 14:-2.44E-4 15:0.023346 16:-0.022473 17:-0.006836 18:-0.077032 19:-0.017723 20:0.020197 21:-0.022186 22:0.024408 
1.0 1:1.0 11:-0.734424 12:0.160645 13:-0.006495 14:-0.016302 15:-0.006511 16:-0.023044 17:-0.017407 18:-0.108313 19:-0.041699 20:-0.008413 21:-0.095976 22:-0.027796 
1.0 4:1.0 11:-0.745667 12:0.162872 13:-0.023044 14:-0.017407 15:-0.108313 16:-0.041699 17:-0.008413 18:-0.095976 19:-0.027796 20:-0.01555 21:-0.02137 22:-0.010741 
1.0 3:1.0 11:-0.75723 12:0.17279 13:0.009243 14:-0.016356 15:0.014677 16:0.005957 17:-0.025483 18:-0.078042 19:-0.024136 20:0.019797 21:0.004321 22:0.011865 
1.0 5:1.0 11:-0.753627 12:0.218048 13:0.003094 14:0.015533 15:0.015941 16:0.023622 17:-0.023937 18:-0.104473 19:-0.107439 20:0.009324 21:0.051994 22:0.03897 
1.0 6:1.0 11:-0.762511 12:0.220367 13:0.015533 14:0.015941 15:0.023622 16:-0.023937 17:-0.104473 18:-0.107439 19:0.009324 20:0.051994 21:0.03897 22:0.059855 
1.0 3:1.0 11:-0.695994 12:0.267731 13:0.084332 14:0.048791 15:0.080577 16:0.071009 17:0.030134 18:-0.058784 19:0.043901 20:0.11031 21:0.093197 22:0.090989 
1.0 2:1.0 11:-0.658417 12:0.265381 13:0.090989 14:0.093548 15:0.110173 16:0.083593 17:0.042389 18:-0.061855 19:0.077954 20:0.110988 21:0.105724 22:0.091371 
1.0 4:1.0 11:-0.504825 12:0.215179 13:0.086061 14:0.045858 15:0.046581 16:0.070718 17:0.025387 18:-0.081142 19:0.046242 20:0.058087 21:0.064915 22:0.060538 
1.0 1:1.0 11:-0.473241 12:0.201599 13:0.029867 14:0.051661 15:0.03992 16:0.078089 17:-0.00606 18:-0.083614 19:0.039193 20:0.066783 21:0.07906 22:0.076355 
1.0 2:1.0 11:-0.458788 12:0.192993 13:0.035722 14:0.03506 15:0.003094 16:0.062574 17:0.026456 18:-0.075989 19:0.022414 20:0.065817 21:0.067302 22:0.023054 
1.0 6:1.0 11:-0.440482 12:0.186615 13:0.054272 14:0.070162 15:0.038811 16:0.036189 17:0.002017 18:-0.074232 19:0.006529 20:0.04274 21:0.049043 22:0.03951 
1.0 2:1.0 11:-0.438084 12:0.179047 13:0.006529 14:0.04274 15:0.049043 16:0.03951 17:0.006815 18:-0.077522 19:0.021682 20:0.065357 21:0.020741 22:-0.078876 
1.0 6:1.0 11:-0.437054 12:0.178375 13:0.006815 14:-0.077522 15:0.021682 16:0.065357 17:0.020741 18:-0.078876 19:-0.003933 20:0.056862 21:0.068283 22:-0.007176 
1.0 1:1.0 11:-0.435574 12:0.178375 13:-0.078876 14:-0.003933 15:0.056862 16:0.068283 17:-0.007176 18:-0.072324 19:0.052901 20:0.04607 21:0.051657 22:0.070283 
1.0 3:1.0 11:-0.421828 12:0.174469 13:0.03241 14:0.061396 15:0.03537 16:0.046193 17:0.002934 18:-0.088926 19:0.018839 20:0.069988 21:0.027497 22:0.009766 
1.0 2:1.0 11:-0.416417 12:0.172119 13:0.009766 14:0.032219 15:0.051868 16:0.031225 17:-0.005374 18:-0.079056 19:0.022684 20:0.071528 21:0.047679 22:-0.018075 
1.0 7:1.0 11:-0.415168 12:0.172119 13:-0.079056 14:0.022684 15:0.071528 16:0.047679 17:-0.018075 18:-0.087493 19:-0.010085 20:-0.042039 21:0.021152 22:0.052082 
1.0 9:1.0 11:-0.416954 12:0.172119 13:0.071528 14:0.047679 15:-0.018075 16:-0.087493 17:-0.010085 18:-0.042039 19:0.021152 20:0.052082 21:0.069799 22:0.043195 
1.0 5:1.0 11:-0.412231 12:0.168854 13:0.021152 14:0.052082 15:0.069799 16:0.043195 17:0.018779 18:-0.066622 19:0.009889 20:0.044367 21:0.014849 22:-0.074608 
1.0 9:1.0 11:-0.412421 12:0.168854 13:0.018779 14:-0.066622 15:0.009889 16:0.044367 17:0.014849 18:-0.074608 19:0.008771 20:0.049179 21:0.045679 22:0.035674 
1.0 5:1.0 11:-0.397043 12:0.167053 13:0.016335 14:0.030443 15:0.038053 16:0.017968 17:0.004308 18:-0.074579 19:-0.049551 20:-0.062922 21:0.036913 22:0.086392 
1.0 7:1.0 11:-0.400784 12:0.167053 13:0.038053 14:0.017968 15:0.004308 16:-0.074579 17:-0.049551 18:-0.062922 19:0.036913 20:0.086392 21:-0.015029 22:-0.067842 
1.0 1:1.0 11:-0.399434 12:0.164947 13:-0.049551 14:-0.062922 15:0.036913 16:0.086392 17:-0.015029 18:-0.067842 19:0.022484 20:0.039633 21:0.04515 22:0.062288 
1.0 10:1.0 11:-0.392905 12:0.164551 13:0.062288 14:0.031165 15:0.024017 16:0.040052 17:0.019394 18:-0.08696 19:0.01764 20:0.064774 21:0.023602 22:0.049785 
1.0 5:1.0 11:-0.356014 12:0.157532 13:-0.005678 14:0.015588 15:0.021626 16:0.014515 17:0.002583 18:-0.06215 19:-0.010763 20:0.015647 21:0.025787 22:0.053852 
1.0 8:1.0 11:-0.353042 12:0.15387 13:0.014599 14:0.031867 15:0.036281 16:-0.008238 17:-0.010916 18:-0.091564 19:0.047875 20:0.010513 21:-0.00995 22:-0.062665 
1.0 2:1.0 11:-0.353479 12:0.15387 13:-0.010916 14:-0.091564 15:0.047875 16:0.010513 17:-0.00995 18:-0.062665 19:-0.006586 20:0.021119 21:0.04135 22:-0.003564 
1.0 5:1.0 11:-0.351685 12:0.150726 13:-0.023605 14:0.005452 15:0.038526 16:-8.22E-4 17:-0.007049 18:-0.066705 19:-0.012927 20:0.007904 21:0.013331 22:0.060152 
1.0 1:1.0 11:-0.353342 12:0.150604 13:-0.012927 14:0.007904 15:0.013331 16:0.060152 17:-0.047557 18:-0.074529 19:0.020146 20:0.023084 21:0.025876 22:0.04519 
1.0 8:1.0 11:-0.3535 12:0.150482 13:0.023084 14:0.025876 15:0.04519 16:-0.001367 17:-0.021648 18:-0.096499 19:0.038474 20:0.018098 21:0.02759 22:0.021693 
1.0 10:1.0 11:-0.350027 12:0.148773 13:0.041333 14:-0.015157 15:-0.0127 16:0.035074 17:0.016188 18:-0.089237 19:-0.00824 20:0.035561 21:0.003911 22:-2.0E-4 
1.0 5:1.0 11:-0.35112 12:0.148132 13:-0.089237 14:-0.00824 15:0.035561 16:0.003911 17:-2.0E-4 18:-0.066432 19:-0.013364 20:0.02205 21:0.020218 22:0.051373 
1.0 7:1.0 11:-0.349916 12:0.144989 13:0.020635 14:-0.007797 15:0.025694 16:0.050007 17:-0.037441 18:-0.090181 19:0.003063 20:0.053176 21:0.009486 22:0.006946 
1.0 8:1.0 11:-0.348511 12:0.144348 13:0.001702 14:0.032324 15:0.03198 16:-0.016118 17:-0.010648 18:-0.087962 19:0.045182 20:-0.002595 21:0.00482 22:0.032626 
1.0 4:1.0 11:-0.349311 12:0.143433 13:0.045182 14:-0.002595 15:0.00482 16:0.032626 17:-0.017977 18:-0.088068 19:0.019308 20:0.023772 21:0.006364 22:0.019535 
1.0 7:1.0 11:-0.34702 12:0.143829 13:0.009973 14:3.42E-4 15:0.033358 16:0.035809 17:-0.036037 18:-0.08739 19:0.006493 20:0.048943 21:-0.006934 22:0.00405 
1.0 5:1.0 11:-0.347563 12:0.143829 13:-0.006934 14:0.00405 15:0.031571 16:0.014865 17:4.07E-4 18:-0.116969 19:-0.079024 20:0.003272 21:0.044446 22:0.008396 
1.0 6:1.0 11:-0.34999 12:0.143829 13:0.00405 14:0.031571 15:0.014865 16:4.07E-4 17:-0.116969 18:-0.079024 19:0.003272 20:0.044446 21:0.008396 22:-0.095685 
1.0 10:1.0 11:-0.351212 12:0.143829 13:-0.116969 14:-0.079024 15:0.003272 16:0.044446 17:0.008396 18:-0.095685 19:-0.003551 20:0.048275 21:0.003922 22:0.029045 
1.0 7:1.0 11:-0.340948 12:0.143311 13:0.02746 14:0.006462 15:0.018189 16:0.028822 17:-0.024066 18:-0.090237 19:0.012297 20:0.019929 21:-0.087594 22:-0.005992 
1.0 10:1.0 11:-0.342633 12:0.143311 13:0.028822 14:-0.024066 15:-0.090237 16:0.012297 17:0.019929 18:-0.087594 19:-0.005992 20:0.044934 21:0.006472 22:0.020352 
1.0 3:1.0 11:-0.340725 12:0.14267 13:0.005115 14:0.05924 15:-0.00557 16:0.003605 17:-4.89E-4 18:-0.09279 19:0.003816 20:0.04104 21:0.001273 22:0.002659 
1.0 1:1.0 11:-0.337739 12:0.142395 13:-0.005872 14:-0.004602 15:0.016558 16:0.038568 17:-0.052877 18:-0.07984 19:0.007248 20:0.014195 21:9.6E-4 22:-0.068428 
1.0 5:1.0 11:-0.339132 12:0.142395 13:-0.052877 14:-0.07984 15:0.007248 16:0.014195 17:9.6E-4 18:-0.068428 19:-0.01315 20:0.015753 21:0.01053 22:0.053983 
1.0 2:1.0 11:-0.337877 12:0.14267 13:-0.011917 14:0.010566 15:0.045301 16:-0.014723 17:-0.016885 18:-0.071717 19:-8.09E-4 20:0.034113 21:0.017202 22:-0.045522 
1.0 7:1.0 11:-0.340609 12:0.142395 13:-0.071717 14:-8.09E-4 15:0.034113 16:0.017202 17:-0.045522 18:-0.095374 19:1.91E-4 20:0.048672 21:-0.009178 22:0.006231 
1.0 6:1.0 11:-0.341923 12:0.142517 13:0.006231 14:0.031641 15:-0.002607 16:0.001021 17:-0.015053 18:-0.104202 19:-0.119564 20:-0.004469 21:0.061901 22:-0.020572 
1.0 7:1.0 11:-0.345563 12:0.142517 13:0.031641 14:-0.002607 15:0.001021 16:-0.015053 17:-0.104202 18:-0.119564 19:-0.004469 20:0.061901 21:-0.020572 22:-0.005576 
1.0 2:1.0 11:-0.344557 12:0.144989 13:-0.010336 14:0.012712 15:0.039069 16:-0.020319 17:-0.032717 18:-0.074092 19:-0.016834 20:0.036907 21:-0.002969 22:-0.070553 
1.0 6:1.0 11:-0.346188 12:0.145538 13:-0.032717 14:-0.074092 15:-0.016834 16:0.036907 17:-0.002969 18:-0.070553 19:-0.028953 20:0.007365 21:0.008374 22:-0.013887 
1.0 2:1.0 11:-0.342967 12:0.140961 13:-0.019318 14:0.018549 15:0.045469 16:-0.019043 17:-0.021199 18:-0.071476 19:2.65E-4 20:0.029602 21:0.02644 22:-0.009989 
1.0 1:1.0 11:-0.341747 12:0.137176 13:-0.002782 14:-0.009528 15:0.01684 16:0.038969 17:-0.05203 18:-0.074964 19:-0.010788 20:-0.025544 21:-0.059139 22:-0.028834 
1.0 7:1.0 11:-0.349426 12:0.137176 13:-0.010788 14:-0.025544 15:-0.059139 16:-0.028834 17:-0.050572 18:-0.076426 19:-0.018879 20:-0.115228 21:-0.12879 22:-0.021505 
1.0 9:1.0 11:-0.353564 12:0.137176 13:-0.059139 14:-0.028834 15:-0.050572 16:-0.076426 17:-0.018879 18:-0.115228 19:-0.12879 20:-0.021505 21:0.015902 22:-0.011283 
1.0 10:1.0 11:-0.357565 12:0.137176 13:-0.028834 14:-0.050572 15:-0.076426 16:-0.018879 17:-0.115228 18:-0.12879 19:-0.021505 20:0.015902 21:-0.011283 22:-0.008391 
1.0 5:1.0 11:-0.360925 12:0.137176 13:-0.12879 14:-0.021505 15:0.015902 16:-0.011283 17:-0.008391 18:-0.082268 19:-0.023748 20:-0.003547 21:-0.021891 22:-0.12124 
1.0 9:1.0 11:-0.366283 12:0.136658 13:-0.008391 14:-0.082268 15:-0.023748 16:-0.003547 17:-0.021891 18:-0.12124 19:-0.122909 20:-0.02193 21:0.015625 22:-0.026191 
1.0 10:1.0 11:-0.370178 12:0.137695 13:-0.082268 14:-0.023748 15:-0.003547 16:-0.021891 17:-0.12124 18:-0.122909 19:-0.02193 20:0.015625 21:-0.026191 22:0.009425 
1.0 8:1.0 11:-0.378671 12:0.138214 13:-0.044351 14:-0.002443 15:0.011113 16:-0.017119 17:-0.044811 18:-0.101238 19:0.02108 20:-0.007638 21:-0.022166 22:-0.006825 
1.0 8:1.0 11:-0.385662 12:0.139648 13:-0.010284 14:0.00685 15:0.00244 16:-0.037742 17:-0.039816 18:-0.122 19:-0.103889 20:-0.033801 21:0.001645 22:0.00585 
1.0 9:1.0 11:-0.389055 12:0.139648 13:0.00685 14:0.00244 15:-0.037742 16:-0.039816 17:-0.122 18:-0.103889 19:-0.033801 20:0.001645 21:0.00585 22:-0.016872 
1.0 6:1.0 11:-0.393902 12:0.140045 13:0.001645 14:0.00585 15:-0.016872 16:6.59E-4 17:-0.015663 18:-0.089246 19:-0.052987 20:0.027647 21:0.033784 22:-0.019675 
1.0 8:1.0 11:-0.403683 12:0.14566 13:-0.018563 14:0.013899 15:0.023011 16:-0.019474 17:-0.037878 18:-0.101204 19:-0.010662 20:-0.113344 21:-0.116488 22:0.004391 
1.0 10:1.0 11:-0.407861 12:0.14566 13:0.023011 14:-0.019474 15:-0.037878 16:-0.101204 17:-0.010662 18:-0.113344 19:-0.116488 20:0.004391 21:0.023737 22:-0.004535 
1.0 1:1.0 11:-0.411808 12:0.14566 13:-0.019474 14:-0.037878 15:-0.101204 16:-0.010662 17:-0.113344 18:-0.116488 19:0.004391 20:0.023737 21:-0.004535 22:-0.082349 
1.0 5:1.0 11:-0.413813 12:0.146576 13:-0.113344 14:-0.116488 15:0.004391 16:0.023737 17:-0.004535 18:-0.082349 19:-0.025169 20:0.012159 21:0.017825 22:0.024309 
1.0 6:1.0 11:-0.416828 12:0.148132 13:0.013953 14:2.41E-4 15:-0.030226 16:3.61E-4 17:-0.002013 18:-0.097303 19:-0.027073 20:0.027527 21:0.034633 22:0.006356 
1.0 9:1.0 11:-0.415646 12:0.154266 13:0.017992 14:0.024199 15:-0.002508 16:-3.96E-4 17:-0.009989 18:-0.082076 19:0.006043 20:0.046022 21:0.039454 22:0.01984 
1.0 7:1.0 11:-0.412804 12:0.155945 13:0.039454 14:0.01984 15:0.038803 16:0.042614 17:-0.015314 18:-0.094331 19:0.015691 20:0.080635 21:0.018965 22:0.011157 
1.0 7:1.0 11:-0.407295 12:0.158569 13:0.034084 14:0.031651 15:0.038332 16:0.037371 17:-0.019161 18:-0.086369 19:0.009119 20:0.05757 21:0.017885 22:0.028155 
1.0 4:1.0 11:-0.405886 12:0.158569 13:0.05757 14:0.017885 15:0.028155 16:0.029665 17:-0.021459 18:-0.079107 19:0.034874 20:0.045369 21:0.013346 22:-0.085146 
1.0 8:1.0 11:-0.405599 12:0.159729 13:-0.021459 14:-0.079107 15:0.034874 16:0.045369 17:0.013346 18:-0.085146 19:0.038763 20:0.035535 21:0.023721 22:0.026833 
1.0 1:1.0 11:-0.388395 12:0.160004 13:0.017282 14:0.008518 15:0.022841 16:0.046156 17:-0.023591 18:-0.106733 19:-0.092615 20:0.018195 21:0.056262 22:0.044194 
1.0 2:1.0 11:-0.391428 12:0.160004 13:0.008518 14:0.022841 15:0.046156 16:-0.023591 17:-0.106733 18:-0.092615 19:0.018195 20:0.056262 21:0.044194 22:0.006085 
1.0 10:1.0 11:-0.362033 12:0.15036 13:0.034614 14:0.00114 15:-2.76E-4 16:0.014731 17:0.016731 18:-0.088432 19:-0.007463 20:0.025335 21:0.003272 22:0.025242 
1.0 7:1.0 11:-0.363812 12:0.150085 13:0.025335 14:0.003272 15:0.025242 16:0.037633 17:-0.041856 18:-0.098965 19:4.95E-4 20:0.071172 21:0.001194 22:0.003528 
1.0 5:1.0 11:-0.363466 12:0.150208 13:0.001194 14:0.003528 15:0.022173 16:0.010621 17:-0.011037 18:-0.087068 19:-0.021959 20:0.025089 21:0.01219 22:0.036471 
1.0 5:1.0 11:-0.359608 12:0.151917 13:-0.01187 14:0.003698 15:0.021692 16:0.006109 17:0.001889 18:-0.067425 19:-0.022201 20:1.33E-4 21:0.038562 22:0.05016 
1.0 6:1.0 11:-0.358364 12:0.151001 13:-0.004134 14:0.015909 15:0.009843 16:0.03133 17:0.006381 18:-0.069677 19:-0.027086 20:0.031278 21:0.054056 22:-0.016057 
1.0 8:1.0 11:-0.35813 12:0.150482 13:-0.001834 14:0.021422 15:0.039551 16:-0.007833 17:-0.030896 18:-0.087153 19:0.050752 20:0.011365 21:0.005926 22:0.024482 
1.0 2:1.0 11:-0.35524 12:0.150482 13:-0.009493 14:0.038622 15:0.045329 16:-0.01924 17:-0.029869 18:-0.06768 19:-0.001868 20:0.02985 21:0.041473 22:0.006566 
1.0 6:1.0 11:-0.346536 12:0.147491 13:0.011453 14:0.030189 15:0.007806 16:0.025059 17:-0.012212 18:-0.075301 19:-0.036301 20:-0.071716 21:0.046699 22:0.008606 
1.0 8:1.0 11:-0.349848 12:0.147217 13:0.007806 14:0.025059 15:-0.012212 16:-0.075301 17:-0.036301 18:-0.071716 19:0.046699 20:0.008606 21:0.014734 22:0.029905 
1.0 5:1.0 11:-0.348598 12:0.147217 13:0.008606 14:0.014734 15:0.029905 16:0.007364 17:-0.002945 18:-0.06365 19:-0.013415 20:0.008919 21:0.038563 22:0.017493 
1.0 10:1.0 11:-0.34967 12:0.148407 13:-0.06365 14:-0.013415 15:0.008919 16:0.038563 17:0.017493 18:-0.086333 19:-0.004372 20:0.035211 21:0.006499 22:0.022221 
1.0 9:1.0 11:-0.347736 12:0.149567 13:0.022221 14:0.042957 15:0.004863 16:0.011685 17:0.007365 18:-0.06339 19:-0.012123 20:0.032564 21:0.029991 22:0.005177 
1.0 3:1.0 11:-0.344493 12:0.147095 13:0.0215 14:0.058817 15:-0.005153 16:0.014077 17:-0.007223 18:-0.087952 19:0.017139 20:0.044739 21:0.001118 22:-0.028063 
1.0 8:1.0 11:-0.346101 12:0.147095 13:-0.087952 14:0.017139 15:0.044739 16:0.001118 17:-0.028063 18:-0.087696 19:0.051263 20:-0.03147 21:-0.074051 22:0.011159 
1.0 1:1.0 11:-0.347762 12:0.147095 13:0.001118 14:-0.028063 15:-0.087696 16:0.051263 17:-0.03147 18:-0.074051 19:0.011159 20:0.029583 21:0.019704 22:-0.016087 
1.0 6:1.0 11:-0.348865 12:0.14447 13:-0.074051 14:0.011159 15:0.029583 16:0.019704 17:-0.016087 18:-0.080261 19:-0.028627 20:0.028051 21:-0.066604 22:-0.009062 
1.0 9:1.0 11:-0.350932 12:0.14566 13:0.019704 14:-0.016087 15:-0.080261 16:-0.028627 17:0.028051 18:-0.066604 19:-0.009062 20:0.03154 21:0.020044 22:-0.024859 
1.0 4:1.0 11:-0.352951 12:0.14566 13:-0.066604 14:-0.009062 15:0.03154 16:0.020044 17:-0.024859 18:-0.082982 19:0.038394 20:0.023311 21:-0.015569 22:0.021462 
1.0 3:1.0 11:-0.352387 12:0.14682 13:0.021462 14:0.063723 15:-0.018537 16:-0.006521 17:-0.013503 18:-0.074656 19:0.025427 20:-1.32E-4 21:-0.069717 22:-0.029726 
1.0 6:1.0 11:-0.35376 12:0.145783 13:-0.006521 14:-0.013503 15:-0.074656 16:0.025427 17:-1.32E-4 18:-0.069717 19:-0.029726 20:0.020833 21:0.030801 22:-0.009462 
1.0 9:1.0 11:-0.351996 12:0.145904 13:0.020361 14:0.034952 15:0.001639 16:-0.00404 17:-0.005953 18:-0.059791 19:-0.00778 20:0.021536 21:0.018619 22:0.003085 
1.0 1:1.0 11:-0.35061 12:0.146301 13:-0.007806 14:-0.005769 15:0.028511 16:0.0695 17:-0.056793 18:-0.078823 19:0.013985 20:0.022843 21:0.029066 22:0.035414 
1.0 7:1.0 11:-0.350958 12:0.147339 13:0.013985 14:0.022843 15:0.029066 16:0.035414 17:-0.032492 18:-0.08023 19:0.007361 20:0.051279 21:-0.007793 22:0.014599 
1.0 9:1.0 11:-0.347749 12:0.146973 13:0.027024 14:0.031779 15:0.002265 16:0.014337 17:-0.00184 18:-0.067759 19:-0.053489 20:-0.051553 21:0.02469 22:0.019396 
1.0 1:1.0 11:-0.350979 12:0.146973 13:0.002265 14:0.014337 15:-0.00184 16:-0.067759 17:-0.053489 18:-0.051553 19:0.02469 20:0.019396 21:0.02561 22:0.037531 
1.0 9:1.0 11:-0.349589 12:0.147858 13:0.02561 14:0.037531 15:0.0087 16:-0.002318 17:-2.4E-5 18:-0.068391 19:-0.012079 20:0.036956 21:0.028868 22:0.009969 
1.0 7:1.0 11:-0.343965 12:0.147095 13:0.020388 14:0.002018 15:0.024776 16:0.037752 17:-0.029259 18:-0.096199 19:0.012671 20:0.066842 21:-0.010491 22:0.009629 
1.0 4:1.0 11:-0.344346 12:0.148651 13:0.066842 14:-0.010491 15:0.009629 16:0.036216 17:-0.012812 18:-0.114477 19:-0.076876 20:0.009653 21:0.027902 22:0.028456 
1.0 5:1.0 11:-0.346698 12:0.148132 13:-0.010491 14:0.009629 15:0.036216 16:-0.012812 17:-0.114477 18:-0.076876 19:0.009653 20:0.027902 21:0.028456 22:0.049314 
1.0 5:1.0 11:-0.344249 12:0.148132 13:-0.011347 14:0.016136 15:0.027039 16:0.009148 17:-1.43E-4 18:-0.075889 19:-0.017462 20:0.001649 21:-0.104492 22:-0.061807 
1.0 8:1.0 11:-0.347927 12:0.147613 13:0.009148 14:-1.43E-4 15:-0.075889 16:-0.017462 17:0.001649 18:-0.104492 19:-0.061807 20:7.84E-4 21:0.031373 22:0.028431 
1.0 9:1.0 11:-0.349826 12:0.147613 13:-1.43E-4 14:-0.075889 15:-0.017462 16:0.001649 17:-0.104492 18:-0.061807 19:7.84E-4 20:0.031373 21:0.028431 22:0.010403 
1.0 6:1.0 11:-0.348506 12:0.148254 13:0.031373 14:0.028431 15:0.010403 16:0.037914 17:0.010924 18:-0.076882 19:-0.032551 20:0.019869 21:-0.060203 22:-0.010343 
1.0 9:1.0 11:-0.350748 12:0.148254 13:0.037914 14:0.010924 15:-0.076882 16:-0.032551 17:0.019869 18:-0.060203 19:-0.010343 20:-0.004828 21:-0.094888 22:-0.117594 
1.0 2:1.0 11:-0.354145 12:0.148254 13:-0.032551 14:0.019869 15:-0.060203 16:-0.010343 17:-0.004828 18:-0.094888 19:-0.117594 20:-0.080627 21:0.057016 22:0.035576 
1.0 3:1.0 11:-0.357795 12:0.148773 13:0.019869 14:-0.060203 15:-0.010343 16:-0.004828 17:-0.094888 18:-0.117594 19:-0.080627 20:0.057016 21:0.035576 22:0.007651 
1.0 4:1.0 11:-0.360312 12:0.148773 13:-0.060203 14:-0.010343 15:-0.004828 16:-0.094888 17:-0.117594 18:-0.080627 19:0.057016 20:0.035576 21:0.007651 22:0.030676 
1.0 2:1.0 11:-0.357327 12:0.147736 13:0.007651 14:0.030676 15:0.067048 16:-0.01658 17:-0.021677 18:-0.064111 19:0.012758 20:0.049304 21:0.027387 22:-0.006994 
1.0 2:1.0 11:-0.355746 12:0.148529 13:-0.001482 14:0.019137 15:0.054022 16:-0.017078 17:-0.018815 18:-0.067525 19:2.45E-4 20:0.043221 21:0.039357 22:0.004019 
1.0 2:1.0 11:-0.354445 12:0.148651 13:-0.00317 14:0.010749 15:0.058134 16:-0.009487 17:-0.019324 18:-0.081964 19:-0.004003 20:0.012671 21:-0.054625 22:-7.42E-4 
1.0 5:1.0 11:-0.355872 12:0.148132 13:-0.009487 14:-0.019324 15:-0.081964 16:-0.004003 17:0.012671 18:-0.054625 19:-7.42E-4 20:0.020299 21:0.022056 22:0.043395 
1.0 4:1.0 11:-0.351773 12:0.147217 13:0.044938 14:-0.006933 15:0.011194 16:0.016748 17:-0.029842 18:-0.091681 19:0.022423 20:0.024701 21:-0.007897 22:0.019806 
1.0 6:1.0 11:-0.348811 12:0.140961 13:-0.002983 14:0.010379 15:-0.017559 16:0.016654 17:-0.022182 18:-0.071559 19:-0.047126 20:0.018534 21:6.89E-4 22:-0.081132 
1.0 10:1.0 11:-0.35217 12:0.140442 13:-0.022182 14:-0.071559 15:-0.047126 16:0.018534 17:6.89E-4 18:-0.081132 19:-0.023519 20:0.021896 21:-0.009639 22:0.022446 
1.0 7:1.0 11:-0.354719 12:0.140442 13:0.021896 14:-0.009639 15:0.022446 16:0.021136 17:-0.032522 18:-0.08229 19:-0.004408 20:-0.049958 21:-0.098553 22:-0.043071 
1.0 10:1.0 11:-0.35948 12:0.141357 13:0.021136 14:-0.032522 15:-0.08229 16:-0.004408 17:-0.049958 18:-0.098553 19:-0.043071 20:0.005853 21:-0.097388 22:-0.064225 
1.0 7:1.0 11:-0.374077 12:0.142914 13:-0.005894 14:-0.018367 15:-0.008694 16:-0.007698 17:-0.067786 18:-0.105262 19:-0.016825 20:0.023586 21:-0.031338 22:-0.021251 
1.0 4:1.0 11:-0.385164 12:0.143433 13:-0.022001 14:-0.011738 15:-0.013519 16:-0.012032 17:-0.058375 18:-0.098342 19:0.003648 20:-0.016274 21:-0.034193 22:-0.011123 
1.0 4:1.0 11:-0.39743 12:0.143555 13:0.004922 14:-0.025789 15:-0.011783 16:-0.009333 17:-0.046824 18:-0.09093 19:0.015728 20:-0.004155 21:-0.025944 22:-0.015297 
1.0 5:1.0 11:-0.404822 12:0.146423 13:-0.019249 14:-0.007585 15:0.007795 16:-0.014003 17:-0.028958 18:-0.083602 19:-0.024357 20:0.007889 21:-0.004337 22:0.021326 
1.0 4:1.0 11:-0.409781 12:0.148132 13:0.027462 14:-0.010043 15:-0.009874 16:0.005877 17:-0.02322 18:-0.079651 19:0.015717 20:-0.002429 21:-0.003594 22:0.008438 
1.0 6:1.0 11:-0.41157 12:0.149292 13:-0.007906 14:0.004482 15:0.002627 16:0.034077 17:-0.024231 18:-0.091674 19:-0.030295 20:0.021425 21:0.030822 22:-0.005156 
1.0 4:1.0 11:-0.414825 12:0.150482 13:0.030822 14:-0.005156 15:0.002958 16:0.006986 17:-0.029594 18:-0.09263 19:0.018623 20:-0.016364 21:-0.103977 22:0.00247 
1.0 7:1.0 11:-0.418307 12:0.151276 13:0.006986 14:-0.029594 15:-0.09263 16:0.018623 17:-0.016364 18:-0.103977 19:0.00247 20:0.053941 21:-0.004239 22:-0.004783 
1.0 1:1.0 11:-0.399367 12:0.157135 13:5.58E-4 14:0.010267 15:0.032449 16:0.051631 17:-0.023635 18:-0.080539 19:0.008208 20:0.001774 21:-0.074635 22:0.036787 
1.0 4:1.0 11:-0.401526 12:0.158295 13:0.051631 14:-0.023635 15:-0.080539 16:0.008208 17:0.001774 18:-0.074635 19:0.036787 20:0.027215 21:0.002435 22:0.012299 
1.0 9:1.0 11:-0.401067 12:0.157776 13:-0.074635 14:0.036787 15:0.027215 16:0.002435 17:0.012299 18:-0.064987 19:0.004595 20:0.037927 21:0.028922 22:0.024937 
1.0 6:1.0 11:-0.379277 12:0.155304 13:0.009022 14:0.024127 15:0.017915 16:0.030691 17:-0.007655 18:-0.113498 19:-0.11402 20:0.034187 21:0.07285 22:0.003549 
1.0 7:1.0 11:-0.382958 12:0.154266 13:0.024127 14:0.017915 15:0.030691 16:-0.007655 17:-0.113498 18:-0.11402 19:0.034187 20:0.07285 21:0.003549 22:0.018273 
1.0 3:1.0 11:-0.382329 12:0.154663 13:0.034187 14:0.07285 15:0.003549 16:0.018273 17:-4.52E-4 18:-0.109085 19:-0.094898 20:0.050556 21:0.046407 22:0.018369 
1.0 4:1.0 11:-0.385412 12:0.154663 13:0.07285 14:0.003549 15:0.018273 16:-4.52E-4 17:-0.109085 18:-0.094898 19:0.050556 20:0.046407 21:0.018369 22:0.025076 
1.0 10:1.0 11:-0.384383 12:0.154663 13:0.050556 14:0.046407 15:0.018369 16:0.025076 17:0.017253 18:-0.125925 19:-0.087948 20:0.041037 21:0.01525 22:-0.067253 
1.0 1:1.0 11:-0.387247 12:0.154388 13:0.046407 14:0.018369 15:0.025076 16:0.017253 17:-0.125925 18:-0.087948 19:0.041037 20:0.01525 21:-0.067253 22:0.040566 
1.0 4:1.0 11:-0.387608 12:0.154388 13:0.017253 14:-0.125925 15:-0.087948 16:0.041037 17:0.01525 18:-0.067253 19:0.040566 20:0.020301 21:0.005302 22:0.03057 
1.0 10:1.0 11:-0.377948 12:0.153992 13:0.028149 14:-0.007154 15:0.011695 16:0.034296 17:0.009064 18:-0.086622 19:0.001492 20:0.036982 21:0.011855 22:0.039821 
1.0 8:1.0 11:-0.376698 12:0.153473 13:0.011855 14:0.039821 15:0.044276 16:0.005927 17:-0.015405 18:-0.08612 19:0.051556 20:0.03049 21:0.01358 22:0.02504 
1.0 9:1.0 11:-0.365994 12:0.152832 13:0.030992 14:0.042526 15:-0.001001 16:0.005368 17:0.0037 18:-0.106851 19:-0.090593 20:0.031493 21:0.047675 22:0.016901 
1.0 10:1.0 11:-0.368862 12:0.152832 13:0.042526 14:-0.001001 15:0.005368 16:0.0037 17:-0.106851 18:-0.090593 19:0.031493 20:0.047675 21:0.016901 22:0.008598 
1.0 5:1.0 11:-0.367565 12:0.152832 13:-0.090593 14:0.031493 15:0.047675 16:0.016901 17:0.008598 18:-0.063593 19:-0.044534 20:-0.068851 21:0.026033 22:0.087445 
1.0 7:1.0 11:-0.371159 12:0.152832 13:0.047675 14:0.016901 15:0.008598 16:-0.063593 17:-0.044534 18:-0.068851 19:0.026033 20:0.087445 21:-0.004153 22:8.04E-4 
1.0 6:1.0 11:-0.367527 12:0.152313 13:8.04E-4 14:0.031793 15:0.015293 16:0.031297 17:6.63E-4 18:-0.074688 19:-0.010639 20:0.045002 21:0.053216 22:-0.010912 
1.0 2:1.0 11:-0.367813 12:0.152313 13:-0.010639 14:0.045002 15:0.053216 16:-0.010912 17:-0.018665 18:-0.067123 19:-0.006497 20:0.047745 21:0.055582 22:0.021415 
1.0 2:1.0 11:-0.3672 12:0.151276 13:-0.007558 14:0.014985 15:0.042017 16:-0.023456 17:-0.027201 18:-0.097828 19:-0.114505 20:-0.072122 21:0.054041 22:0.020874 
1.0 3:1.0 11:-0.370827 12:0.151276 13:0.014985 14:0.042017 15:-0.023456 16:-0.027201 17:-0.097828 18:-0.114505 19:-0.072122 20:0.054041 21:0.020874 22:0.008211 
1.0 4:1.0 11:-0.373125 12:0.151276 13:0.042017 14:-0.023456 15:-0.027201 16:-0.097828 17:-0.114505 18:-0.072122 19:0.054041 20:0.020874 21:0.008211 22:0.028838 
1.0 7:1.0 11:-0.363 12:0.149963 13:0.018016 14:0.003681 15:0.035841 16:0.040151 17:-0.043955 18:-0.081706 19:0.013011 20:0.022323 21:-0.089831 22:-0.003874 
1.0 10:1.0 11:-0.364716 12:0.149567 13:0.040151 14:-0.043955 15:-0.081706 16:0.013011 17:0.022323 18:-0.089831 19:-0.003874 20:0.027419 21:-0.009954 22:0.036713 
1.0 8:1.0 11:-0.365839 12:0.150482 13:-0.009954 14:0.036713 15:0.029411 16:0.010796 17:-0.020602 18:-0.105655 19:0.02494 20:0.029486 21:0.011832 22:0.023118 
1.0 1:1.0 11:-0.362025 12:0.15036 13:-0.003788 14:-0.009668 15:0.038803 16:0.052831 17:-0.038523 18:-0.071917 19:9.26E-4 20:0.011818 21:0.033372 22:0.022067 
1.0 10:1.0 11:-0.362579 12:0.149292 13:0.022067 14:7.49E-4 15:-0.007251 16:0.021718 17:-0.020134 18:-0.080863 19:0.007114 20:0.024101 21:-0.022319 22:0.009371 
1.0 5:1.0 11:-0.363807 12:0.149048 13:-0.080863 14:0.007114 15:0.024101 16:-0.022319 17:0.009371 18:-0.057325 19:-0.003048 20:0.015827 21:0.009766 22:0.028361 
1.0 1:1.0 11:-0.353786 12:0.147339 13:-0.007821 14:-0.015931 15:0.032041 16:0.053262 17:-0.042805 18:-0.08164 19:0.010361 20:0.02091 21:0.027942 22:0.03775 
1.0 9:1.0 11:-0.35467 12:0.148529 13:0.027942 14:0.03775 15:-0.009526 16:-0.007024 17:-0.006723 18:-0.102218 19:-0.093922 20:-0.013232 21:-0.040736 22:-0.016899 
1.0 10:1.0 11:-0.357591 12:0.148529 13:0.03775 14:-0.009526 15:-0.007024 16:-0.006723 17:-0.102218 18:-0.093922 19:-0.013232 20:-0.040736 21:-0.016899 22:-0.06196 
1.0 2:1.0 11:-0.359272 12:0.149048 13:-0.007024 14:-0.006723 15:-0.102218 16:-0.093922 17:-0.013232 18:-0.040736 19:-0.016899 20:-0.06196 21:0.034539 22:0.007666 
1.0 4:1.0 11:-0.361739 12:0.149048 13:-0.102218 14:-0.093922 15:-0.013232 16:-0.040736 17:-0.016899 18:-0.06196 19:0.034539 20:0.007666 21:-0.003553 22:0.034416 
1.0 6:1.0 11:-0.35666 12:0.147613 13:0.02543 14:0.041214 15:0.007778 16:0.030307 17:-0.006511 18:-0.081935 19:-0.037659 20:0.028942 21:0.067704 22:-0.001907 
1.0 9:1.0 11:-0.353212 12:0.148773 13:0.024926 14:0.039706 15:0.001131 16:6.67E-4 17:0.007788 18:-0.063226 19:-0.011569 20:0.02601 21:0.030432 22:0.004379 
1.0 6:1.0 11:-0.354099 12:0.149689 13:0.02601 14:0.030432 15:0.004379 16:0.027603 17:-1.07E-4 18:-0.105418 19:-0.106555 20:0.030652 21:0.071608 22:-0.001473 
1.0 7:1.0 11:-0.357404 12:0.149689 13:0.030432 14:0.004379 15:0.027603 16:-1.07E-4 17:-0.105418 18:-0.106555 19:0.030652 20:0.071608 21:-0.001473 22:0.00901 
1.0 6:1.0 11:-0.340634 12:0.147613 13:-0.004147 14:0.02612 15:0.004203 16:0.029486 17:-0.009641 18:-0.077107 19:-0.028288 20:0.036925 21:0.041509 22:-0.010528 
1.0 2:1.0 11:-0.342169 12:0.147339 13:-0.028288 14:0.036925 15:0.041509 16:-0.010528 17:-0.022138 18:-0.068129 19:-0.00243 20:0.022537 21:0.027858 22:0.013769 
1.0 7:1.0 11:-0.341858 12:0.145538 13:0.03511 14:-0.004372 15:0.0263 16:0.032439 17:-0.03856 18:-0.10706 19:-0.099815 20:0.043542 21:0.013377 22:0.001533 
1.0 8:1.0 11:-0.344896 12:0.146576 13:-0.004372 14:0.0263 15:0.032439 16:-0.03856 17:-0.10706 18:-0.099815 19:0.043542 20:0.013377 21:0.001533 22:0.014123 
1.0 9:1.0 11:-0.343863 12:0.146576 13:0.006984 14:0.007715 15:0.001584 16:0.005272 17:0.010042 18:-0.074532 19:-0.028913 20:0.019081 21:0.014927 22:-0.020015 
1.0 7:1.0 11:-0.346687 12:0.144226 13:0.014927 14:-0.020015 15:0.018027 16:0.028834 17:-0.031664 18:-0.092824 19:0.006055 20:0.060398 21:-0.038011 22:-0.057472 
1.0 1:1.0 11:-0.348002 12:0.145386 13:-0.003855 14:-0.001004 15:0.016121 16:0.043864 17:-0.048545 18:-0.070919 19:0.005495 20:0.006063 21:0.002754 22:-0.062122 
1.0 5:1.0 11:-0.349472 12:0.14566 13:-0.048545 14:-0.070919 15:0.005495 16:0.006063 17:0.002754 18:-0.062122 19:-0.005659 20:0.015787 21:0.01168 22:0.042102 
1.0 2:1.0 11:-0.350747 12:0.14566 13:0.015787 14:0.01168 15:0.042102 16:-0.002603 17:-0.021664 18:-0.081173 19:-0.005479 20:0.042661 21:0.054224 22:4.34E-4 
1.0 1:1.0 11:-0.349884 12:0.147217 13:4.34E-4 14:-0.012293 15:0.028626 16:0.047967 17:-0.05604 18:-0.072118 19:0.019217 20:-0.008147 21:-0.074861 22:0.03777 
1.0 4:1.0 11:-0.351851 12:0.147217 13:0.047967 14:-0.05604 15:-0.072118 16:0.019217 17:-0.008147 18:-0.074861 19:0.03777 20:0.017031 21:-0.00103 22:0.012948 
1.0 4:1.0 11:-0.350643 12:0.146973 13:0.032484 14:0.001249 15:0.018564 16:0.023303 17:-0.023012 18:-0.080102 19:-0.006932 20:-0.089808 21:-0.132131 22:-0.091874 
1.0 6:1.0 11:-0.353629 12:0.146973 13:0.018564 14:0.023303 15:-0.023012 16:-0.080102 17:-0.006932 18:-0.089808 19:-0.132131 20:-0.091874 21:0.019162 22:-0.056185 
1.0 7:1.0 11:-0.357727 12:0.146973 13:0.023303 14:-0.023012 15:-0.080102 16:-0.006932 17:-0.089808 18:-0.132131 19:-0.091874 20:0.019162 21:-0.056185 22:6.66E-4 
1.0 8:1.0 11:-0.360592 12:0.146973 13:-0.023012 14:-0.080102 15:-0.006932 16:-0.089808 17:-0.132131 18:-0.091874 19:0.019162 20:-0.056185 21:6.66E-4 22:0.036858 
1.0 10:1.0 11:-0.361753 12:0.146973 13:-0.006932 14:-0.089808 15:-0.132131 16:-0.091874 17:0.019162 18:-0.056185 19:6.66E-4 20:0.036858 21:0.027839 22:0.036868 
1.0 1:1.0 11:-0.357422 12:0.147736 13:0.025786 14:0.015614 15:0.035811 16:0.049625 17:-0.045132 18:-0.077904 19:-6.62E-4 20:0.014001 21:0.030948 22:0.045291 
1.0 2:1.0 11:-0.354888 12:0.147095 13:0.007362 14:0.024652 15:0.052447 16:-0.006508 17:-0.014192 18:-0.073303 19:-0.004819 20:0.050064 21:0.037434 22:-0.006551 
1.0 9:1.0 11:-0.354475 12:0.148529 13:0.050064 14:0.037434 15:-0.006551 16:-0.002745 17:0.007359 18:-0.067455 19:-0.009444 20:0.038899 21:0.042215 22:0.006084 
1.0 5:1.0 11:-0.354378 12:0.148529 13:-0.009444 14:0.038899 15:0.042215 16:0.006084 17:-0.005132 18:-0.069348 19:-0.013298 20:0.01325 21:0.030987 22:0.066083 
1.0 1:1.0 11:-0.355141 12:0.147217 13:-0.013298 14:0.01325 15:0.030987 16:0.066083 17:-0.050603 18:-0.071021 19:-0.018673 20:-0.070486 21:0.025063 22:0.061738 
1.0 3:1.0 11:-0.357911 12:0.148132 13:0.030987 14:0.066083 15:-0.050603 16:-0.071021 17:-0.018673 18:-0.070486 19:0.025063 20:0.061738 21:0.001799 22:0.011122 
1.0 3:1.0 11:-0.344628 12:0.147339 13:0.025098 14:0.058561 15:-0.015402 16:0.012795 17:-0.003654 18:-0.112915 19:-0.091138 20:0.037823 21:0.021076 22:0.003389 
1.0 4:1.0 11:-0.347417 12:0.146057 13:0.058561 14:-0.015402 15:0.012795 16:-0.003654 17:-0.112915 18:-0.091138 19:0.037823 20:0.021076 21:0.003389 22:0.029342 
1.0 5:1.0 11:-0.340113 12:0.145904 13:-0.012786 14:0.003994 15:0.023508 16:0.005098 17:-0.004415 18:-0.061828 19:-0.011339 20:0.017476 21:0.01367 22:0.049311 
1.0 4:1.0 11:-0.334585 12:0.143433 13:0.047177 14:-0.015294 15:-2.32E-4 16:0.020126 17:-0.025775 18:-0.079644 19:0.022986 20:0.005239 21:-0.004154 22:0.013379 
1.0 1:1.0 11:-0.336116 12:0.141235 13:0.005239 14:-0.004154 15:0.013379 16:0.040599 17:-0.05042 18:-0.078509 19:-0.009629 20:0.008737 21:0.034748 22:0.031663 
1.0 2:1.0 11:-0.34267 12:0.13678 13:-0.01522 14:-0.015641 15:-0.020175 16:-0.082793 17:-0.056899 18:-0.086402 19:-0.021028 20:0.032676 21:0.01305 22:-0.044177 
1.0 10:1.0 11:-0.348201 12:0.13678 13:0.01305 14:-0.044177 15:-0.045192 16:-0.009357 17:-0.014434 18:-0.092556 19:-0.035432 20:0.013224 21:-0.024108 22:-0.00403 
1.0 7:1.0 11:-0.361996 12:0.142273 13:-0.008943 14:-0.03592 15:0.03483 16:0.025663 17:-0.043779 18:-0.09567 19:-0.004434 20:0.058167 21:-0.042325 22:-0.05242 
1.0 5:1.0 11:-0.365271 12:0.143829 13:-0.042325 14:-0.05242 15:0.019526 16:-0.00359 17:-0.012805 18:-0.066228 19:-0.012274 20:0.01087 21:0.016549 22:0.01139 
1.0 2:1.0 11:-0.368325 12:0.143829 13:0.01087 14:0.016549 15:0.01139 16:-0.013719 17:-0.024669 18:-0.08492 19:-0.04337 20:0.034485 21:0.037172 22:-0.015396 
1.0 3:1.0 11:-0.370938 12:0.14682 13:0.014045 14:0.010194 15:-0.006519 16:0.007926 17:8.42E-4 18:-0.11127 19:-0.108062 20:0.024853 21:0.021726 22:0.006555 
1.0 4:1.0 11:-0.374386 12:0.14682 13:0.010194 14:-0.006519 15:0.007926 16:8.42E-4 17:-0.11127 18:-0.108062 19:0.024853 20:0.021726 21:0.006555 22:0.011185 
1.0 4:1.0 11:-0.374349 12:0.147217 13:-0.01331 14:0.012741 15:0.010276 16:0.017081 17:-0.014406 18:-0.075505 19:0.027543 20:0.005555 21:-0.01157 22:0.024262 
1.0 6:1.0 11:-0.371826 12:0.148773 13:0.004903 14:0.025329 15:0.018261 16:0.038365 17:-0.010829 18:-0.083532 19:-0.044481 20:-0.07274 21:0.036111 22:0.008765 
1.0 8:1.0 11:-0.375567 12:0.148773 13:0.018261 14:0.038365 15:-0.010829 16:-0.083532 17:-0.044481 18:-0.07274 19:0.036111 20:0.008765 21:0.014727 22:0.030443 
1.0 5:1.0 11:-0.374289 12:0.149048 13:0.008765 14:0.014727 15:0.030443 16:0.006933 17:0.007886 18:-0.064869 19:-0.041115 20:-0.068665 21:0.027695 22:0.057219 
1.0 7:1.0 11:-0.377805 12:0.148926 13:0.030443 14:0.006933 15:0.007886 16:-0.064869 17:-0.041115 18:-0.068665 19:0.027695 20:0.057219 21:0.004905 22:0.008133 
1.0 5:1.0 11:-0.376106 12:0.148926 13:0.004905 14:0.008133 15:0.021062 16:-0.001128 17:0.006758 18:-0.071629 19:-0.0026 20:0.038455 21:0.025687 22:0.043209 
1.0 10:1.0 11:-0.370165 12:0.150085 13:0.054542 14:0.006692 15:0.004784 16:0.013264 17:0.007034 18:-0.089677 19:-0.027381 20:-0.046188 21:0.005772 22:0.047378 
1.0 2:1.0 11:-0.372504 12:0.149048 13:0.004784 14:0.013264 15:0.007034 16:-0.089677 17:-0.027381 18:-0.046188 19:0.005772 20:0.047378 21:0.041015 22:-0.00202 
1.0 10:1.0 11:-0.372806 12:0.149445 13:0.041015 14:-0.00202 15:-0.005856 16:0.019486 17:0.011372 18:-0.126546 19:-0.083386 20:0.0505 21:0.031569 22:0.028719 
1.0 1:1.0 11:-0.37547 12:0.149445 13:-0.00202 14:-0.005856 15:0.019486 16:0.011372 17:-0.126546 18:-0.083386 19:0.0505 20:0.031569 21:0.028719 22:0.03493 
1.0 8:1.0 11:-0.366993 12:0.14917 13:0.008137 14:0.026572 15:0.036411 16:-0.003441 17:-0.014424 18:-0.096173 19:0.035589 20:0.017368 21:0.01853 22:0.025014 
1.0 5:1.0 11:-0.366401 12:0.147736 13:0.017368 14:0.01853 15:0.025014 16:-0.004329 17:-0.017863 18:-0.055507 19:-0.007885 20:0.019179 21:0.043327 22:0.013792 
1.0 10:1.0 11:-0.367153 12:0.148529 13:-0.055507 14:-0.007885 15:0.019179 16:0.043327 17:0.013792 18:-0.092079 19:0.005191 20:0.045083 21:0.002542 22:0.036169 
1.0 8:1.0 11:-0.367031 12:0.14801 13:0.002542 14:0.036169 15:0.047742 16:-0.007873 17:-0.024128 18:-0.100988 19:0.042345 20:0.036578 21:0.009781 22:0.026696 
1.0 8:1.0 11:-0.364769 12:0.148651 13:0.003305 14:0.038051 15:0.034876 16:-0.009089 17:-0.025126 18:-0.08588 19:0.045099 20:0.017253 21:0.011149 22:0.024089 
1.0 1:1.0 11:-0.356258 12:0.145904 13:-0.001938 14:-0.01075 15:0.017047 16:0.037564 17:-0.041907 18:-0.068594 19:0.013144 20:0.017405 21:0.020203 22:0.033396 
1.0 10:1.0 11:-0.356984 12:0.14566 13:0.033396 14:-0.017106 15:-0.033871 16:0.022479 17:-0.001176 18:-0.077808 19:0.009203 20:0.033605 21:-0.005195 22:0.027292 
1.0 8:1.0 11:-0.357821 12:0.145904 13:-0.005195 14:0.027292 15:0.030397 16:-0.00699 17:-0.028407 18:-0.086869 19:0.047484 20:0.016384 21:0.006369 22:0.023691 
1.0 6:1.0 11:-0.357913 12:0.144623 13:0.006369 14:0.023691 15:-0.006917 16:0.011412 17:-0.026164 18:-0.075236 19:-0.028378 20:0.051231 21:0.045503 22:-0.012343 
1.0 7:1.0 11:-0.354223 12:0.14566 13:0.021057 14:-7.23E-4 15:0.020764 16:0.02801 17:-0.02917 18:-0.086741 19:0.002302 20:0.046417 21:-0.00228 22:0.009135 
1.0 3:1.0 11:-0.351035 12:0.143829 13:0.026288 14:0.042889 15:-0.013409 16:0.004307 17:-0.003184 18:-0.085558 19:0.00971 20:0.042725 21:-0.003935 22:-5.95E-4 
1.0 10:1.0 11:-0.351987 12:0.144104 13:0.042725 14:-0.003935 15:-5.95E-4 16:0.012534 17:0.003243 18:-0.094508 19:-0.009523 20:0.045052 21:0.012072 22:0.023834 
1.0 2:1.0 11:-0.350061 12:0.143707 13:-0.015701 14:0.019014 15:0.052512 16:-0.004331 17:-0.022983 18:-0.067529 19:9.2E-4 20:0.035041 21:0.03794 22:-0.005199 
1.0 7:1.0 11:-0.34778 12:0.144104 13:0.034055 14:-9.6E-5 15:0.014488 16:0.028652 17:-0.039896 18:-0.083578 19:0.014317 20:0.058024 21:-0.013046 22:0.00884 
1.0 7:1.0 11:-0.347087 12:0.143707 13:0.031967 14:0.003842 15:0.023741 16:0.021741 17:-0.04133 18:-0.0856 19:0.016955 20:0.057313 21:-0.016132 22:0.009774 
1.0 5:1.0 11:-0.341511 12:0.137817 13:-0.015482 14:-0.003687 15:0.014854 16:-0.004829 17:-0.016471 18:-0.061481 19:-0.004188 20:0.010653 21:0.005128 22:0.029305 
1.0 10:1.0 11:-0.349141 12:0.137054 13:0.029381 14:-0.018086 15:-0.047149 16:-0.058465 17:-0.062487 18:-0.127536 19:-0.045608 20:0.022592 21:-0.005959 22:-0.031332 
1.0 5:1.0 11:-0.354547 12:0.137054 13:-0.127536 14:-0.045608 15:0.022592 16:-0.005959 17:-0.031332 18:-0.114741 19:-0.077632 20:-0.032224 21:0.001141 22:0.031276 
1.0 1:1.0 11:-0.361503 12:0.138611 13:-0.077632 14:-0.032224 15:0.001141 16:0.031276 17:-0.057305 18:-0.088527 19:-0.041732 20:-0.104704 21:-0.022344 22:0.024017 
1.0 3:1.0 11:-0.366103 12:0.138611 13:0.001141 14:0.031276 15:-0.057305 16:-0.088527 17:-0.041732 18:-0.104704 19:-0.022344 20:0.024017 21:-0.030134 22:-0.040329 
1.0 10:1.0 11:-0.373383 12:0.137299 13:0.024017 14:-0.030134 15:-0.040329 16:-0.017093 17:-0.012928 18:-0.130515 19:-0.131249 20:-0.02794 21:0.006923 22:0.013963 
1.0 1:1.0 11:-0.377585 12:0.137299 13:-0.030134 14:-0.040329 15:-0.017093 16:-0.012928 17:-0.130515 18:-0.131249 19:-0.02794 20:0.006923 21:0.013963 22:-0.01889 
1.0 6:1.0 11:-0.381689 12:0.139252 13:-0.131249 14:-0.02794 15:0.006923 16:0.013963 17:-0.01889 18:-0.101386 19:-0.067113 20:-4.05E-4 21:-7.4E-4 22:-0.009056 
1.0 2:1.0 11:-0.388132 12:0.138611 13:-0.067113 14:-4.05E-4 15:-7.4E-4 16:-0.009056 17:-0.036673 18:-0.084275 19:-0.030279 20:0.004509 21:-0.013249 22:-0.014677 
1.0 5:1.0 11:-0.396646 12:0.141357 13:-0.030367 14:-0.01704 15:0.013123 16:-0.030591 17:-0.025974 18:-0.076102 19:-0.031547 20:-0.018028 21:-0.027475 22:-0.081906 
1.0 9:1.0 11:-0.401939 12:0.141357 13:-0.025974 14:-0.076102 15:-0.031547 16:-0.018028 17:-0.027475 18:-0.081906 19:-0.042028 20:0.004371 21:0.005679 22:-0.011106 
1.0 6:1.0 11:-0.406612 12:0.144104 13:0.004371 14:0.005679 15:-0.011106 16:0.015144 17:-0.014417 18:-0.096808 19:-0.041094 20:0.030265 21:0.037251 22:-0.027998 
1.0 3:1.0 11:-0.411633 12:0.143951 13:0.030265 14:0.037251 15:-0.027998 16:-0.014758 17:-0.029961 18:-0.102149 19:-0.002895 20:0.038481 21:-0.005342 22:-0.029158 
1.0 7:1.0 11:-0.416129 12:0.151642 13:0.004401 14:-2.03E-4 15:0.01332 16:0.013672 17:-0.047759 18:-0.117837 19:-0.138705 20:-0.081971 21:0.015441 22:0.023995 
1.0 8:1.0 11:-0.420897 12:0.151642 13:-2.03E-4 14:0.01332 15:0.013672 16:-0.047759 17:-0.117837 18:-0.138705 19:-0.081971 20:0.015441 21:0.023995 22:0.009189 
1.0 9:1.0 11:-0.423737 12:0.151642 13:0.01332 14:0.013672 15:-0.047759 16:-0.117837 17:-0.138705 18:-0.081971 19:0.015441 20:0.023995 21:0.009189 22:0.011296 
1.0 6:1.0 11:-0.424273 12:0.151917 13:0.023995 14:0.009189 15:0.011296 16:0.031876 17:-0.01487 18:-0.092374 19:-0.038897 20:-0.101064 21:-0.095853 22:0.003937 
1.0 8:1.0 11:-0.429152 12:0.151917 13:0.011296 14:0.031876 15:-0.01487 16:-0.092374 17:-0.038897 18:-0.101064 19:-0.095853 20:0.003937 21:0.007621 22:0.014095 
1.0 9:1.0 11:-0.432523 12:0.151917 13:0.031876 14:-0.01487 15:-0.092374 16:-0.038897 17:-0.101064 18:-0.095853 19:0.003937 20:0.007621 21:0.014095 22:0.009292 
1.0 4:1.0 11:-0.431466 12:0.152557 13:0.041559 14:-0.011325 15:-0.004625 16:0.011515 17:-0.018767 18:-0.093811 19:0.026703 20:0.017897 21:-0.016464 22:0.00758 
1.0 1:1.0 11:-0.428267 12:0.156219 13:7.71E-4 14:-0.014188 15:0.003772 16:0.023131 17:-0.025069 18:-0.088827 19:6.6E-5 20:0.017855 21:0.022941 22:0.029263 
1.0 4:1.0 11:-0.418467 12:0.160645 13:-0.02818 14:0.02104 15:0.024074 16:0.03676 17:-0.01791 18:-0.084187 19:0.031426 20:0.026192 21:-0.003848 22:0.028591 
1.0 2:1.0 11:-0.416108 12:0.160919 13:-0.003848 14:0.028591 15:0.061456 16:0.02131 17:-0.017691 18:-0.078862 19:0.01459 20:0.03949 21:-0.062821 22:0.002678 
1.0 5:1.0 11:-0.416409 12:0.160797 13:0.02131 14:-0.017691 15:-0.078862 16:0.01459 17:0.03949 18:-0.062821 19:0.002678 20:0.025158 21:0.030611 22:0.043777 
1.0 7:1.0 11:-0.409594 12:0.158569 13:0.053039 14:0.026136 15:0.036613 16:0.060884 17:-0.010204 18:-0.098803 19:0.001994 20:0.031081 21:-0.073145 22:0.013523 
1.0 10:1.0 11:-0.410955 12:0.158569 13:0.060884 14:-0.010204 15:-0.098803 16:0.001994 17:0.031081 18:-0.073145 19:0.013523 20:0.0557 21:0.025965 22:0.041383 
1.0 5:1.0 11:-0.391022 12:0.15506 13:0.005826 14:0.018933 15:0.032159 16:0.013318 17:0.005928 18:-0.068822 19:-0.011451 20:-0.004086 21:-0.082032 22:0.051294 
1.0 8:1.0 11:-0.394233 12:0.15506 13:0.013318 14:0.005928 15:-0.068822 16:-0.011451 17:-0.004086 18:-0.082032 19:0.051294 20:0.029247 21:0.023109 22:0.023562 
1.0 9:1.0 11:-0.380541 12:0.153229 13:0.033981 14:0.04353 15:-7.78E-4 16:0.004069 17:0.003537 18:-0.076729 19:-5.8E-4 20:0.042398 21:0.04013 22:0.010693 
1.0 7:1.0 11:-0.379424 12:0.151276 13:0.04013 14:0.010693 15:0.036622 16:0.042811 17:-0.042138 18:-0.095424 19:0.02678 20:0.041765 21:-0.08286 22:0.006626 
1.0 10:1.0 11:-0.379888 12:0.151276 13:0.042811 14:-0.042138 15:-0.095424 16:0.02678 17:0.041765 18:-0.08286 19:0.006626 20:0.009266 21:-0.084472 22:0.028654 
1.0 3:1.0 11:-0.382102 12:0.151276 13:0.02678 14:0.041765 15:-0.08286 16:0.006626 17:0.009266 18:-0.084472 19:0.028654 20:0.052486 21:0.008526 22:0.025443 
1.0 5:1.0 11:-0.370994 12:0.150726 13:-0.014699 14:0.01162 15:0.027474 16:0.009686 17:-0.00196 18:-0.064233 19:-0.012562 20:0.011293 21:0.031517 22:0.055638 
1.0 6:1.0 11:-0.368501 12:0.148926 13:0.013398 14:0.02103 15:0.008128 16:0.033595 17:0.005012 18:-0.085129 19:-0.030648 20:0.042738 21:0.05486 22:-1.73E-4 
1.0 3:1.0 11:-0.368991 12:0.14917 13:0.042738 14:0.05486 15:-1.73E-4 16:0.00564 17:-0.004719 18:-0.083242 19:0.018048 20:0.059381 21:0.002447 22:0.00524 
1.0 5:1.0 11:-0.364527 12:0.14917 13:-0.014533 14:0.008984 15:0.033575 16:0.022321 17:8.8E-4 18:-0.067651 19:-0.009082 20:0.015748 21:0.021026 22:0.044066 
1.0 9:1.0 11:-0.360823 12:0.148132 13:0.035483 14:0.048897 15:-0.006203 16:-0.006868 17:-4.84E-4 18:-0.065157 19:-0.04386 20:-0.048278 21:0.010588 22:0.015021 
1.0 1:1.0 11:-0.363713 12:0.148407 13:-0.006203 14:-0.006868 15:-4.84E-4 16:-0.065157 17:-0.04386 18:-0.048278 19:0.010588 20:0.015021 21:0.034047 22:0.035332 
1.0 10:1.0 11:-0.36235 12:0.148407 13:0.035332 14:-0.002557 15:-0.011311 16:0.027373 17:0.024905 18:-0.089947 19:-0.004225 20:0.032641 21:-0.001613 22:0.018718 
1.0 7:1.0 11:-0.363609 12:0.14917 13:0.032641 14:-0.001613 15:0.018718 16:0.022837 17:-0.030733 18:-0.077804 19:0.017436 20:0.062432 21:-0.003671 22:0.011705 
1.0 3:1.0 11:-0.363632 12:0.14917 13:0.017436 14:0.062432 15:-0.003671 16:0.011705 17:-0.002327 18:-0.08638 19:0.021463 20:0.049723 21:0.009241 22:0.006253 
1.0 4:1.0 11:-0.360287 12:0.14801 13:0.0524 14:-0.012679 15:0.009026 16:0.035326 17:-0.003837 18:-0.078982 19:0.024564 20:0.005288 21:-0.004793 22:0.021348 
1.0 2:1.0 11:-0.360144 12:0.147491 13:-0.004793 14:0.021348 15:0.060149 16:-0.011486 17:-0.027312 18:-0.063301 19:-0.027418 20:-0.065984 21:-0.010948 22:-0.051655 
1.0 4:1.0 11:-0.363071 12:0.147491 13:0.060149 14:-0.011486 15:-0.027312 16:-0.063301 17:-0.027418 18:-0.065984 19:-0.010948 20:-0.051655 21:-0.030716 22:0.030113 
1.0 6:1.0 11:-0.36504 12:0.147491 13:-0.027312 14:-0.063301 15:-0.027418 16:-0.065984 17:-0.010948 18:-0.051655 19:-0.030716 20:0.030113 21:0.058727 22:-0.006519 
1.0 3:1.0 11:-0.364769 12:0.147491 13:0.030113 14:0.058727 15:-0.006519 16:0.019989 17:0.008617 18:-0.071674 19:0.026618 20:0.04623 21:0.007934 22:0.004987 
1.0 4:1.0 11:-0.348253 12:0.144745 13:0.048071 14:-0.026149 15:0.007513 16:0.033693 17:-0.023814 18:-0.086366 19:0.036783 20:0.02052 21:-0.028045 22:-0.09759 
1.0 8:1.0 11:-0.350349 12:0.143951 13:-0.023814 14:-0.086366 15:0.036783 16:0.02052 17:-0.028045 18:-0.09759 19:0.030711 20:0.010688 21:0.009879 22:0.01933 
1.0 1:1.0 11:-0.348745 12:0.144867 13:-0.0056 14:-0.006255 15:0.02795 16:0.036433 17:-0.045937 18:-0.099961 19:-0.089117 20:0.009071 21:0.043045 22:0.031718 
1.0 2:1.0 11:-0.351485 12:0.144867 13:-0.006255 14:0.02795 15:0.036433 16:-0.045937 17:-0.099961 18:-0.089117 19:0.009071 20:0.043045 21:0.031718 22:0.00212 
1.0 4:1.0 11:-0.349602 12:0.143707 13:0.039557 14:-0.010401 15:0.024389 16:0.029606 17:-0.034572 18:-0.087499 19:0.025302 20:-0.001332 21:-0.028627 22:0.029778 
1.0 10:1.0 11:-0.349049 12:0.144867 13:0.036598 14:-0.007786 15:-0.001441 16:0.010865 17:-0.017374 18:-0.087431 19:-0.003496 20:0.036192 21:-0.010398 22:0.019634 
1.0 7:1.0 11:-0.350259 12:0.144348 13:0.036192 14:-0.010398 15:0.019634 16:0.026012 17:-0.018661 18:-0.08874 19:0.004357 20:0.058291 21:0.005156 22:0.007792 
1.0 5:1.0 11:-0.350752 12:0.144745 13:0.005156 14:0.007792 15:0.022461 16:-0.005684 17:0.003178 18:-0.111458 19:-0.11936 20:-0.092687 21:0.02941 22:0.072043 
1.0 6:1.0 11:-0.354438 12:0.144745 13:0.007792 14:0.022461 15:-0.005684 16:0.003178 17:-0.111458 18:-0.11936 19:-0.092687 20:0.02941 21:0.072043 22:-0.003991 
1.0 7:1.0 11:-0.357314 12:0.144745 13:0.022461 14:-0.005684 15:0.003178 16:-0.111458 17:-0.11936 18:-0.092687 19:0.02941 20:0.072043 21:-0.003991 22:0.005636 
1.0 7:1.0 11:-0.345443 12:0.144745 13:0.024651 14:7.27E-4 15:0.026013 16:0.032562 17:-0.039325 18:-0.081791 19:0.017468 20:0.058548 21:-0.018408 22:0.00372 
1.0 5:1.0 11:-0.344813 12:0.143829 13:-0.018408 14:0.00372 15:0.032302 16:6.99E-4 17:-0.003209 18:-0.070398 19:-0.00778 20:0.018825 21:0.012215 22:0.058279 
1.0 6:1.0 11:-0.343113 12:0.144623 13:-2.19E-4 14:0.019057 15:0.009151 16:0.030141 17:-0.002913 18:-0.069636 19:-0.01871 20:0.033524 21:0.049218 22:-0.008714 
1.0 2:1.0 11:-0.344355 12:0.143829 13:-0.01871 14:0.033524 15:0.049218 16:-0.008714 17:-0.027809 18:-0.068366 19:0.002955 20:0.041864 21:0.036964 22:0.010523 
1.0 6:1.0 11:-0.34172 12:0.144745 13:0.012465 14:0.043305 15:0.006006 16:0.013225 17:-0.014611 18:-0.107908 19:-0.115277 20:0.022321 21:0.066155 22:-0.044926 
1.0 7:1.0 11:-0.345228 12:0.144745 13:0.043305 14:0.006006 15:0.013225 16:-0.014611 17:-0.107908 18:-0.115277 19:0.022321 20:0.066155 21:-0.044926 22:-0.098963 
1.0 1:1.0 11:-0.346923 12:0.144745 13:-0.107908 14:-0.115277 15:0.022321 16:0.066155 17:-0.044926 18:-0.098963 19:-0.077777 20:0.011247 21:0.01228 22:-0.054166 
1.0 2:1.0 11:-0.349307 12:0.144745 13:-0.115277 14:0.022321 15:0.066155 16:-0.044926 17:-0.098963 18:-0.077777 19:0.011247 20:0.01228 21:-0.054166 22:0.004195 
1.0 5:1.0 11:-0.350251 12:0.144745 13:-0.044926 14:-0.098963 15:-0.077777 16:0.011247 17:0.01228 18:-0.054166 19:0.004195 20:0.004557 21:-0.095062 22:0.037698 
1.0 8:1.0 11:-0.352911 12:0.144867 13:0.011247 14:0.01228 15:-0.054166 16:0.004195 17:0.004557 18:-0.095062 19:0.037698 20:0.016886 21:0.030251 22:0.029949 
1.0 9:1.0 11:-0.340731 12:0.145904 13:0.015009 14:0.027278 15:-0.003218 16:-0.011804 17:-3.08E-4 18:-0.051399 19:-0.04435 20:-0.052115 21:0.005213 22:0.016228 
1.0 1:1.0 11:-0.343665 12:0.144104 13:-0.003218 14:-0.011804 15:-3.08E-4 16:-0.051399 17:-0.04435 18:-0.052115 19:0.005213 20:0.016228 21:0.026936 22:0.033109 
1.0 2:1.0 11:-0.34202 12:0.143829 13:-5.22E-4 14:0.029761 15:0.055905 16:-0.021335 17:-0.02124 18:-0.064573 19:-0.004664 20:0.030115 21:0.037763 22:-0.006851 
1.0 5:1.0 11:-0.340018 12:0.142792 13:-0.017287 14:0.011209 15:0.0385 16:0.003731 17:-0.003089 18:-0.074515 19:-0.022107 20:0.001281 21:0.011406 22:0.002904 
1.0 10:1.0 11:-0.342525 12:0.142792 13:-0.074515 14:-0.022107 15:0.001281 16:0.011406 17:0.002904 18:-0.075988 19:-0.006875 20:0.036902 21:-0.003793 22:0.019886 
1.0 6:1.0 11:-0.340824 12:0.143707 13:0.003511 14:0.021177 15:-0.004383 16:0.019537 17:-0.011891 18:-0.066657 19:-0.021563 20:0.018102 21:0.050867 22:-0.010974 
1.0 2:1.0 11:-0.342818 12:0.143555 13:-0.021563 14:0.018102 15:0.050867 16:-0.010974 17:-0.025712 18:-0.07646 19:-0.015256 20:0.033568 21:0.049615 22:0.004792 
1.0 8:1.0 11:-0.344252 12:0.144745 13:-0.015256 14:0.033568 15:0.049615 16:0.004792 17:-0.026951 18:-0.092976 19:0.042309 20:-2.96E-4 21:0.007313 22:0.039136 
1.0 7:1.0 11:-0.343682 12:0.143433 13:0.039136 14:0.006919 15:0.024817 16:0.026664 17:-0.047201 18:-0.08109 19:0.020654 20:0.047372 21:-0.001147 22:0.020379 
1.0 3:1.0 11:-0.344507 12:0.144745 13:0.020654 14:0.047372 15:-0.001147 16:0.020379 17:3.77E-4 18:-0.114771 19:-0.091196 20:0.037411 21:0.022848 22:0.007787 
1.0 4:1.0 11:-0.347297 12:0.144745 13:0.047372 14:-0.001147 15:0.020379 16:3.77E-4 17:-0.114771 18:-0.091196 19:0.037411 20:0.022848 21:0.007787 22:0.015277 
1.0 3:1.0 11:-0.345914 12:0.144348 13:0.015277 14:0.061237 15:-0.00295 16:2.11E-4 17:-0.012959 18:-0.083789 19:0.019729 20:0.040899 21:0.006789 22:0.010521 
1.0 1:1.0 11:-0.346456 12:0.144623 13:0.006789 14:0.010521 15:0.018445 16:0.045159 17:-0.0557 18:-0.103579 19:-0.072314 20:0.038572 21:0.046647 22:0.030214 
1.0 2:1.0 11:-0.34867 12:0.144623 13:0.010521 14:0.018445 15:0.045159 16:-0.0557 17:-0.103579 18:-0.072314 19:0.038572 20:0.046647 21:0.030214 22:0.008468 
1.0 2:1.0 11:-0.340758 12:0.144104 13:-9.62E-4 14:0.027619 15:0.057926 16:-0.01417 17:-0.024476 18:-0.063123 19:0.007816 20:0.034746 21:0.031802 22:-0.034819 
1.0 7:1.0 11:-0.342629 12:0.144867 13:-0.063123 14:0.007816 15:0.034746 16:0.031802 17:-0.034819 18:-0.10128 19:-0.111695 20:-0.063739 21:-0.032806 22:-0.043918 
1.0 8:1.0 11:-0.346034 12:0.144867 13:0.007816 14:0.034746 15:0.031802 16:-0.034819 17:-0.10128 18:-0.111695 19:-0.063739 20:-0.032806 21:-0.043918 22:0.023479 
1.0 9:1.0 11:-0.347988 12:0.144867 13:0.034746 14:0.031802 15:-0.034819 16:-0.10128 17:-0.111695 18:-0.063739 19:-0.032806 20:-0.043918 21:0.023479 22:0.007361 
1.0 1:1.0 11:-0.350346 12:0.145386 13:-0.034819 14:-0.10128 15:-0.111695 16:-0.063739 17:-0.032806 18:-0.043918 19:0.023479 20:0.007361 21:0.031229 22:0.040649 
1.0 3:1.0 11:-0.346275 12:0.145783 13:0.034095 14:0.071739 15:-0.001184 16:0.006865 17:-0.016513 18:-0.096477 19:0.011855 20:0.047798 21:-0.005138 22:-9.92E-4 
1.0 8:1.0 11:-0.339487 12:0.143707 13:0.005999 14:0.021429 15:0.025933 16:-0.0187 17:-0.028805 18:-0.078752 19:0.047956 20:0.003478 21:-0.027653 22:-0.068977 
1.0 2:1.0 11:-0.340853 12:0.143707 13:-0.028805 14:-0.078752 15:0.047956 16:0.003478 17:-0.027653 18:-0.068977 19:-0.002041 20:0.037845 21:0.036262 22:-0.012706 
1.0 8:1.0 11:-0.342365 12:0.143707 13:-0.002041 14:0.037845 15:0.036262 16:-0.012706 17:-0.022166 18:-0.087085 19:0.03277 20:-0.007822 21:0.011439 22:0.041219 
1.0 4:1.0 11:-0.339386 12:0.141357 13:0.038188 14:-0.011924 15:0.004561 16:0.019611 17:-0.020921 18:-0.073583 19:0.025495 20:0.004024 21:-0.009101 22:0.024129 
1.0 2:1.0 11:-0.336943 12:0.140839 13:-4.63E-4 14:0.018408 15:0.045523 16:-0.017078 17:-0.031681 18:-0.072469 19:-8.44E-4 20:0.036035 21:0.029687 22:-0.004492 
1.0 1:1.0 11:-0.337697 12:0.142395 13:-0.004492 14:-0.005982 15:0.011963 16:0.037639 17:-0.056986 18:-0.072056 19:0.013625 20:0.005999 21:0.026441 22:0.021838 
1.0 3:1.0 11:-0.337901 12:0.135742 13:0.007363 14:0.030221 15:-0.007385 16:1.12E-4 17:-0.01427 18:-0.087648 19:0.007791 20:0.030303 21:-0.015924 22:-0.028689 
1.0 8:1.0 11:-0.354881 12:0.136139 13:-0.021647 14:-0.001087 15:-4.69E-4 16:-0.039244 17:-0.054594 18:-0.107347 19:0.005545 20:-0.011536 21:-0.022906 22:-0.003581 
1.0 4:1.0 11:-0.365015 12:0.136932 13:0.020062 14:-0.039429 15:-0.034927 16:-0.010516 17:-0.045218 18:-0.093602 19:-0.037969 20:-0.078693 21:-0.048243 22:0.009673 
1.0 6:1.0 11:-0.368701 12:0.136932 13:-0.034927 14:-0.010516 15:-0.045218 16:-0.093602 17:-0.037969 18:-0.078693 19:-0.048243 20:0.009673 21:0.007074 22:-0.026003 
1.0 6:1.0 11:-0.374811 12:0.137817 13:-0.017631 14:-0.003887 15:-0.004729 16:0.022626 17:-0.033274 18:-0.097555 19:-0.065133 20:0.002385 21:0.013986 22:-0.043079 
1.0 10:1.0 11:-0.385576 12:0.139252 13:0.009965 14:-0.006788 15:-0.046888 16:-0.067259 17:0.001007 18:-0.105715 19:-0.055567 20:0.021471 21:-0.013284 22:0.003018 
1.0 7:1.0 11:-0.391475 12:0.139404 13:0.021471 14:-0.013284 15:0.003018 16:6.85E-4 17:-0.04559 18:-0.091162 19:-0.016694 20:-0.013971 21:-0.118329 22:-0.119548 
1.0 10:1.0 11:-0.396396 12:0.139404 13:6.85E-4 14:-0.04559 15:-0.091162 16:-0.016694 17:-0.013971 18:-0.118329 19:-0.119548 20:-0.011082 21:0.0072 22:-0.004275 
1.0 1:1.0 11:-0.400369 12:0.141754 13:-0.04559 14:-0.091162 15:-0.016694 16:-0.013971 17:-0.118329 18:-0.119548 19:-0.011082 20:0.0072 21:-0.004275 22:-0.080496 
1.0 5:1.0 11:-0.403336 12:0.141754 13:-0.118329 14:-0.119548 15:-0.011082 16:0.0072 17:-0.004275 18:-0.080496 19:-0.024151 20:0.001002 21:-0.002088 22:0.022731 
1.0 2:1.0 11:-0.410563 12:0.146698 13:-0.025197 14:0.007162 15:0.031051 16:-0.022773 17:-0.035265 18:-0.083027 19:-0.014299 20:0.033154 21:-0.021144 22:-0.090749 
1.0 6:1.0 11:-0.413727 12:0.147217 13:-0.035265 14:-0.083027 15:-0.014299 16:0.033154 17:-0.021144 18:-0.090749 19:-0.023704 20:0.030412 21:0.028114 22:-0.01684 
1.0 2:1.0 11:-0.416524 12:0.14801 13:-0.024188 14:0.006493 15:0.031349 16:-0.0115 17:-0.038588 18:-0.089426 19:0.00275 20:0.016943 21:-0.080474 22:-0.014627 
1.0 5:1.0 11:-0.418613 12:0.14801 13:-0.0115 14:-0.038588 15:-0.089426 16:0.00275 17:0.016943 18:-0.080474 19:-0.014627 20:0.014607 21:0.01571 22:0.022733 
1.0 1:1.0 11:-0.400965 12:0.155945 13:0.010899 14:0.01827 15:0.031924 16:0.0469 17:-0.032666 18:-0.071799 19:0.0088 20:0.039302 21:0.046839 22:0.034847 
1.0 4:1.0 11:-0.380361 12:0.153351 13:0.059365 14:5.9E-4 15:0.007835 16:0.024408 17:-0.012285 18:-0.070417 19:0.032916 20:0.010786 21:0.0048 22:0.01218 
1.0 9:1.0 11:-0.380768 12:0.151642 13:-0.070417 14:0.032916 15:0.010786 16:0.0048 17:0.01218 18:-0.073259 19:-0.010578 20:0.031821 21:0.027949 22:0.021169 
1.0 8:1.0 11:-0.374358 12:0.15036 13:0.007706 14:0.036121 15:0.028057 16:-0.019587 17:-0.021779 18:-0.08523 19:0.012117 20:-0.066656 21:-0.012082 22:0.035721 
1.0 10:1.0 11:-0.376106 12:0.15036 13:0.028057 14:-0.019587 15:-0.021779 16:-0.08523 17:0.012117 18:-0.066656 19:-0.012082 20:0.035721 21:0.009219 22:0.03962 
1.0 9:1.0 11:-0.366684 12:0.148529 13:0.033706 14:0.028294 15:-0.00828 16:-0.014376 17:0.008143 18:-0.067888 19:-0.043239 20:-0.046412 21:0.012594 22:0.019525 
1.0 1:1.0 11:-0.369522 12:0.148529 13:-0.00828 14:-0.014376 15:0.008143 16:-0.067888 17:-0.043239 18:-0.046412 19:0.012594 20:0.019525 21:0.024368 22:0.029823 
1.0 1:1.0 11:-0.368464 12:0.149567 13:-0.00114 14:-0.009475 15:0.022826 16:0.054022 17:-0.041595 18:-0.077577 19:0.005168 20:0.015623 21:0.032325 22:0.029589 
1.0 1:1.0 11:-0.368576 12:0.150879 13:-0.006289 14:-0.002726 15:0.01811 16:0.024959 17:-0.036017 18:-0.084305 19:0.00319 20:0.022724 21:0.041047 22:-0.007311 
1.0 6:1.0 11:-0.36885 12:0.150208 13:-0.084305 14:0.00319 15:0.022724 16:0.041047 17:-0.007311 18:-0.068318 19:-0.02825 20:0.028523 21:0.050758 22:0.002965 
1.0 4:1.0 11:-0.363893 12:0.15036 13:0.047755 14:-0.007328 15:0.007962 16:0.031517 17:-0.01672 18:-0.079502 19:-0.004914 20:-0.088944 21:-0.115771 22:0.021006 
1.0 6:1.0 11:-0.366851 12:0.15036 13:0.007962 14:0.031517 15:-0.01672 16:-0.079502 17:-0.004914 18:-0.088944 19:-0.115771 20:0.021006 21:0.063947 22:-0.006125 
1.0 7:1.0 11:-0.370515 12:0.15036 13:0.031517 14:-0.01672 15:-0.079502 16:-0.004914 17:-0.088944 18:-0.115771 19:0.021006 20:0.063947 21:-0.006125 22:0.009086 
1.0 3:1.0 11:-0.364517 12:0.149292 13:0.010981 14:0.048631 15:-0.015439 16:0.006753 17:-0.003953 18:-0.083958 19:0.023022 20:0.013982 21:-0.102337 22:-0.131931 
1.0 6:1.0 11:-0.366575 12:0.149292 13:0.006753 14:-0.003953 15:-0.083958 16:0.023022 17:0.013982 18:-0.102337 19:-0.131931 20:-0.084851 21:0.058777 22:0.018672 
1.0 7:1.0 11:-0.37075 12:0.150604 13:-0.003953 14:-0.083958 15:0.023022 16:0.013982 17:-0.102337 18:-0.131931 19:-0.084851 20:0.058777 21:0.018672 22:0.017809 
1.0 8:1.0 11:-0.373451 12:0.150604 13:-0.083958 14:0.023022 15:0.013982 16:-0.102337 17:-0.131931 18:-0.084851 19:0.058777 20:0.018672 21:0.017809 22:0.039991 
1.0 4:1.0 11:-0.364637 12:0.149963 13:0.045675 14:-0.01702 15:0.015606 16:0.029404 17:-0.015442 18:-0.087293 19:-0.007319 20:-0.050964 21:-0.006705 22:0.047216 
1.0 6:1.0 11:-0.366474 12:0.149963 13:0.015606 14:0.029404 15:-0.015442 16:-0.087293 17:-0.007319 18:-0.050964 19:-0.006705 20:0.047216 21:0.050653 22:-0.046572 
1.0 1:1.0 11:-0.367114 12:0.148651 13:-0.050964 14:-0.006705 15:0.047216 16:0.050653 17:-0.046572 18:-0.064814 19:-0.020951 20:-0.073268 21:0.028959 22:0.057958 
1.0 3:1.0 11:-0.370096 12:0.148651 13:0.047216 14:0.050653 15:-0.046572 16:-0.064814 17:-0.020951 18:-0.073268 19:0.028959 20:0.057958 21:0.014299 22:0.012386 
1.0 3:1.0 11:-0.366429 12:0.148529 13:0.028461 14:0.04777 15:-0.008121 16:0.021473 17:9.3E-5 18:-0.087571 19:0.021319 20:0.056206 21:0.009829 22:0.003726 
1.0 2:1.0 11:-0.363761 12:0.148529 13:0.003726 14:0.023502 15:0.053135 16:-0.004484 17:-0.013154 18:-0.06553 19:0.021064 20:0.042127 21:0.035346 22:-0.001738 
1.0 3:1.0 11:-0.355102 12:0.146179 13:0.020017 14:0.041431 15:-0.014129 16:0.015087 17:-6.19E-4 18:-0.091472 19:-0.005323 20:-0.046913 21:-0.012004 22:0.016419 
1.0 5:1.0 11:-0.356726 12:0.146057 13:-0.014129 14:0.015087 15:-6.19E-4 16:-0.091472 17:-0.005323 18:-0.046913 19:-0.012004 20:0.016419 21:0.017785 22:0.041922 
1.0 3:1.0 11:-0.35031 12:0.145783 13:0.027649 14:0.046904 15:-0.011268 16:8.88E-4 17:-0.006229 18:-0.086738 19:-0.006547 20:-0.055021 21:-0.019703 22:0.007019 
1.0 5:1.0 11:-0.35221 12:0.146179 13:-0.011268 14:8.88E-4 15:-0.006229 16:-0.086738 17:-0.006547 18:-0.055021 19:-0.019703 20:0.007019 21:0.026924 22:0.046384 
1.0 10:1.0 11:-0.349908 12:0.146576 13:0.036831 14:-0.01084 15:-0.010584 16:0.006929 17:-0.002027 18:-0.081913 19:-0.007381 20:0.0425 21:0.011252 22:0.024388 
1.0 3:1.0 11:-0.348604 12:0.145264 13:0.010407 14:0.054082 15:-0.001255 16:0.004911 17:-0.00714 18:-0.090109 19:-0.014002 20:-0.052788 21:-0.009952 22:0.017822 
1.0 5:1.0 11:-0.350659 12:0.145264 13:-0.001255 14:0.004911 15:-0.00714 16:-0.090109 17:-0.014002 18:-0.052788 19:-0.009952 20:0.017822 21:0.019815 22:0.058362 
1.0 2:1.0 11:-0.342345 12:0.146179 13:-0.008128 14:0.020793 15:0.048196 16:-0.018158 17:-0.025254 18:-0.056849 19:0.003805 20:0.03189 21:0.030592 22:-0.009992 
1.0 2:1.0 11:-0.338082 12:0.144226 13:-0.005503 14:0.014216 15:0.05169 16:-0.012888 17:-0.025135 18:-0.071193 19:0.006458 20:0.038662 21:-0.010111 22:-0.095962 
1.0 6:1.0 11:-0.339926 12:0.143311 13:-0.025135 14:-0.071193 15:0.006458 16:0.038662 17:-0.010111 18:-0.095962 19:-0.105998 20:0.004259 21:-0.051187 22:-0.017895 
1.0 7:1.0 11:-0.343142 12:0.143311 13:-0.071193 14:0.006458 15:0.038662 16:-0.010111 17:-0.095962 18:-0.105998 19:0.004259 20:-0.051187 21:-0.017895 22:0.032255 
1.0 9:1.0 11:-0.344574 12:0.145904 13:0.038662 14:-0.010111 15:-0.095962 16:-0.105998 17:0.004259 18:-0.051187 19:-0.017895 20:0.032255 21:0.039761 22:0.011808 
1.0 7:1.0 11:-0.345134 12:0.145904 13:0.039761 14:0.011808 15:0.02252 16:0.038082 17:-0.02787 18:-0.117112 19:-0.106451 20:0.065632 21:0.006573 22:0.008384 
1.0 8:1.0 11:-0.348391 12:0.145904 13:0.011808 14:0.02252 15:0.038082 16:-0.02787 17:-0.117112 18:-0.106451 19:0.065632 20:0.006573 21:0.008384 22:0.031051 
1.0 6:1.0 11:-0.335233 12:0.143189 13:-7.83E-4 14:0.025933 15:0.005046 16:0.021599 17:-0.01248 18:-0.075077 19:-0.029384 20:0.005075 21:-0.050507 22:-0.025037 
1.0 9:1.0 11:-0.337488 12:0.144104 13:0.021599 14:-0.01248 15:-0.075077 16:-0.029384 17:0.005075 18:-0.050507 19:-0.025037 20:0.023573 21:0.027332 22:-0.024993 
1.0 4:1.0 11:-0.339713 12:0.144104 13:-0.050507 14:-0.025037 15:0.023573 16:0.027332 17:-0.024993 18:-0.074363 19:0.029505 20:0.006724 21:-0.033938 22:0.012327 
1.0 3:1.0 11:-0.341417 12:0.141754 13:0.012327 14:0.056145 15:-0.025027 16:-0.016783 17:-0.008186 18:-0.077093 19:0.019452 20:0.022144 21:-0.039545 22:-0.076617 
1.0 7:1.0 11:-0.343682 12:0.140442 13:-0.008186 14:-0.077093 15:0.019452 16:0.022144 17:-0.039545 18:-0.076617 19:0.012237 20:0.057557 21:-0.012268 22:7.03E-4 
1.0 4:1.0 11:-0.343957 12:0.140442 13:0.057557 14:-0.012268 15:7.03E-4 16:0.024057 17:-0.010962 18:-0.080289 19:0.006723 20:0.006811 21:-0.003641 22:0.012236 
1.0 4:1.0 11:-0.344815 12:0.141876 13:0.045556 14:-0.017586 15:-0.008208 16:0.022178 17:-0.015339 18:-0.07682 19:-0.01219 20:-0.053689 21:-0.024527 22:0.027823 
1.0 6:1.0 11:-0.346829 12:0.141876 13:-0.008208 14:0.022178 15:-0.015339 16:-0.07682 17:-0.01219 18:-0.053689 19:-0.024527 20:0.027823 21:0.059908 22:-0.014378 
1.0 1:1.0 11:-0.344916 12:0.143036 13:-0.005102 14:-0.008086 15:0.017137 16:0.038099 17:-0.051331 18:-0.066037 19:0.018396 20:0.004277 21:0.010979 22:-0.001207 
1.0 6:1.0 11:-0.345988 12:0.143036 13:-0.066037 14:0.018396 15:0.004277 16:0.010979 17:-0.001207 18:-0.067523 19:-0.039001 20:-0.076189 21:0.042434 22:0.011216 
1.0 8:1.0 11:-0.349517 12:0.143036 13:0.004277 14:0.010979 15:-0.001207 16:-0.067523 17:-0.039001 18:-0.076189 19:0.042434 20:0.011216 21:0.016071 22:0.022961 
1.0 1:1.0 11:-0.342762 12:0.146179 13:0.004769 14:0.002173 15:0.009605 16:0.039232 17:-0.042341 18:-0.068389 19:0.015484 20:0.013158 21:0.030584 22:0.033781 
1.0 3:1.0 11:-0.34063 12:0.145142 13:0.020873 14:0.054747 15:-0.010546 16:0.012677 17:-0.00776 18:-0.087381 19:0.016344 20:0.051522 21:-0.001857 22:-0.010456 
1.0 2:1.0 11:-0.335509 12:0.144867 13:-0.007844 14:0.011055 15:0.05256 16:-0.015723 17:-0.023439 18:-0.060414 19:0.004609 20:0.035291 21:0.031339 22:-0.01001 
1.0 9:1.0 11:-0.335248 12:0.145783 13:0.035291 14:0.031339 15:-0.01001 16:-9.13E-4 17:0.003197 18:-0.054836 19:-0.014248 20:0.022576 21:0.039705 22:0.009677 
1.0 9:1.0 11:-0.335013 12:0.145904 13:0.016958 14:0.022738 15:-0.009547 16:-0.007881 17:-0.00935 18:-0.062777 19:-0.018375 20:0.034105 21:0.027277 22:-0.0199 
1.0 4:1.0 11:-0.336582 12:0.145783 13:-0.062777 14:-0.018375 15:0.034105 16:0.027277 17:-0.0199 18:-0.075135 19:0.031402 20:-0.014126 21:-0.086115 22:0.010082 
1.0 7:1.0 11:-0.338658 12:0.145783 13:0.027277 14:-0.0199 15:-0.075135 16:0.031402 17:-0.014126 18:-0.086115 19:0.010082 20:0.065895 21:-0.055963 22:-0.074039 
1.0 1:1.0 11:-0.340294 12:0.145783 13:-0.014126 14:-0.086115 15:0.010082 16:0.065895 17:-0.055963 18:-0.074039 19:0.009834 20:0.025389 21:0.048453 22:0.024373 
1.0 5:1.0 11:-0.3362 12:0.144348 13:-0.020216 14:0.012489 15:0.03414 16:0.011525 17:-0.01257 18:-0.070629 19:-0.017308 20:0.011408 21:0.002791 22:0.05721 
1.0 1:1.0 11:-0.338068 12:0.144348 13:-0.017308 14:0.011408 15:0.002791 16:0.05721 17:-0.046773 18:-0.069208 19:0.006779 20:0.011454 21:-0.007627 22:-0.061052 
1.0 5:1.0 11:-0.339596 12:0.144745 13:-0.046773 14:-0.069208 15:0.006779 16:0.011454 17:-0.007627 18:-0.061052 19:-0.012244 20:-0.002308 21:-0.087395 22:0.047431 
1.0 8:1.0 11:-0.342689 12:0.144745 13:0.011454 14:-0.007627 15:-0.061052 16:-0.012244 17:-0.002308 18:-0.087395 19:0.047431 20:-0.033616 21:-0.104897 22:-0.085224 
1.0 1:1.0 11:-0.345466 12:0.144745 13:-0.012244 14:-0.002308 15:-0.087395 16:0.047431 17:-0.033616 18:-0.104897 19:-0.085224 20:0.011268 21:0.049659 22:0.04509 
1.0 2:1.0 11:-0.348073 12:0.144745 13:-0.002308 14:-0.087395 15:0.047431 16:-0.033616 17:-0.104897 18:-0.085224 19:0.011268 20:0.049659 21:0.04509 22:-0.015685 
1.0 9:1.0 11:-0.347164 12:0.145386 13:0.049659 14:0.04509 15:-0.015685 16:3.2E-4 17:0.013519 18:-0.074556 19:-0.058351 20:-0.049069 21:0.01873 22:0.021137 
1.0 1:1.0 11:-0.350465 12:0.145386 13:-0.015685 14:3.2E-4 15:0.013519 16:-0.074556 17:-0.058351 18:-0.049069 19:0.01873 20:0.021137 21:0.028224 22:0.032854 
1.0 7:1.0 11:-0.351261 12:0.145142 13:0.01873 14:0.021137 15:0.028224 16:0.032854 17:-0.040291 18:-0.086608 19:0.017625 20:0.071515 21:-0.008658 22:0.026361 
1.0 10:1.0 11:-0.347191 12:0.143433 13:0.027579 14:-0.00252 15:0.011312 16:0.011766 17:0.016257 18:-0.099987 19:-0.008664 20:0.036936 21:0.002993 22:0.024959 
1.0 7:1.0 11:-0.348484 12:0.143433 13:0.036936 14:0.002993 15:0.024959 16:0.024167 17:-0.037607 18:-0.085068 19:0.008663 20:0.056531 21:-4.05E-4 22:0.006176 
1.0 3:1.0 11:-0.345834 12:0.139526 13:0.007367 14:0.053854 15:-0.018446 16:0.001542 17:-0.010744 18:-0.084707 19:0.006612 20:0.035994 21:-0.002497 22:-0.003196 
1.0 1:1.0 11:-0.354125 12:0.138885 13:-0.038589 14:-0.025237 15:-0.011171 16:0.012709 17:-0.066006 18:-0.097723 19:-0.017489 20:-0.023284 21:-0.096497 22:-0.007751 
1.0 4:1.0 11:-0.358391 12:0.139923 13:0.012709 14:-0.066006 15:-0.097723 16:-0.017489 17:-0.023284 18:-0.096497 19:-0.007751 20:-0.013621 21:-0.020435 22:0.002421 
1.0 2:1.0 11:-0.37044 12:0.141083 13:-0.03439 14:-0.015407 15:0.029713 16:-0.029614 17:-0.04875 18:-0.090029 19:-0.026568 20:0.011753 21:0.007466 22:-0.028112 
1.0 6:1.0 11:-0.377513 12:0.142792 13:-0.012914 14:0.004617 15:-0.023095 16:-0.002059 17:-0.035921 18:-0.080363 19:-0.044848 20:0.004299 21:-0.02004 22:-0.098209 
1.0 10:1.0 11:-0.382638 12:0.144104 13:-0.035921 14:-0.080363 15:-0.044848 16:0.004299 17:-0.02004 18:-0.098209 19:-0.032497 20:0.019329 21:-0.038499 22:-0.091025 
1.0 4:1.0 11:-0.38728 12:0.143707 13:-0.02004 14:-0.098209 15:-0.032497 16:0.019329 17:-0.038499 18:-0.091025 19:0.006062 20:0.005035 21:-0.021052 22:-0.0071 
1.0 6:1.0 11:-0.391873 12:0.144989 13:-0.006127 14:0.001999 15:-0.011082 16:0.009846 17:-0.044753 18:-0.097199 19:-0.054197 20:0.012122 21:0.032562 22:-0.019425 
1.0 4:1.0 11:-0.404882 12:0.14682 13:-0.010707 14:-0.005122 15:-0.012295 16:0.003074 17:-0.032417 18:-0.090242 19:-0.028419 20:-0.08569 21:-0.03907 22:0.030336 
1.0 6:1.0 11:-0.40873 12:0.148132 13:-0.012295 14:0.003074 15:-0.032417 16:-0.090242 17:-0.028419 18:-0.08569 19:-0.03907 20:0.030336 21:0.028225 22:-0.018388 
1.0 4:1.0 11:-0.41053 12:0.152313 13:0.023129 14:-0.002871 15:-0.008236 16:0.010403 17:-0.015951 18:-0.082879 19:0.015315 20:0.007512 21:-3.71E-4 22:0.027462 
1.0 10:1.0 11:-0.41077 12:0.153229 13:0.015315 14:0.007512 15:-3.71E-4 16:0.027462 17:0.019187 18:-0.076116 19:0.008095 20:0.011824 21:-0.072331 22:0.029475 
1.0 3:1.0 11:-0.412551 12:0.153229 13:0.027462 14:0.019187 15:-0.076116 16:0.008095 17:0.011824 18:-0.072331 19:0.029475 20:0.040124 21:0.003002 22:-0.012255 
1.0 8:1.0 11:-0.413584 12:0.154388 13:-0.072331 14:0.029475 15:0.040124 16:0.003002 17:-0.012255 18:-0.090805 19:0.00981 20:-0.056568 21:-0.002264 22:0.050202 
1.0 10:1.0 11:-0.415183 12:0.154388 13:0.040124 14:0.003002 15:-0.012255 16:-0.090805 17:0.00981 18:-0.056568 19:-0.002264 20:0.050202 21:0.035294 22:0.03618 
1.0 6:1.0 11:-0.413674 12:0.154785 13:-0.002264 14:0.050202 15:0.035294 16:0.03618 17:-3.79E-4 18:-0.074803 19:-0.0347 20:-0.089608 21:-0.068205 22:0.023139 
1.0 8:1.0 11:-0.417926 12:0.154785 13:0.035294 14:0.03618 15:-3.79E-4 16:-0.074803 17:-0.0347 18:-0.089608 19:-0.068205 20:0.023139 21:0.026141 22:0.045593 
1.0 9:1.0 11:-0.420276 12:0.154785 13:0.03618 14:-3.79E-4 15:-0.074803 16:-0.0347 17:-0.089608 18:-0.068205 19:0.023139 20:0.026141 21:0.045593 22:0.034151 
1.0 10:1.0 11:-0.402334 12:0.157654 13:0.04186 14:0.004151 15:0.005418 16:0.031796 17:0.021995 18:-0.090325 19:-0.004583 20:0.055394 21:0.028136 22:0.04202 
1.0 9:1.0 11:-0.380313 12:0.155579 13:0.04206 14:0.043048 15:7.04E-4 16:0.015713 17:0.008805 18:-0.073442 19:-0.016516 20:0.020319 21:0.045931 22:0.021579 
1.0 8:1.0 11:-0.378852 12:0.153473 13:0.021579 14:0.026761 15:0.035801 16:0.016041 17:-0.015657 18:-0.088961 19:0.052635 20:0.01612 21:0.023567 22:0.030861 
1.0 4:1.0 11:-0.372241 12:0.15271 13:0.05514 14:-0.017484 15:-0.008287 16:0.034241 17:-0.011564 18:-0.105755 19:-0.074031 20:0.018125 21:0.030772 22:0.033215 
1.0 5:1.0 11:-0.374607 12:0.152313 13:-0.017484 14:-0.008287 15:0.034241 16:-0.011564 17:-0.105755 18:-0.074031 19:0.018125 20:0.030772 21:0.033215 22:0.052885 
1.0 6:1.0 11:-0.354842 12:0.148926 13:0.006848 14:0.031815 15:0.014965 16:0.034678 17:-0.005236 18:-0.077891 19:-0.024982 20:0.031269 21:0.042542 22:-0.003136 
1.0 10:1.0 11:-0.351383 12:0.147491 13:0.032834 14:0.003363 15:6.94E-4 16:0.02892 17:0.010556 18:-0.094322 19:-0.003981 20:0.042215 21:-0.018785 22:-0.071839 
1.0 4:1.0 11:-0.353003 12:0.146576 13:0.010556 14:-0.094322 15:-0.003981 16:0.042215 17:-0.018785 18:-0.071839 19:0.032012 20:0.018579 21:2.42E-4 22:0.001386 
1.0 9:1.0 11:-0.353068 12:0.14682 13:-0.071839 14:0.032012 15:0.018579 16:2.42E-4 17:0.001386 18:-0.054324 19:-0.037667 20:-0.050611 21:0.00605 22:0.020352 
1.0 1:1.0 11:-0.355804 12:0.14682 13:0.018579 14:2.42E-4 15:0.001386 16:-0.054324 17:-0.037667 18:-0.050611 19:0.00605 20:0.020352 21:0.041649 22:0.033581 
1.0 1:1.0 11:-0.34458 12:0.147491 13:-0.007767 14:-0.008517 15:0.023768 16:0.059002 17:-0.050066 18:-0.067012 19:0.014452 20:0.015317 21:-0.002693 22:-0.104494 
1.0 5:1.0 11:-0.346951 12:0.147491 13:-0.050066 14:-0.067012 15:0.014452 16:0.015317 17:-0.002693 18:-0.104494 19:-0.083526 20:-0.004473 21:0.025038 22:-0.055938 
1.0 6:1.0 11:-0.349514 12:0.147491 13:-0.067012 14:0.014452 15:0.015317 16:-0.002693 17:-0.104494 18:-0.083526 19:-0.004473 20:0.025038 21:-0.055938 22:-0.006505 
1.0 9:1.0 11:-0.350604 12:0.147491 13:-0.002693 14:-0.104494 15:-0.083526 16:-0.004473 17:0.025038 18:-0.055938 19:-0.006505 20:0.037636 21:0.03697 22:0.010395 
1.0 10:1.0 11:-0.342741 12:0.144989 13:0.034591 14:-0.011783 15:-0.010828 16:0.014534 17:0.016793 18:-0.086661 19:-0.005105 20:0.039554 21:0.00826 22:0.023917 
1.0 10:1.0 11:-0.334309 12:0.145142 13:0.031993 14:-0.010011 15:0.001423 16:0.016211 17:0.016993 18:-0.093022 19:-0.014615 20:0.035118 21:0.011531 22:0.02901 
1.0 9:1.0 11:-0.334433 12:0.143829 13:0.02901 14:0.029328 15:-0.008616 16:-0.01163 17:-0.01823 18:-0.056012 19:-0.041767 20:-0.052007 21:0.004075 22:0.022424 
1.0 1:1.0 11:-0.337258 12:0.143829 13:-0.008616 14:-0.01163 15:-0.01823 16:-0.056012 17:-0.041767 18:-0.052007 19:0.004075 20:0.022424 21:0.031971 22:0.027456 
1.0 7:1.0 11:-0.338562 12:0.143829 13:0.004075 14:0.022424 15:0.031971 16:0.027456 17:-0.043967 18:-0.085235 19:0.015522 20:0.067784 21:-0.016043 22:-0.003157 
1.0 8:1.0 11:-0.337696 12:0.141998 13:-0.003162 14:0.014155 15:0.030626 16:0.001033 17:-0.013812 18:-0.082216 19:0.054184 20:-8.2E-5 21:-0.0036 22:0.027516 
1.0 5:1.0 11:-0.337162 12:0.141998 13:-8.2E-5 14:-0.0036 15:0.027516 16:0.004609 17:-9.66E-4 18:-0.063938 19:-0.015003 20:0.020474 21:0.024719 22:0.042072 
1.0 6:1.0 11:-0.337148 12:0.143707 13:-0.003128 14:0.027133 15:0.00506 16:0.025685 17:-0.00462 18:-0.10444 19:-0.110452 20:0.02265 21:0.061014 22:-0.010999 
1.0 7:1.0 11:-0.340486 12:0.143707 13:0.027133 14:0.00506 15:0.025685 16:-0.00462 17:-0.10444 18:-0.110452 19:0.02265 20:0.061014 21:-0.010999 22:0.010847 
1.0 10:1.0 11:-0.336503 12:0.142273 13:0.039792 14:0.008414 15:0.001392 16:0.005055 17:0.014175 18:-0.08987 19:-0.015932 20:0.038409 21:0.010576 22:0.027925 
1.0 5:1.0 11:-0.334655 12:0.143707 13:-0.009708 14:-0.001174 15:0.025708 16:0.00736 17:-0.00678 18:-0.104053 19:-0.075495 20:-0.010516 21:0.026986 22:0.060395 
1.0 6:1.0 11:-0.336928 12:0.145538 13:-0.001174 14:0.025708 15:0.00736 16:-0.00678 17:-0.104053 18:-0.075495 19:-0.010516 20:0.026986 21:0.060395 22:-0.020229 
1.0 8:1.0 11:-0.335329 12:0.143951 13:0.012915 14:0.030856 15:0.033978 16:-0.004881 17:-0.024692 18:-0.097607 19:0.044962 20:-1.5E-5 21:0.007546 22:0.033894 
1.0 7:1.0 11:-0.334665 12:0.143036 13:0.033894 14:0.012013 15:0.022568 16:0.02899 17:-0.041306 18:-0.086707 19:0.013359 20:0.049287 21:9.53E-4 22:0.004849 
1.0 8:1.0 11:-0.325009 12:0.14447 13:0.007348 14:0.016728 15:0.025756 16:-0.014427 17:-0.029625 18:-0.09285 19:0.046041 20:-1.5E-4 21:0.003515 22:0.022467 
1.0 10:1.0 11:-0.324306 12:0.14148 13:0.019817 14:-0.011004 15:0.001621 16:0.011735 17:1.79E-4 18:-0.08673 19:-0.014843 20:0.032008 21:0.00493 22:0.003658 
1.0 5:1.0 11:-0.325289 12:0.14148 13:-0.08673 14:-0.014843 15:0.032008 16:0.00493 17:0.003658 18:-0.058835 19:-0.008107 20:0.005882 21:0.009753 22:0.056166 
1.0 7:1.0 11:-0.326095 12:0.141357 13:0.018071 14:-0.007192 15:0.009449 16:0.030402 17:-0.045439 18:-0.084189 19:0.010227 20:0.052175 21:-0.017001 22:8.1E-5 
1.0 4:1.0 11:-0.325468 12:0.140167 13:0.044857 14:-0.018557 15:-0.014886 16:0.013285 17:-0.0155 18:-0.086381 19:0.010333 20:0.009198 21:0.001086 22:0.020367 
1.0 5:1.0 11:-0.324762 12:0.140167 13:-0.02816 14:-0.006646 15:0.02533 16:0.016087 17:0.002653 18:-0.070569 19:-0.020596 20:0.002037 21:6.25E-4 22:0.019546 
1.0 2:1.0 11:-0.327413 12:0.140839 13:0.002037 14:6.25E-4 15:0.019546 16:-0.001625 17:-0.024917 18:-0.064476 19:-0.00121 20:0.036613 21:-0.002623 22:-0.074181 
1.0 6:1.0 11:-0.328645 12:0.140839 13:-0.024917 14:-0.064476 15:-0.00121 16:0.036613 17:-0.002623 18:-0.074181 19:-0.030658 20:0.024832 21:0.015177 22:-0.08303 
1.0 10:1.0 11:-0.330845 12:0.141602 13:-0.002623 14:-0.074181 15:-0.030658 16:0.024832 17:0.015177 18:-0.08303 19:-0.013289 20:0.043721 21:-0.020839 22:-0.108028 
1.0 4:1.0 11:-0.333797 12:0.141602 13:0.015177 14:-0.08303 15:-0.013289 16:0.043721 17:-0.020839 18:-0.108028 19:-0.072534 20:0.008768 21:0.015612 22:0.026699 
1.0 5:1.0 11:-0.33598 12:0.141602 13:-0.08303 14:-0.013289 15:0.043721 16:-0.020839 17:-0.108028 18:-0.072534 19:0.008768 20:0.015612 21:0.026699 22:0.061299 
1.0 2:1.0 11:-0.336144 12:0.141602 13:0.015612 14:0.026699 15:0.061299 16:-0.013406 17:-0.034534 18:-0.06995 19:-0.002703 20:0.049417 21:0.044652 22:0.004345 
1.0 6:1.0 11:-0.333028 12:0.143555 13:0.003005 14:0.035986 15:0.005956 16:0.028712 17:-0.01113 18:-0.079947 19:-0.029652 20:0.039812 21:0.052814 22:-0.017174 
1.0 8:1.0 11:-0.325976 12:0.139801 13:0.0088 14:0.027808 15:0.029928 16:-0.012945 17:-0.025603 18:-0.089023 19:0.041094 20:-0.008347 21:0.005361 22:0.028606 
1.0 5:1.0 11:-0.326283 12:0.139801 13:-0.008347 14:0.005361 15:0.028606 16:0.010251 17:-0.003575 18:-0.083627 19:-0.025291 20:0.001525 21:0.00831 22:0.021406 
1.0 1:1.0 11:-0.326836 12:0.141357 13:-0.022082 14:-0.019144 15:0.025167 16:0.051447 17:-0.055131 18:-0.076629 19:0.006308 20:0.018831 21:0.01139 22:0.02517 
1.0 9:1.0 11:-0.326983 12:0.140442 13:0.007051 14:0.028809 15:-0.006636 16:-0.024077 17:-0.009548 18:-0.08909 19:-0.087728 20:-0.001071 21:0.035998 22:0.019685 
1.0 10:1.0 11:-0.329598 12:0.140442 13:0.028809 14:-0.006636 15:-0.024077 16:-0.009548 17:-0.08909 18:-0.087728 19:-0.001071 20:0.035998 21:0.019685 22:0.025627 
1.0 8:1.0 11:-0.326869 12:0.139252 13:-0.005208 14:0.014277 15:0.023035 16:-0.015352 17:-0.026955 18:-0.084773 19:0.052941 20:-6.82E-4 21:-0.001387 22:0.021781 
1.0 8:1.0 11:-0.324639 12:0.140686 13:-4.6E-4 14:0.022582 15:0.029739 16:-0.011009 17:-0.036544 18:-0.095946 19:0.050448 20:0.003738 21:-0.006151 22:0.023476 
1.0 9:1.0 11:-0.323888 12:0.136658 13:0.017216 14:0.017952 15:-0.029548 16:-0.012032 17:0.01368 18:-0.065141 19:-0.029995 20:0.008751 21:0.021388 22:-0.008114 
1.0 5:1.0 11:-0.326467 12:0.136658 13:-0.029995 14:0.008751 15:0.021388 16:-0.008114 17:-0.010758 18:-0.06817 19:-0.012409 20:-0.011836 21:-0.098203 22:0.045276 
1.0 8:1.0 11:-0.330111 12:0.136658 13:-0.008114 14:-0.010758 15:-0.06817 16:-0.012409 17:-0.011836 18:-0.098203 19:0.045276 20:-0.006916 21:-0.002464 22:0.018537 
1.0 5:1.0 11:-0.331125 12:0.136932 13:-0.006916 14:-0.002464 15:0.018537 16:-0.004955 17:-0.013603 18:-0.069742 19:-0.027754 20:9.7E-4 21:0.028392 22:0.048419 
1.0 1:1.0 11:-0.334444 12:0.136017 13:-0.027754 14:9.7E-4 15:0.028392 16:0.048419 17:-0.054662 18:-0.106076 19:-0.082162 20:-0.001301 21:0.039692 22:0.037517 
1.0 2:1.0 11:-0.336915 12:0.136017 13:9.7E-4 14:0.028392 15:0.048419 16:-0.054662 17:-0.106076 18:-0.082162 19:-0.001301 20:0.039692 21:0.037517 22:-0.013228 
1.0 1:1.0 11:-0.338574 12:0.136536 13:-0.013228 14:-0.010124 15:0.016561 16:0.033044 17:-0.059268 18:-0.097868 19:-0.04611 20:-0.064734 21:-0.005027 22:0.02064 
1.0 4:1.0 11:-0.351287 12:0.13797 13:0.026272 14:-0.043562 15:-0.019105 16:0.005083 17:-0.042109 18:-0.091912 19:-0.033688 20:-0.075821 21:-0.058463 22:-0.005563 
1.0 6:1.0 11:-0.354673 12:0.13797 13:-0.019105 14:0.005083 15:-0.042109 16:-0.091912 17:-0.033688 18:-0.075821 19:-0.058463 20:-0.005563 21:0.029729 22:-0.057592 
1.0 1:1.0 11:-0.360302 12:0.146576 13:-0.075821 14:-0.058463 15:-0.005563 16:0.029729 17:-0.057592 18:-0.088978 19:-0.01788 20:0.004489 21:0.019564 22:0.01885 
1.0 3:1.0 11:-0.361995 12:0.165619 13:0.005293 14:0.037339 15:-0.017639 16:0.011133 17:-0.012659 18:-0.107309 19:0.018701 20:0.050955 21:-0.033631 22:-0.098089 
1.0 7:1.0 11:-0.363938 12:0.165619 13:-0.012659 14:-0.107309 15:0.018701 16:0.050955 17:-0.033631 18:-0.098089 19:-0.00272 20:0.053704 21:-0.039575 22:-0.084744 
1.0 1:1.0 11:-0.366248 12:0.165619 13:-0.033631 14:-0.098089 15:-0.00272 16:0.053704 17:-0.039575 18:-0.084744 19:0.021218 20:0.045016 21:0.040359 22:0.032287 
1.0 9:1.0 11:-0.363564 12:0.180359 13:0.040359 14:0.032287 15:0.005945 16:0.018058 17:0.003674 18:-0.08127 19:7.17E-4 20:0.018354 21:-0.07477 22:0.008939 
1.0 2:1.0 11:-0.365315 12:0.180359 13:0.018058 14:0.003674 15:-0.08127 16:7.17E-4 17:0.018354 18:-0.07477 19:0.008939 20:0.036624 21:0.043818 22:0.017267 
1.0 8:1.0 11:-0.365814 12:0.180359 13:0.008939 14:0.036624 15:0.043818 16:0.017267 17:-0.023839 18:-0.098777 19:0.082264 20:0.03061 21:0.036029 22:0.0567 
1.0 7:1.0 11:-0.359156 12:0.191437 13:0.0567 14:0.022596 15:0.050654 16:0.055482 17:-0.029984 18:-0.092331 19:0.0317 20:0.088638 21:0.026545 22:0.031333 
1.0 5:1.0 11:-0.353021 12:0.199127 13:0.026545 14:0.031333 15:0.051145 16:0.036376 17:0.011845 18:-0.079985 19:-0.001901 20:0.064099 21:0.061888 22:0.089759 
1.0 2:1.0 11:-0.348644 12:0.205109 13:0.064099 14:0.061888 15:0.089759 16:0.005698 17:-0.003425 18:-0.074071 19:0.022085 20:0.072285 21:0.087975 22:0.051826 
1.0 8:1.0 11:-0.285631 12:0.264862 13:0.067333 14:0.102556 15:0.127317 16:0.057372 17:0.005349 18:-0.119742 19:0.13726 20:0.078026 21:0.076321 22:0.120313 
1.0 4:1.0 11:-0.250381 12:0.27359 13:0.165458 14:0.0435 15:0.073362 16:0.124501 17:0.009541 18:-0.115031 19:0.111869 20:0.106876 21:0.069123 22:0.108601 
1.0 5:1.0 11:-0.226227 12:0.276733 13:0.070057 14:0.078101 15:0.111746 16:0.083098 17:0.063791 18:-0.059736 19:0.039138 20:0.081458 21:0.125371 22:0.178854 
1.0 4:1.0 11:-0.181621 12:0.269562 13:0.173389 14:0.052627 15:0.089704 16:0.126396 17:0.056844 18:-0.128728 19:0.159087 20:0.089069 21:0.06007 22:0.124396 
1.0 9:1.0 11:-0.147599 12:0.260162 13:0.104622 14:0.181173 15:0.060186 16:0.037385 17:0.073895 18:-0.043629 19:0.032176 20:0.108134 21:0.115105 22:0.039587 
1.0 4:1.0 11:-0.143522 12:0.260162 13:-0.043629 14:0.032176 15:0.108134 16:0.115105 17:0.039587 18:-0.120595 19:0.057403 20:-0.011728 21:-0.039614 22:-0.063676 
1.0 6:1.0 11:-0.142454 12:0.260162 13:0.108134 14:0.115105 15:0.039587 16:-0.120595 17:0.057403 18:-0.011728 19:-0.039614 20:-0.063676 21:0.208234 22:0.105213 
1.0 8:1.0 11:-0.144865 12:0.258972 13:0.039587 14:-0.120595 15:0.057403 16:-0.011728 17:-0.039614 18:-0.063676 19:0.208234 20:0.105213 21:0.08493 22:0.087194 
1.0 7:1.0 11:-0.105877 12:0.258972 13:0.073052 14:0.070381 15:0.095844 16:0.15475 17:-0.024593 18:-0.130017 19:0.03856 20:0.228965 21:0.07553 22:0.064886 
1.0 4:1.0 11:-0.045659 12:0.241638 13:0.209056 14:0.029955 15:0.014851 16:0.064279 17:-0.010772 18:-0.046808 19:0.060026 20:0.105466 21:-0.091637 22:-0.082955 
1.0 8:1.0 11:-0.045846 12:0.241638 13:-0.010772 14:-0.046808 15:0.060026 16:0.105466 17:-0.091637 18:-0.082955 19:0.18199 20:0.067772 21:0.040352 22:0.046128 
1.0 10:1.0 11:-0.030952 12:0.215179 13:0.075253 14:0.071488 15:-0.071823 16:0.11297 17:0.143553 18:-0.137218 19:-0.023309 20:0.033223 21:0.043659 22:0.135387 
1.0 6:1.0 11:-0.017082 12:0.215179 13:-0.004302 14:0.040483 15:0.023956 16:0.113904 17:-0.032383 18:0.010687 19:-0.163469 20:0.085871 21:0.125867 22:-0.128525 
1.0 10:1.0 11:-0.018715 12:0.215179 13:-0.032383 14:0.010687 15:-0.163469 16:0.085871 17:0.125867 18:-0.128525 19:0.019428 20:0.034825 21:0.028443 22:0.123387 
1.0 9:1.0 11:-0.013279 12:0.206299 13:0.123387 14:0.055662 15:0.057722 16:-0.105961 17:0.051084 18:0.002712 19:-0.014602 20:-0.006964 21:0.071559 22:0.015067 
1.0 9:1.0 11:0.003561 12:0.19873 13:0.073864 14:0.051706 15:0.042961 16:-0.117617 17:0.048149 18:-0.006411 19:-0.022391 20:0.004813 21:0.048646 22:0.013392 
1.0 2:1.0 11:0.007375 12:0.192993 13:-0.132819 14:0.116969 15:0.162968 16:-0.02574 17:-0.097505 18:-0.042015 19:-0.023398 20:0.055426 21:0.049493 22:0.05839 
1.0 2:1.0 11:0.009124 12:0.191162 13:-0.100075 14:0.067947 15:0.147628 16:-0.01446 17:-0.101194 18:-0.051874 19:-0.023615 20:0.031517 21:-0.072078 22:0.051697 
1.0 5:1.0 11:0.007851 12:0.191162 13:-0.01446 14:-0.101194 15:-0.051874 16:-0.023615 17:0.031517 18:-0.072078 19:0.051697 20:-0.091729 21:0.085431 22:0.153807 
