svm_type c_svc
kernel_type rbf
gamma 0.05263157894736842
nr_class 2
total_sv 2279
rho -0.9183708403939258
label 0 1
nr_sv 1230 1049
SV
1.0 1:-0.998432 2:-0.998981 3:1.0 4:4001.0 5:-0.7002 6:4.0 7:-0.95 8:-0.928571 9:-0.696128 10:1.0 11:-0.996241 13:-0.997875 14:-0.999446 15:-0.95 16:-0.7002 17:-0.931034 18:-0.696128 19:-0.996241 
1.0 1:-0.999294 2:-0.998981 3:1.0 4:4001.0 5:-0.7802 6:4.0 7:-0.95 8:-0.928571 9:-0.777215 10:1.0 11:-0.996241 12:1.0 13:-0.997875 14:-0.997231 15:-0.95 16:-0.7802 17:-0.931034 18:-0.777215 19:-0.996241 
0.5099318122971855 1:-0.99553 2:-0.994513 4:4001.0 5:-1.0 6:4.0 7:-1.0 8:-1.0 9:-1.0 10:1.0 11:-0.996241 13:-1.0 14:-0.998892 15:-1.0 16:-1.0 17:-1.0 18:-1.0 19:-1.0 
1.0 1:-0.98957 2:-0.988556 3:1.0 4:1007.0 5:-1.0 6:1.0 7:-1.0 8:-1.0 9:-1.0 10:1.0 11:-1.0 13:-0.997875 14:-0.998892 15:-1.0 16:-1.0 17:-1.0 18:-1.0 19:-1.0 
1.0 1:-0.500137 2:-0.499373 4:4001.0 5:-0.04 6:1.0 7:-0.8 8:-0.857143 9:-0.331036 11:-0.996241 13:-0.995749 14:-0.998892 15:-0.85 16:-0.32 17:-0.862069 18:-0.331036 19:-1.0 
1.0 1:-0.999686 2:-0.998981 3:1.0 4:2009.0 5:-1.0 6:4.0 7:-1.0 8:-1.0 9:-1.0 10:1.0 11:-0.977444 13:-1.0 14:-1.0 15:-1.0 16:-1.0 17:-1.0 18:-1.0 19:-0.977444 
1.0 1:-0.999216 2:-0.998981 3:1.0 4:2001.0 5:-1.0 6:4.0 7:-1.0 8:-1.0 9:-1.0 10:1.0 11:-0.996241 12:1.0 13:-0.995749 14:-0.998892 15:-1.0 16:-1.0 17:-1.0 18:-1.0 19:-0.996241 
1.0 1:-0.999294 2:-0.998981 3:1.0 4:1003.0 5:-0.99 6:4.0 7:-0.95 8:-0.928571 9:-0.989864 10:1.0 11:-0.996241 12:1.0 13:-0.997875 14:-0.999446 15:-0.95 16:-0.99 17:-0.931034 18:-0.989864 19:-0.996241 
0.03149354477700488 1:-0.999059 2:-0.998981 3:1.0 4:2009.0 5:-1.0 6:4.0 7:-1.0 8:-1.0 9:-1.0 11:-0.996241 12:1.0 13:-0.995749 14:-0.998338 15:-1.0 16:-1.0 17:-1.0 18:-1.0 19:-0.830827 
1.0 1:-0.999922 2:-0.998981 3:1.0 4:2009.0 5:-1.0 6:4.0 7:-1.0 8:-1.0 9:-1.0 10:1.0 11:-0.996241 13:-0.997875 14:-0.998338 15:-1.0 16:-1.0 17:-1.0 18:-1.0 19:-0.984962 
1.0 1:-0.99851 2:-0.998981 3:1.0 4:4001.0 5:-0.457816 6:4.0 7:-0.9 8:-0.857143 9:-0.450452 10:1.0 11:-0.992481 13:-0.997875 14:-0.999446 15:-0.9 16:-0.457816 17:-0.862069 18:-0.450452 19:-0.992481 
1.0 1:-0.951927 2:-0.990437 3:1.0 4:1010.0 5:-0.99004 6:4.0 7:-0.95 8:-0.928571 9:-0.989905 10:1.0 11:-0.996241 13:-0.997875 14:-0.999446 15:-0.95 16:-0.99004 17:-0.931034 18:-0.989905 19:-0.996241 
1.0 1:-0.998667 2:-0.998981 4:4001.0 5:-0.99802 6:4.0 7:-0.95 8:-0.928571 9:-0.997993 10:1.0 11:-0.996241 13:-0.997875 14:-0.998892 15:-0.95 16:-0.99802 17:-0.931034 18:-0.997993 19:-0.996241 
0.7629083770943056 1:-0.925656 2:-0.998981 4:4001.0 5:-0.99504 6:4.0 7:-0.95 8:-0.928571 9:-0.994973 10:1.0 11:-0.992481 12:1.0 13:-0.997875 14:-0.999446 15:-0.95 16:-0.99504 17:-0.931034 18:-0.994973 19:-0.992481 
1.0 1:-0.859232 2:-0.998981 4:4001.0 5:-0.98618 6:4.0 7:-0.95 8:-0.928571 9:-0.985992 10:1.0 11:-0.992481 13:-0.997875 14:-0.999446 15:-0.95 16:-0.98618 17:-0.931034 18:-0.985992 19:-0.992481 
1.0 1:-0.980238 2:-0.980013 3:1.0 4:4001.0 5:-1.0 6:4.0 7:-1.0 8:-1.0 9:-1.0 11:-0.996241 12:1.0 13:-1.0 14:-1.0 15:-1.0 16:-1.0 17:-1.0 18:-1.0 19:-0.996241 
1.0 1:-0.994824 2:-0.993808 3:1.0 4:4001.0 5:-0.8 6:1.0 7:-0.95 8:-0.928571 9:-0.797284 10:1.0 11:-1.0 13:-0.997875 14:-0.998338 15:-0.95 16:-0.8 17:-0.931034 18:-0.797284 19:-1.0 
1.0 1:-0.996236 2:-0.995219 4:4001.0 5:-1.0 6:4.0 7:-1.0 8:-1.0 9:-1.0 10:1.0 11:-1.0 13:-1.0 14:-0.998892 15:-1.0 16:-1.0 17:-1.0 18:-1.0 19:-1.0 
1.0 1:-0.892954 2:-0.998981 3:1.0 4:4001.0 5:-0.6202 6:4.0 7:-0.95 8:-0.928571 9:-0.615042 10:1.0 11:-0.996241 13:-0.997875 14:-0.999446 15:-0.95 16:-0.6202 17:-0.931034 18:-0.615042 19:-0.996241 
1.0 1:-0.994354 2:-0.995219 4:4001.0 5:-0.9 6:4.0 7:-0.95 8:-0.928571 9:-0.898642 10:1.0 11:-0.996241 13:-1.0 14:-0.999446 15:-0.95 16:-0.9 17:-0.931034 18:-0.898642 19:-0.996241 
1.0 1:-0.861899 2:-0.86095 3:1.0 4:1003.0 5:-0.6752 6:1.0 7:-0.85 8:-0.785714 9:-0.670789 11:-1.0 13:-0.993624 14:-0.998338 15:-0.85 16:-0.6752 17:-0.793103 18:-0.670789 19:-1.0 
0.9804810529015474 1:-0.999373 2:-0.998981 3:1.0 4:4001.0 5:-0.8002 6:4.0 7:-0.95 8:-0.928571 9:-0.797486 10:1.0 11:-0.996241 12:1.0 13:-0.997875 14:-0.999446 15:-0.95 16:-0.8002 17:-0.931034 18:-0.797486 19:-0.996241 
1.0 1:-0.967141 2:-0.998981 3:1.0 4:1010.0 5:-0.964062 6:1.0 7:-0.85 8:-0.785714 9:-0.963574 10:1.0 11:-0.996241 12:1.0 13:-0.993624 14:-0.998338 15:-0.85 16:-0.964062 17:-0.793103 18:-0.963574 19:-0.996241 
1.0 1:-0.998745 2:-0.998981 3:1.0 4:2009.0 5:-1.0 6:4.0 7:-1.0 8:-1.0 9:-1.0 11:-0.996241 13:-0.993624 14:-0.997785 15:-0.95 16:-0.99998 17:-1.0 18:-1.0 19:-0.992481 
1.0 1:-0.994981 2:-0.995611 3:1.0 4:1010.0 5:-0.978164 6:1.0 7:-0.85 8:-0.785714 9:-0.977867 10:1.0 11:-0.996241 13:-0.993624 14:-0.998338 15:-0.85 16:-0.978164 17:-0.793103 18:-0.977867 19:-0.996241 
1.0 1:-0.998824 2:-0.998589 3:1.0 4:1002.0 5:-1.0 6:1.0 7:-1.0 8:-1.0 9:-1.0 11:-0.996241 12:1.0 13:-0.997875 14:-0.999446 15:-1.0 16:-1.0 17:-1.0 18:-1.0 19:-0.996241 
1.0 1:-1.0 2:-0.998981 4:2010.0 5:-1.0 6:4.0 7:-1.0 8:-1.0 9:-1.0 10:1.0 11:-0.984962 13:-1.0 14:-1.0 15:-1.0 16:-1.0 17:-1.0 18:-1.0 19:-0.984962 
1.0 1:-0.835235 2:-0.998981 3:1.0 4:4001.0 5:-0.7002 6:4.0 7:-0.95 8:-0.928571 9:-0.696128 10:1.0 11:-0.996241 13:-0.997875 14:-0.999446 15:-0.95 16:-0.7002 17:-0.931034 18:-0.696128 19:-0.996241 
1.0 1:-0.998588 2:-0.998981 3:1.0 4:4001.0 5:-0.7604 6:4.0 7:-0.9 8:-0.928571 9:-0.972025 10:1.0 11:-0.992481 13:-0.997875 14:-0.999446 15:-0.9 16:-0.7604 17:-0.931034 18:-0.972025 19:-0.992481 
1.0 1:-0.998667 2:-0.998981 4:2001.0 5:-1.0 6:4.0 7:-1.0 8:-1.0 9:-1.0 10:1.0 11:-0.996241 13:-0.997875 14:-0.999446 15:-1.0 16:-1.0 17:-1.0 18:-1.0 19:-0.996241 
1.0 1:-0.999059 2:-0.998981 4:4001.0 5:-0.96431 6:4.0 7:-0.95 8:-0.928571 9:-0.963825 10:1.0 11:-0.996241 12:1.0 13:-0.997875 14:-0.999446 15:-0.95 16:-0.96431 17:-0.931034 18:-0.963825 19:-0.996241 
1.0 1:-0.999529 2:-0.998981 3:1.0 4:2009.0 5:-1.0 6:9.0 7:-1.0 8:-1.0 9:-1.0 10:1.0 11:-0.996241 13:-0.995749 14:-0.998338 15:-1.0 16:-1.0 17:-1.0 18:-1.0 19:-0.977444 
1.0 1:-0.952084 2:-0.998981 3:1.0 4:4001.0 5:-0.99996 6:4.0 7:-0.9 8:-0.857143 9:-0.999959 11:-0.992481 12:1.0 13:-0.995749 14:-0.998892 15:-0.95 16:-0.99998 17:-0.931034 18:-0.99998 19:-0.996241 
0.018113918960510844 1:-1.0 2:-0.998981 3:1.0 4:2999.0 5:-1.0 6:4.0 7:-1.0 8:-1.0 9:-1.0 10:1.0 11:-0.996241 13:-0.997875 14:-0.999446 15:-1.0 16:-1.0 17:-1.0 18:-1.0 19:-0.996241 
1.0 1:-0.998432 2:-0.998197 3:1.0 4:1003.0 5:-0.997 6:1.0 7:-0.9 8:-1.0 9:-1.0 10:1.0 11:-0.996241 12:1.0 13:-1.0 14:-1.0 15:-0.9 16:-0.997 17:-1.0 18:-1.0 19:-0.996241 
1.0 1:-0.998588 2:-0.998432 4:4001.0 5:-0.8604 6:4.0 7:-0.95 8:-0.928571 9:-0.858504 10:1.0 11:-0.996241 12:1.0 13:-0.997875 14:-0.999446 15:-0.95 16:-0.8604 17:-0.931034 18:-0.858504 19:-0.996241 
0.19582937851284313 1:-0.770615 2:-0.998981 4:4001.0 5:-0.9722 6:4.0 7:-0.95 8:-0.928571 9:-0.971822 10:1.0 11:-0.996241 13:-0.997875 14:-0.999446 15:-0.95 16:-0.9722 17:-0.931034 18:-0.971822 19:-0.996241 
1.0 1:-0.948241 2:-0.947249 4:4001.0 5:-0.99999 6:4.0 7:-0.75 8:-0.642857 9:-0.99999 10:1.0 11:-1.0 13:-0.806589 14:-0.509277 15:-0.8 16:-0.999992 17:-0.724138 18:-0.999992 19:-0.996241 
0.013187388713224248 1:-0.999451 2:-0.998981 3:1.0 4:2001.0 5:-1.0 6:1.0 7:-1.0 8:-1.0 9:-1.0 11:-0.996241 12:1.0 13:-0.995749 14:-0.998338 15:-1.0 16:-1.0 17:-1.0 18:-1.0 19:-0.996241 
1.0 1:-0.998353 2:-0.998981 3:1.0 4:4001.0 5:-0.0042 6:4.0 7:-0.95 8:-0.928571 9:0.009325 11:-0.996241 13:-0.997875 14:-0.999446 15:-0.95 16:-0.0042 17:-0.931034 18:0.009325 19:-0.996241 
1.0 1:-0.996549 2:-0.998981 3:1.0 4:4001.0 5:-0.46082 6:4.0 7:-0.9 8:-0.928571 9:-0.967991 10:1.0 11:-0.992481 13:-0.997875 14:-0.997785 15:-0.9 16:-0.46082 17:-0.931034 18:-0.967991 19:-0.992481 
1.0 1:-0.998745 2:-0.998981 3:1.0 4:1003.0 5:-0.9988 6:4.0 7:-0.95 8:-0.928571 9:-0.998784 10:1.0 11:-0.996241 13:-0.997875 14:-0.999446 15:-0.95 16:-0.9988 17:-0.931034 18:-0.998784 19:-0.996241 
1.0 1:-0.949339 2:-0.998981 4:4001.0 5:-0.9975 6:4.0 7:-0.95 8:-0.928571 9:-0.997466 10:1.0 11:-0.996241 13:-0.997875 14:-0.999446 15:-0.95 16:-0.9975 17:-0.931034 18:-0.997466 19:-0.996241 
1.0 1:-0.997334 2:-0.998981 3:1.0 4:1010.0 5:-0.94018 6:1.0 7:-0.85 8:-0.785714 9:-0.939368 10:1.0 11:-0.996241 12:1.0 13:-0.989373 14:-0.996677 15:-0.85 16:-0.94018 17:-0.793103 18:-0.939368 19:-0.996241 
0.7291273215130392 1:-0.998432 2:-0.998981 4:2001.0 5:-1.0 6:1.0 7:-1.0 8:-1.0 9:-1.0 11:-0.996241 13:-0.995749 14:-0.997231 15:-1.0 16:-1.0 17:-1.0 18:-1.0 19:-0.996241 
1.0 1:-0.998824 2:-0.998981 3:1.0 4:4001.0 5:-0.5322 6:4.0 7:-0.95 8:-0.928571 9:-0.525846 10:1.0 11:-0.996241 13:-0.997875 14:-0.999446 15:-0.95 16:-0.5322 17:-0.931034 18:-0.525846 19:-0.996241 
0.9829696611789528 1:-0.963612 2:-0.985813 4:2009.0 5:-1.0 6:4.0 7:-1.0 8:-1.0 9:-1.0 10:1.0 11:-0.996241 12:1.0 13:-1.0 14:-1.0 15:-1.0 16:-1.0 17:-1.0 18:-1.0 19:-0.996241 
0.010169690590465187 1:-0.383759 2:-0.995297 3:1.0 4:2009.0 5:-1.0 6:4.0 7:-1.0 8:-1.0 9:-1.0 10:1.0 11:-0.984962 12:1.0 13:-1.0 14:-1.0 15:-1.0 16:-1.0 17:-1.0 18:-1.0 19:-0.992481 
0.8533745460904794 1:-0.970827 2:-0.985813 4:2009.0 5:-1.0 6:4.0 7:-1.0 8:-1.0 9:-1.0 10:1.0 11:-0.984962 12:1.0 13:-1.0 14:-1.0 15:-1.0 16:-1.0 17:-1.0 18:-1.0 19:-0.984962 
1.0 1:-0.99702 2:-0.998981 4:4001.0 5:-0.5552 6:4.0 7:-0.85 8:-0.928571 9:-0.781472 11:-0.988722 13:-0.997875 14:-0.998338 15:-0.85 16:-0.5552 17:-0.931034 18:-0.781472 19:-0.988722 
1.0 1:-0.999373 2:-0.998981 4:4001.0 5:-0.9822 6:4.0 7:-0.95 8:-0.928571 9:-0.981958 10:1.0 11:-0.996241 12:1.0 13:-0.991498 14:-0.997785 15:-0.35 16:-0.7626 17:-0.793103 18:-0.945875 19:-0.951128 
0.9896688923785822 1:-1.0 2:-0.998981 3:1.0 4:4001.0 5:-0.7002 6:4.0 7:-0.95 8:-0.928571 9:-0.696128 11:-0.996241 13:-0.997875 14:-0.999446 15:-0.95 16:-0.7002 17:-0.931034 18:-0.696128 19:-0.996241 
1.0 1:-0.82206 2:-0.997335 3:1.0 4:4001.0 5:-0.6748 6:4.0 7:-0.95 8:-0.928571 9:-0.670383 10:1.0 11:-0.996241 13:-0.995749 14:-0.998338 15:-0.95 16:-0.6748 17:-0.931034 18:-0.670383 19:-0.996241 
1.0 1:-0.924087 2:-0.923107 4:1010.0 5:-1.0 6:4.0 7:-1.0 8:-1.0 9:-1.0 10:1.0 11:-1.0 13:-0.997875 14:-0.997785 15:-1.0 16:-1.0 17:-1.0 18:-1.0 19:-1.0 
0.9513433148002158 1:-0.999294 2:-0.998981 4:2999.0 5:-1.0 6:4.0 7:-1.0 8:-1.0 9:-1.0 10:1.0 11:-0.996241 12:1.0 13:-0.997875 14:-0.999446 15:-1.0 16:-1.0 17:-1.0 18:-1.0 19:-0.996241 
1.0 1:-0.953574 2:-0.952579 4:4001.0 5:-0.99802 6:1.0 7:-0.95 8:-0.928571 9:-0.997993 10:1.0 11:-1.0 13:-0.997875 14:-0.999446 15:-0.95 16:-0.99802 17:-0.931034 18:-0.997993 19:-1.0 
1.0 1:-0.998588 2:-0.99757 3:1.0 4:2009.0 5:-1.0 6:4.0 7:-1.0 8:-1.0 9:-1.0 10:1.0 11:-1.0 13:-1.0 14:-1.0 15:-1.0 16:-1.0 17:-1.0 18:-1.0 19:-1.0 
0.07682116688870846 1:-0.98557 2:-0.985891 3:1.0 4:2009.0 5:-1.0 6:4.0 7:-1.0 8:-1.0 9:-1.0 11:-0.605263 13:-1.0 14:-1.0 15:-1.0 16:-1.0 17:-1.0 18:-1.0 19:-0.424812 
1.0 1:-0.999922 2:-0.998981 4:2010.0 5:-1.0 6:4.0 7:-1.0 8:-1.0 9:-1.0 10:1.0 11:-0.996241 13:-1.0 14:-1.0 15:-1.0 16:-1.0 17:-1.0 18:-1.0 19:-0.996241 
1.0 1:-0.968474 2:-0.998981 4:1010.0 5:-0.994024 6:4.0 7:-0.95 8:-0.928571 9:-0.993943 11:-0.996241 13:-0.997875 14:-0.999446 15:-0.95 16:-0.994024 17:-0.931034 18:-0.993943 19:-0.996241 
1.0 1:-0.999294 2:-0.998981 4:4001.0 5:-0.99998 6:4.0 7:-0.95 8:-0.928571 9:-0.99998 10:1.0 11:-0.996241 12:1.0 13:-0.997875 14:-0.998892 15:-0.95 16:-0.99998 17:-0.931034 18:-0.99998 19:-0.992481 
1.0 1:-0.923146 2:-0.998981 3:1.0 4:1010.0 5:-0.98004 6:4.0 7:-0.95 8:-0.928571 9:-0.979769 10:1.0 11:-0.996241 13:-0.997875 14:-0.998892 15:-0.95 16:-0.98004 17:-0.931034 18:-0.979769 19:-0.996241 
1.0 1:-0.999373 2:-0.998354 3:1.0 4:1010.0 5:-0.99005 6:4.0 7:-0.95 8:-0.928571 9:-0.989915 10:1.0 11:-1.0 13:-0.997875 14:-0.997785 15:-0.95 16:-0.99005 17:-0.931034 18:-0.989915 19:-1.0 
0.926446481040494 1:-0.998353 2:-0.998824 3:1.0 4:1002.0 5:-1.0 6:1.0 7:-1.0 8:-1.0 9:-1.0 11:-0.992481 13:-0.997875 14:-0.999446 15:-1.0 16:-1.0 17:-1.0 18:-1.0 19:-0.992481 
0.31402231862827135 1:-0.999137 2:-0.998981 4:4004.0 5:-1.0 6:9.0 7:-1.0 8:-1.0 9:-1.0 10:1.0 11:-0.996241 12:1.0 13:-1.0 14:-1.0 15:-1.0 16:-1.0 17:-1.0 18:-1.0 19:-0.996241 
1.0 1:-0.825981 2:-0.825051 3:1.0 4:1010.0 5:-0.935968 6:1.0 7:-0.8 8:-0.714286 9:-0.935098 10:1.0 11:-1.0 13:-0.993624 14:-0.997785 15:-0.8 16:-0.935968 17:-0.724138 18:-0.935098 19:-1.0 
1.0 1:-0.999059 2:-0.998981 4:1002.0 5:-1.0 6:4.0 7:-1.0 8:-1.0 9:-1.0 10:1.0 11:-0.996241 12:1.0 13:-0.940489 14:-0.515924 15:-1.0 16:-1.0 17:-1.0 18:-1.0 19:-0.996241 
1.0 1:-0.999216 2:-0.998197 4:2001.0 5:-1.0 6:4.0 7:-1.0 8:-1.0 9:-1.0 10:1.0 11:-1.0 13:-1.0 14:-1.0 15:-1.0 16:-1.0 17:-1.0 18:-1.0 19:-1.0 
1.0 1:-0.975924 2:-0.998981 3:1.0 4:4001.0 5:-0.7402 6:4.0 7:-0.95 8:-0.928571 9:-0.736671 10:1.0 11:-0.996241 13:-0.997875 14:-0.998892 15:-0.95 16:-0.7402 17:-0.931034 18:-0.736671 19:-0.996241 
1.0 1:-0.998667 2:-0.998981 4:4001.0 5:-0.97528 6:4.0 7:-0.95 8:-0.928571 9:-0.974944 10:1.0 11:-0.996241 13:-0.997875 14:-0.999446 15:-0.95 16:-0.97528 17:-0.931034 18:-0.974944 19:-0.996241 
1.0 1:-0.999137 2:-0.998119 3:1.0 4:2009.0 5:-1.0 6:1.0 7:-1.0 8:-1.0 9:-1.0 10:1.0 11:-0.996241 13:-1.0 14:-0.998338 15:-1.0 16:-1.0 17:-1.0 18:-1.0 19:-1.0 
1.0 1:-0.999373 2:-0.998981 4:4999.0 5:-1.0 6:1.0 7:-1.0 8:-1.0 9:-1.0 10:1.0 11:-0.996241 12:1.0 13:-0.995749 14:-0.998892 15:-1.0 16:-1.0 17:-1.0 18:-1.0 19:-0.992481 
1.0 1:-0.852488 2:-0.851544 3:1.0 4:1003.0 5:-0.96 6:4.0 7:-0.95 8:-0.928571 9:-0.959457 10:1.0 11:-1.0 13:-0.997875 14:-0.999446 15:-0.95 16:-0.96 17:-0.931034 18:-0.959457 19:-1.0 
1.0 1:-0.993569 2:-0.992554 4:4001.0 5:-0.98204 6:4.0 7:-0.95 8:-1.0 9:-1.0 10:1.0 11:-0.996241 13:-1.0 14:-1.0 15:-1.0 16:-1.0 17:-1.0 18:-1.0 19:-1.0 
1.0 1:-0.588362 2:-0.587553 4:1010.0 5:-0.98002 6:4.0 7:-0.95 8:-0.928571 9:-0.979749 10:1.0 11:-0.988722 13:-0.997875 14:-0.999446 15:-1.0 16:-1.0 17:-1.0 18:-1.0 19:-1.0 
1.0 1:-0.999922 2:-0.998981 4:4001.0 5:-0.8002 6:4.0 7:-0.95 8:-0.928571 9:-0.797486 10:1.0 11:-0.996241 13:-0.997875 14:-0.999446 15:-0.95 16:-0.8002 17:-0.931034 18:-0.797486 19:-0.996241 
1.0 1:-0.999216 2:-0.998981 4:4001.0 5:-0.9836 6:4.0 7:-0.95 8:-0.928571 9:-0.983377 10:1.0 11:-0.996241 12:1.0 13:-0.997875 14:-0.999446 15:-0.95 16:-0.9836 17:-0.931034 18:-0.983377 19:-0.996241 
1.0 1:-0.998981 2:-0.998981 4:4001.0 5:-0.99242 6:4.0 7:-0.95 8:-0.928571 9:-0.992317 10:1.0 11:-0.996241 13:-0.997875 14:-0.999446 15:-0.95 16:-0.99242 17:-0.931034 18:-0.992317 19:-0.996241 
0.7690784090462285 1:-0.994354 2:-0.995062 3:1.0 4:4001.0 5:-0.101 6:4.0 7:-0.75 8:-1.0 9:-1.0 11:-0.981203 13:-1.0 14:-0.997231 15:-0.75 16:-0.101 17:-1.0 18:-1.0 19:-0.981203 
1.0 1:-0.999137 2:-0.998981 4:2009.0 5:-1.0 6:1.0 7:-1.0 8:-1.0 9:-1.0 10:1.0 11:-0.992481 12:1.0 13:-0.997875 14:-0.999446 15:-1.0 16:-1.0 17:-1.0 18:-1.0 19:-0.992481 
1.0 1:-0.985884 2:-0.985891 3:1.0 4:1010.0 5:-1.0 6:4.0 7:-1.0 8:-1.0 9:-1.0 10:1.0 11:-0.996241 12:1.0 13:-1.0 14:-1.0 15:-1.0 16:-1.0 17:-1.0 18:-1.0 19:-0.996241 
0.7847095416911616 1:-0.998432 2:-0.998981 4:1003.0 5:-0.92 6:1.0 7:-0.9 8:-0.857143 9:-0.918913 11:-0.996241 13:-0.995749 14:-0.998892 15:-0.9 16:-0.92 17:-0.862069 18:-0.918913 19:-0.996241 
0.2688940965135152 1:-0.998902 2:-0.997884 3:1.0 4:1999.0 5:-1.0 6:4.0 7:-1.0 8:-1.0 9:-1.0 10:1.0 11:-1.0 13:-0.997875 14:-0.999446 15:-1.0 16:-1.0 17:-1.0 18:-1.0 19:-1.0 
1.0 1:-0.848018 2:-0.847076 4:4001.0 5:-0.9322 6:4.0 7:-0.95 8:-0.928571 9:-0.931279 10:1.0 11:-0.996241 13:-0.997875 14:-0.999446 15:-1.0 16:-1.0 17:-1.0 18:-1.0 19:-1.0 
0.043530523871929475 1:-0.999059 2:-0.998981 3:1.0 4:2009.0 5:-1.0 6:1.0 7:-1.0 8:-1.0 9:-1.0 11:-0.981203 12:1.0 13:-0.995749 14:-0.998892 15:-1.0 16:-1.0 17:-1.0 18:-1.0 19:-0.996241 
1.0 1:-0.876093 2:-0.998981 3:1.0 4:4001.0 5:-0.7004 6:4.0 7:-0.95 8:-0.928571 9:-0.696331 10:1.0 11:-0.996241 13:-0.997875 14:-0.999446 15:-0.95 16:-0.7004 17:-0.931034 18:-0.696331 19:-0.996241 
1.0 1:-0.996942 2:-0.997257 3:1.0 4:1003.0 5:-0.992 6:4.0 7:-0.9 8:-0.928571 9:-0.995946 10:1.0 11:-0.996241 13:-0.997875 14:-0.999446 15:-0.9 16:-0.992 17:-0.931034 18:-0.995946 19:-0.996241 
1.0 1:-0.995059 2:-0.994043 4:4001.0 5:-0.8002 6:4.0 7:-0.95 8:-0.928571 9:-0.797486 10:1.0 11:-0.996241 13:-0.997875 14:-0.999446 15:-1.0 16:-1.0 17:-1.0 18:-1.0 19:-1.0 
0.5456066656634535 1:-0.99851 2:-0.998276 3:1.0 4:1002.0 5:-1.0 6:1.0 7:-1.0 8:-1.0 9:-1.0 10:1.0 11:-0.996241 12:1.0 13:-0.997875 14:-0.999446 15:-1.0 16:-1.0 17:-1.0 18:-1.0 19:-0.996241 
1.0 1:-0.829197 2:-0.828265 4:2010.0 5:-1.0 6:1.0 7:-1.0 8:-1.0 9:-1.0 10:1.0 11:-1.0 13:-0.995749 14:-0.998892 15:-1.0 16:-1.0 17:-1.0 18:-1.0 19:-1.0 
1.0 1:-0.985884 2:-0.985891 3:1.0 4:1010.0 5:-1.0 6:4.0 7:-1.0 8:-1.0 9:-1.0 10:1.0 11:-0.996241 12:1.0 13:-1.0 14:-1.0 15:-1.0 16:-1.0 17:-1.0 18:-1.0 19:-0.996241 
1.0 1:-0.999059 2:-0.998981 3:1.0 4:1003.0 5:-0.962 6:4.0 7:-0.95 8:-0.928571 9:-0.961484 11:-0.996241 12:1.0 13:-0.997875 14:-0.999446 15:-0.95 16:-0.962 17:-0.931034 18:-0.961484 19:-0.996241 
1.0 1:-0.995608 2:-0.995689 4:2001.0 5:-1.0 6:1.0 7:-1.0 8:-1.0 9:-1.0 10:1.0 11:-0.992481 13:-0.995749 14:-0.998892 15:-1.0 16:-1.0 17:-1.0 18:-1.0 19:-0.992481 
1.0 1:-0.999216 2:-0.998981 4:4001.0 5:-0.9682 6:4.0 7:-0.95 8:-0.928571 9:-0.967768 10:1.0 11:-0.996241 12:1.0 13:-0.997875 14:-0.999446 15:-0.95 16:-0.9682 17:-0.931034 18:-0.967768 19:-0.996241 
1.0 1:-0.998588 2:-0.99757 3:1.0 4:2009.0 5:-1.0 6:4.0 7:-1.0 8:-1.0 9:-1.0 10:1.0 11:-1.0 13:-1.0 14:-1.0 15:-1.0 16:-1.0 17:-1.0 18:-1.0 19:-1.0 
0.7243508033273061 1:-0.676195 2:-0.675341 4:4001.0 5:-0.6 6:1.0 7:-0.95 8:-0.928571 9:-0.594567 11:-1.0 13:-0.997875 14:-0.999446 15:-0.95 16:-0.6 17:-0.931034 18:-0.594567 19:-1.0 
1.0 1:-0.998902 2:-0.998981 3:1.0 4:4001.0 5:-0.7002 6:4.0 7:-0.95 8:-0.928571 9:-0.696128 10:1.0 11:-0.996241 13:-0.997875 14:-0.999446 15:-0.95 16:-0.7002 17:-0.931034 18:-0.696128 19:-0.996241 
0.36037955895246654 1:-0.398737 2:-0.998981 3:1.0 4:2009.0 5:-1.0 6:1.0 7:-1.0 8:-1.0 9:-1.0 11:-0.996241 12:1.0 13:-0.997875 14:-0.999446 15:-1.0 16:-1.0 17:-1.0 18:-1.0 19:-0.996241 
1.0 1:-0.999216 2:-0.998981 3:1.0 4:4001.0 5:-0.7602 6:4.0 7:-0.95 8:-0.928571 9:-0.756943 10:1.0 11:-0.996241 12:1.0 13:-0.997875 14:-0.999446 15:-0.95 16:-0.7602 17:-0.931034 18:-0.756943 19:-0.996241 
1.0 1:-0.971141 2:-0.995846 3:1.0 4:1010.0 5:-0.98191 6:1.0 7:-0.85 8:-0.857143 9:-0.987776 10:1.0 11:-0.996241 13:-0.993624 14:-0.991692 15:-0.85 16:-0.98191 17:-0.862069 18:-0.987776 19:-0.996241 
1.0 1:-0.999137 2:-0.998119 3:1.0 4:1999.0 5:-1.0 6:4.0 7:-1.0 8:-1.0 9:-1.0 11:-1.0 13:-0.995749 14:-0.998338 15:-1.0 16:-1.0 17:-1.0 18:-1.0 19:-1.0 
1.0 1:-1.0 2:-0.998981 4:2010.0 5:-1.0 6:4.0 7:-1.0 8:-1.0 9:-1.0 10:1.0 11:-0.984962 13:-1.0 14:-1.0 15:-1.0 16:-1.0 17:-1.0 18:-1.0 19:-0.984962 
1.0 1:-0.998981 2:-0.998981 3:1.0 4:1010.0 5:-0.99602 6:4.0 7:-0.95 8:-0.928571 9:-0.995966 10:1.0 11:-0.996241 13:-0.997875 14:-0.999446 15:-0.95 16:-0.99602 17:-0.931034 18:-0.995966 19:-0.996241 
1.0 1:-0.910442 2:-0.998981 3:1.0 4:4001.0 5:-0.6002 6:4.0 7:-0.95 8:-0.928571 9:-0.59477 10:1.0 11:-0.996241 13:-0.997875 14:-0.999446 15:-0.95 16:-0.6002 17:-0.931034 18:-0.59477 19:-0.996241 
1.0 1:-0.7525 2:-0.751607 4:1010.0 5:-0.98404 6:1.0 7:-0.9 8:-0.857143 9:-0.983823 10:1.0 11:-1.0 13:-0.995749 14:-0.998892 15:-0.9 16:-0.98404 17:-0.862069 18:-0.983823 19:-1.0 
0.28033323197485466 1:-0.778771 2:-0.993651 3:1.0 4:1001.0 5:-1.0 6:1.0 7:-1.0 8:-1.0 9:-1.0 11:-0.984962 13:-0.995749 14:-0.996677 15:-1.0 16:-1.0 17:-1.0 18:-1.0 19:-0.977444 
1.0 1:-0.998981 2:-0.998981 3:1.0 4:1010.0 5:-0.98407 6:4.0 7:-0.9 8:-0.857143 9:-0.983854 10:1.0 11:-0.992481 12:1.0 13:-0.995749 14:-0.998338 15:-0.9 16:-0.98407 17:-0.862069 18:-0.983854 19:-0.992481 
1.0 1:-0.999216 2:-0.998981 3:1.0 4:1003.0 5:-0.98 6:4.0 7:-0.95 8:-0.928571 9:-0.979728 11:-0.996241 12:1.0 13:-0.997875 14:-0.999446 15:-0.95 16:-0.98 17:-0.931034 18:-0.979728 19:-0.996241 
1.0 1:-0.949418 2:-0.948425 4:4001.0 5:-0.986 6:4.0 7:-0.95 8:-0.928571 9:-0.98581 10:1.0 11:-1.0 13:-0.997875 14:-0.999446 15:-0.95 16:-0.986 17:-0.931034 18:-0.98581 19:-1.0 
1.0 1:-0.989335 2:-0.998903 4:4001.0 5:-0.6402 6:4.0 7:-0.95 8:-0.928571 9:-0.635313 10:1.0 11:-0.996241 13:-0.997875 14:-0.999446 15:-0.95 16:-0.6402 17:-0.931034 18:-0.635313 19:-0.996241 
1.0 1:-0.999529 2:-0.998981 4:4001.0 5:-0.9713 6:1.0 7:-0.85 8:-0.785714 9:-0.97091 10:1.0 11:-0.996241 13:-0.995749 14:-0.998338 15:-0.85 16:-0.9713 17:-0.793103 18:-0.97091 19:-0.996241 
1.0 1:-0.985884 2:-0.985813 4:1002.0 5:-1.0 6:4.0 7:-1.0 8:-1.0 9:-1.0 10:1.0 11:-0.996241 12:1.0 13:-0.876727 14:-0.527555 15:-1.0 16:-1.0 17:-1.0 18:-1.0 19:-0.996241 
1.0 1:-0.970513 2:-0.969509 3:1.0 4:1003.0 5:-0.978 6:4.0 7:-0.55 8:-0.571429 9:-0.983783 10:1.0 11:-1.0 13:-0.995749 14:-0.998338 15:-0.55 16:-0.978 17:-0.586207 18:-0.983783 19:-1.0 
1.0 1:-0.999451 2:-0.998981 3:1.0 4:4001.0 5:-0.2806 6:4.0 7:-0.95 8:-0.928571 9:-0.270829 10:1.0 11:-0.996241 12:1.0 13:-0.997875 14:-0.998892 15:-0.95 16:-0.2806 17:-0.931034 18:-0.270829 19:-0.996241 
1.0 1:-0.715877 2:-0.998981 4:4001.0 5:-0.972 6:4.0 7:-0.9 8:-0.857143 9:-0.97162 10:1.0 11:-0.992481 13:-0.995749 14:-0.998892 15:-0.9 16:-0.972 17:-0.862069 18:-0.97162 19:-0.992481 
1.0 1:-0.975846 2:-0.974839 3:1.0 4:1010.0 5:-0.99397 6:4.0 7:-0.95 8:-0.928571 9:-0.993888 10:1.0 11:-1.0 13:-0.997875 14:-0.999446 15:-0.95 16:-0.99397 17:-0.931034 18:-0.993888 19:-1.0 
1.0 1:-0.998432 2:-0.998981 3:1.0 4:4001.0 5:-0.8144 6:4.0 7:-0.95 8:-0.928571 9:-0.811879 10:1.0 11:-0.996241 13:-0.997875 14:-0.999446 15:-0.95 16:-0.8144 17:-0.931034 18:-0.811879 19:-0.996241 
1.0 1:-1.0 2:-0.998981 4:4001.0 5:-0.5926 6:4.0 7:-0.95 8:-0.928571 9:-0.587067 10:1.0 11:-0.996241 13:-0.997875 14:-0.999446 15:-0.95 16:-0.5926 17:-0.931034 18:-0.587067 19:-0.996241 
1.0 1:-0.998745 2:-0.998981 4:4001.0 5:-0.99998 6:4.0 7:-0.95 8:-0.928571 9:-0.99998 10:1.0 11:-0.996241 13:-0.997875 14:-0.999446 15:-0.95 16:-0.99998 17:-0.931034 18:-0.99998 19:-0.996241 
1.0 1:-0.999843 2:-0.998981 3:1.0 4:1010.0 5:-0.961908 6:1.0 7:-0.75 8:-0.642857 9:-0.961391 11:-0.996241 13:-0.989373 14:-0.997231 15:-0.75 16:-0.961908 17:-0.655172 18:-0.961391 19:-0.996241 
1.0 1:-0.985257 2:-0.984245 4:1010.0 5:-1.0 6:4.0 7:-1.0 8:-1.0 9:-1.0 10:1.0 11:-1.0 13:-1.0 14:-1.0 15:-1.0 16:-1.0 17:-1.0 18:-1.0 19:-1.0 
0.045849264270727816 1:-0.730228 2:-0.998981 4:1999.0 5:-1.0 6:4.0 7:-1.0 8:-1.0 9:-1.0 10:1.0 11:-0.996241 12:1.0 13:-0.993624 14:-0.998338 15:-1.0 16:-1.0 17:-1.0 18:-1.0 19:-0.988722 
0.6415047059551041 1:-0.996785 2:-0.998981 3:1.0 4:2009.0 5:-1.0 6:1.0 7:-1.0 8:-1.0 9:-1.0 11:-0.909774 13:-0.989373 14:-0.997231 15:-1.0 16:-1.0 17:-1.0 18:-1.0 19:-0.984962 
1.0 1:-0.984237 2:-0.998981 4:4001.0 5:-0.1202 6:4.0 7:-0.95 8:-0.928571 9:-0.108251 11:-0.996241 12:1.0 13:-0.997875 14:-0.999446 15:-0.95 16:-0.1202 17:-0.931034 18:-0.108251 19:-0.996241 
1.0 1:-0.996236 2:-0.995219 4:4001.0 5:-1.0 6:4.0 7:-1.0 8:-1.0 9:-1.0 10:1.0 11:-1.0 13:-1.0 14:-0.998892 15:-1.0 16:-1.0 17:-1.0 18:-1.0 19:-1.0 
1.0 1:-0.98557 2:-0.984559 3:1.0 4:2007.0 5:-1.0 6:4.0 7:-1.0 8:-1.0 9:-1.0 11:-0.996241 13:-0.995749 14:-0.998892 15:-1.0 16:-1.0 17:-1.0 18:-1.0 19:-1.0 
1.0 1:-0.998981 2:-0.997962 3:1.0 4:2009.0 5:-1.0 6:4.0 7:-1.0 8:-1.0 9:-1.0 10:1.0 11:-1.0 13:-1.0 14:-1.0 15:-1.0 16:-1.0 17:-1.0 18:-1.0 19:-1.0 
1.0 1:-0.820335 2:-0.995219 4:1010.0 5:-0.9801 6:1.0 7:-0.95 8:-0.928571 9:-0.97983 10:1.0 11:-0.996241 12:1.0 13:-0.997875 14:-0.999446 15:-0.95 16:-0.9801 17:-0.931034 18:-0.97983 19:-0.996241 
0.7396588243212677 1:-0.999294 2:-0.998981 4:1007.0 5:-1.0 6:4.0 7:-1.0 8:-1.0 9:-1.0 11:-0.996241 12:1.0 13:-0.997875 14:-0.996123 15:-1.0 16:-1.0 17:-1.0 18:-1.0 19:-0.996241 
1.0 1:-0.877426 2:-0.87647 4:2010.0 5:-1.0 6:1.0 7:-1.0 8:-1.0 9:-1.0 10:1.0 11:-1.0 13:-0.997875 14:-0.999446 15:-1.0 16:-1.0 17:-1.0 18:-1.0 19:-1.0 
1.0 1:-0.998824 2:-0.998981 4:1014.0 5:-1.0 6:1.0 7:-1.0 8:-1.0 9:-1.0 10:1.0 11:-0.996241 13:-1.0 14:-1.0 15:-1.0 16:-1.0 17:-1.0 18:-1.0 19:-0.996241 
1.0 1:-1.0 2:-0.998981 4:1010.0 5:-0.98008 6:4.0 7:-0.95 8:-0.928571 9:-0.979809 11:-0.996241 13:-0.997875 14:-0.998338 15:-0.95 16:-0.98008 17:-0.931034 18:-0.979809 19:-0.996241 
0.18226862391841703 1:-0.999216 2:-0.998981 3:1.0 4:2009.0 5:-1.0 6:9.0 7:-1.0 8:-1.0 9:-1.0 10:1.0 11:-0.969925 12:1.0 13:-0.997875 14:-0.999446 15:-1.0 16:-1.0 17:-1.0 18:-1.0 19:-0.954887 
1.0 1:-0.880171 2:-0.879213 3:1.0 4:1010.0 5:-0.9801 6:4.0 7:-0.95 8:-0.928571 9:-0.97983 10:1.0 11:-1.0 13:-0.995749 14:-0.987261 15:-0.95 16:-0.9801 17:-0.931034 18:-0.97983 19:-1.0 
1.0 1:-0.490021 2:-0.489262 3:1.0 4:1003.0 5:-0.6968 6:1.0 7:-0.9 8:-0.857143 9:-0.692682 11:-1.0 13:-0.997875 14:-0.998892 15:-0.9 16:-0.6968 17:-0.862069 18:-0.692682 19:-1.0 
1.0 1:-0.998745 2:-0.998981 3:1.0 4:1010.0 5:-0.98002 6:4.0 7:-0.95 8:-0.928571 9:-0.979749 10:1.0 11:-0.996241 13:-0.997875 14:-0.999446 15:-0.95 16:-0.98002 17:-0.931034 18:-0.979749 19:-0.996241 
1.0 1:-0.999922 2:-0.998981 3:1.0 4:2009.0 5:-1.0 6:4.0 7:-1.0 8:-1.0 9:-1.0 10:1.0 11:-0.988722 13:-0.997875 14:-0.998892 15:-1.0 16:-1.0 17:-1.0 18:-1.0 19:-0.988722 
1.0 1:-0.768812 2:-0.998981 4:4001.0 5:-0.871244 6:4.0 7:-0.9 8:-0.857143 9:-0.869495 10:1.0 11:-0.992481 13:-0.995749 14:-0.998892 15:-0.9 16:-0.871244 17:-0.862069 18:-0.869495 19:-0.992481 
0.13350317201169068 1:-0.986119 2:-0.985813 3:1.0 4:4001.0 5:-1.0 6:4.0 7:-1.0 8:-1.0 9:-1.0 11:-0.996241 12:1.0 13:-1.0 14:-1.0 15:-1.0 16:-1.0 17:-1.0 18:-1.0 19:-0.996241 
1.0 1:-0.986825 2:-0.985813 4:1003.0 5:-1.0 6:4.0 7:-1.0 8:-1.0 9:-1.0 10:1.0 11:-1.0 13:-1.0 14:-1.0 15:-1.0 16:-1.0 17:-1.0 18:-1.0 19:-1.0 
1.0 1:-0.998667 2:-0.998981 3:1.0 4:4001.0 5:-0.7002 6:4.0 7:-0.95 8:-0.928571 9:-0.696128 10:1.0 11:-0.996241 13:-0.997875 14:-0.999446 15:-0.95 16:-0.7002 17:-0.931034 18:-0.696128 19:-0.996241 
1.0 1:-0.998196 2:-0.998981 4:4001.0 5:-0.9802 6:4.0 7:-0.95 8:-0.928571 9:-0.979931 10:1.0 11:-0.996241 13:-0.995749 14:-0.997231 15:-0.7 16:-0.91328 17:-0.862069 18:-0.967991 19:-0.894737 
1.0 1:-0.998981 2:-0.998668 3:1.0 4:4001.0 5:-0.7002 6:4.0 7:-0.95 8:-0.928571 9:-0.696128 10:1.0 11:-0.996241 12:1.0 13:-0.997875 14:-0.999446 15:-0.95 16:-0.7002 17:-0.931034 18:-0.696128 19:-0.996241 
1.0 1:-0.740344 2:-0.739458 4:1010.0 5:-0.99002 6:1.0 7:-0.95 8:-0.928571 9:-0.989884 10:1.0 11:-1.0 13:-0.997875 14:-0.999446 15:-0.95 16:-0.99002 17:-0.931034 18:-0.989884 19:-1.0 
1.0 1:-0.999373 2:-0.998981 3:1.0 4:1010.0 5:-0.959962 6:4.0 7:-0.95 8:-0.928571 9:-0.959418 10:1.0 11:-0.996241 12:1.0 13:-0.997875 14:-0.999446 15:-0.95 16:-0.959962 17:-0.931034 18:-0.959418 19:-0.996241 
1.0 1:-0.913736 2:-0.912761 4:4001.0 5:-0.9888 6:1.0 7:-0.95 8:-0.928571 9:-0.988648 10:1.0 11:-1.0 13:-0.997875 14:-0.999446 15:-0.95 16:-0.9888 17:-0.931034 18:-0.988648 19:-1.0 
1.0 1:-0.998824 2:-0.998981 4:4001.0 5:-0.5202 6:4.0 7:-0.95 8:-0.928571 9:-0.513683 11:-0.996241 13:-0.997875 14:-0.999446 15:-0.95 16:-0.5202 17:-0.931034 18:-0.513683 19:-0.996241 
1.0 1:-0.999059 2:-0.998981 3:1.0 4:2001.0 5:-1.0 6:4.0 7:-1.0 8:-1.0 9:-1.0 10:1.0 11:-0.996241 12:1.0 13:-0.993624 14:-0.997231 15:-1.0 16:-1.0 17:-1.0 18:-1.0 19:-0.996241 
1.0 1:-0.998275 2:-0.998981 3:1.0 4:4001.0 5:-0.38008 6:4.0 7:-0.85 8:-0.785714 9:-0.37166 11:-0.988722 13:-0.993624 14:-0.998338 15:-0.85 16:-0.38008 17:-0.793103 18:-0.37166 19:-0.988722 
1.0 1:-0.999843 2:-0.998981 3:1.0 4:1010.0 5:-0.961908 6:1.0 7:-0.75 8:-0.642857 9:-0.961391 11:-0.996241 13:-0.989373 14:-0.997231 15:-0.75 16:-0.961908 17:-0.655172 18:-0.961391 19:-0.996241 
1.0 1:-0.998902 2:-0.998981 4:4001.0 5:-0.9344 6:4.0 7:-0.95 8:-0.928571 9:-0.933509 10:1.0 11:-0.996241 13:-0.997875 14:-0.999446 15:-0.95 16:-0.9344 17:-0.931034 18:-0.933509 19:-0.996241 
1.0 1:-0.987139 2:-0.998981 4:4001.0 5:-0.883 6:4.0 7:-0.95 8:-0.928571 9:-0.881411 10:1.0 11:-0.996241 13:-0.997875 14:-0.999446 15:-0.95 16:-0.883 17:-0.931034 18:-0.881411 19:-0.996241 
0.0462167005550093 1:-0.999373 2:-0.998981 3:1.0 4:1002.0 5:-1.0 6:1.0 7:-1.0 8:-1.0 9:-1.0 11:-0.996241 12:1.0 13:-0.995749 14:-0.998892 15:-1.0 16:-1.0 17:-1.0 18:-1.0 19:-0.996241 
1.0 1:-0.703643 2:-0.702775 4:4001.0 5:-0.8991 6:4.0 7:-0.75 8:-0.642857 9:-0.89773 10:1.0 11:-0.981203 13:-0.997875 14:-0.997231 15:-1.0 16:-1.0 17:-1.0 18:-1.0 19:-1.0 
1.0 1:-0.998196 2:-0.998981 4:4001.0 5:-0.9842 6:4.0 7:-0.95 8:-0.928571 9:-0.983985 10:1.0 11:-0.996241 13:-0.997875 14:-0.999446 15:-0.95 16:-0.9842 17:-0.931034 18:-0.983985 19:-0.996241 
1.0 1:-0.987531 2:-0.987616 4:4001.0 5:-0.9704 6:4.0 7:-0.95 8:-0.928571 9:-0.969998 10:1.0 11:-0.992481 13:-0.997875 14:-0.999446 15:-0.95 16:-0.9704 17:-0.931034 18:-0.969998 19:-0.992481 
1.0 1:-0.999373 2:-0.998981 4:4001.0 5:-0.99702 6:4.0 7:-0.95 8:-0.928571 9:-0.99698 10:1.0 11:-0.996241 12:1.0 13:-0.997875 14:-0.999446 15:-0.95 16:-0.99702 17:-0.931034 18:-0.99698 19:-0.996241 
0.9756187790252955 1:-0.999843 2:-0.998824 3:1.0 4:2001.0 5:-1.0 6:1.0 7:-1.0 8:-1.0 9:-1.0 11:-0.992481 13:-0.993624 14:-0.998338 15:-1.0 16:-1.0 17:-1.0 18:-1.0 19:-1.0 
1.0 1:-0.998353 2:-0.998981 3:1.0 4:1010.0 5:-0.995984 6:4.0 7:-0.95 8:-0.928571 9:-0.995929 10:1.0 11:-0.996241 13:-0.995749 14:-0.998892 15:-0.95 16:-0.995984 17:-0.931034 18:-0.995929 19:-0.992481 
1.0 1:-0.999373 2:-0.998981 3:1.0 4:1010.0 5:-0.959962 6:4.0 7:-0.95 8:-0.928571 9:-0.959418 10:1.0 11:-0.996241 12:1.0 13:-0.997875 14:-0.999446 15:-0.95 16:-0.959962 17:-0.931034 18:-0.959418 19:-0.996241 
0.005477615348479237 1:-0.999216 2:-0.998981 3:1.0 4:2009.0 5:-1.0 6:4.0 7:-1.0 8:-1.0 9:-1.0 10:1.0 11:-0.996241 12:1.0 13:-1.0 14:-1.0 15:-1.0 16:-1.0 17:-1.0 18:-1.0 19:-0.996241 
1.0 1:-0.999294 2:-0.998981 4:4001.0 5:-0.999 6:4.0 7:-0.95 8:-0.928571 9:-0.998986 10:1.0 11:-0.996241 12:1.0 13:-0.997875 14:-0.999446 15:-0.95 16:-0.999 17:-0.931034 18:-0.998986 19:-0.996241 
1.0 1:-0.998667 2:-0.998981 4:1014.0 5:-1.0 6:1.0 7:-1.0 8:-1.0 9:-1.0 10:1.0 11:-0.996241 13:-1.0 14:-1.0 15:-1.0 16:-1.0 17:-1.0 18:-1.0 19:-0.996241 
0.10012333167962842 1:-0.999373 2:-0.998981 3:1.0 4:2001.0 5:-1.0 6:1.0 7:-1.0 8:-1.0 9:-1.0 11:-0.996241 12:1.0 13:-0.993624 14:-0.995015 15:-1.0 16:-1.0 17:-1.0 18:-1.0 19:-0.996241 
1.0 1:-0.986041 2:-0.985029 4:1010.0 5:-1.0 6:4.0 7:-1.0 8:-1.0 9:-1.0 10:1.0 11:-1.0 13:-1.0 14:-0.997231 15:-1.0 16:-1.0 17:-1.0 18:-1.0 19:-1.0 
1.0 1:-0.846763 2:-0.845822 4:1003.0 5:-1.0 6:4.0 7:-1.0 8:-1.0 9:-1.0 10:1.0 11:-1.0 13:-1.0 14:-1.0 15:-1.0 16:-1.0 17:-1.0 18:-1.0 19:-1.0 
1.0 1:-0.999529 2:-0.998511 3:1.0 4:1003.0 5:-1.0 6:4.0 7:-1.0 8:-1.0 9:-1.0 10:1.0 11:-1.0 13:-0.997875 14:-0.999446 15:-0.95 16:-0.998 17:-0.931034 18:-0.997973 19:-0.996241 
1.0 1:-0.998745 2:-0.998981 3:1.0 4:1010.0 5:-0.98002 6:4.0 7:-0.95 8:-0.928571 9:-0.979749 10:1.0 11:-0.996241 13:-0.997875 14:-0.999446 15:-0.95 16:-0.98002 17:-0.931034 18:-0.979749 19:-0.996241 
1.0 1:-0.998432 2:-0.998981 3:1.0 4:1003.0 5:-0.99 6:4.0 7:-0.95 8:-0.928571 9:-0.989864 10:1.0 11:-0.996241 13:-0.997875 14:-0.999446 15:-0.95 16:-0.99 17:-0.931034 18:-0.989864 19:-0.996241 
1.0 1:-0.999216 2:-0.998981 4:4001.0 5:-0.6402 6:4.0 7:-0.95 8:-0.928571 9:-0.635313 11:-0.996241 12:1.0 13:-0.997875 14:-0.999446 15:-0.95 16:-0.6402 17:-0.931034 18:-0.635313 19:-0.996241 
1.0 1:-0.993491 2:-0.993338 4:4001.0 5:-0.9774 6:4.0 7:-0.9 8:-0.857143 9:-0.977093 10:1.0 11:-0.992481 12:1.0 13:-0.997875 14:-0.999446 15:-0.9 16:-0.9774 17:-0.862069 18:-0.977093 19:-0.992481 
1.0 1:-0.703643 2:-0.702775 4:4001.0 5:-0.8991 6:4.0 7:-0.75 8:-0.642857 9:-0.89773 10:1.0 11:-0.981203 13:-0.997875 14:-0.997231 15:-1.0 16:-1.0 17:-1.0 18:-1.0 19:-1.0 
0.48767498120458164 1:-1.0 2:-0.998981 4:1999.0 5:-1.0 6:4.0 7:-1.0 8:-1.0 9:-1.0 11:-1.0 13:-0.997875 14:-0.998338 15:-1.0 16:-1.0 17:-1.0 18:-1.0 19:-1.0 
0.033341254274758196 1:-0.999294 2:-0.998981 4:1006.0 5:-1.0 6:9.0 7:-1.0 8:-1.0 9:-1.0 10:1.0 11:-0.996241 12:1.0 13:-1.0 14:-1.0 15:-1.0 16:-1.0 17:-1.0 18:-1.0 19:-0.996241 
1.0 1:-0.997412 2:-0.998276 3:1.0 4:4001.0 5:-0.9184 6:4.0 7:-0.9 8:-0.857143 9:-0.917292 10:1.0 11:-0.992481 13:-0.997875 14:-0.999446 15:-0.9 16:-0.9184 17:-0.862069 18:-0.917292 19:-0.992481 
1.0 1:-0.819629 2:-0.818702 4:1010.0 5:-0.993976 6:1.0 7:-0.95 8:-0.928571 9:-0.993894 10:1.0 11:-1.0 13:-0.997875 14:-0.999446 15:-0.95 16:-0.993976 17:-0.931034 18:-0.993894 19:-1.0 
1.0 1:-0.999373 2:-0.998981 3:1.0 4:1010.0 5:-0.987952 6:1.0 7:-0.9 8:-0.857143 9:-0.987788 10:1.0 11:-0.996241 12:1.0 13:-0.997875 14:-0.999446 15:-0.9 16:-0.987952 17:-0.862069 18:-0.987788 19:-0.996241 
0.008731039312648074 1:-0.999373 2:-0.998981 3:1.0 4:4999.0 5:-1.0 6:4.0 7:-1.0 8:-1.0 9:-1.0 11:-0.996241 12:1.0 13:-0.997875 14:-0.999446 15:-1.0 16:-1.0 17:-1.0 18:-1.0 19:-0.996241 
0.6271027050517575 1:-0.967376 2:-0.966374 3:1.0 4:2009.0 5:-1.0 6:4.0 7:-1.0 8:-1.0 9:-1.0 10:1.0 11:-1.0 13:-0.997875 14:-0.999446 15:-1.0 16:-1.0 17:-1.0 18:-1.0 19:-1.0 
1.0 1:-0.998745 2:-0.998981 4:4001.0 5:-0.9764 6:4.0 7:-0.95 8:-0.928571 9:-0.976079 10:1.0 11:-0.996241 13:-0.997875 14:-0.999446 15:-0.95 16:-0.9764 17:-0.931034 18:-0.976079 19:-0.996241 
0.9443387613009443 1:-0.895071 2:-0.894106 3:1.0 4:1003.0 5:-0.99 6:4.0 7:-0.95 8:-0.928571 9:-0.989864 10:1.0 11:-1.0 13:-0.997875 14:-0.999446 15:-0.95 16:-0.99 17:-0.931034 18:-0.989864 19:-1.0 
0.922976418050154 1:-0.999216 2:-0.998197 3:1.0 4:2009.0 5:-1.0 6:4.0 7:-1.0 8:-1.0 9:-1.0 11:-1.0 13:-0.995749 14:-0.998892 15:-1.0 16:-1.0 17:-1.0 18:-1.0 19:-0.966165 
1.0 1:-0.998745 2:-0.998981 4:1010.0 5:-0.997988 6:4.0 7:-0.95 8:-0.928571 9:-0.997961 11:-0.996241 13:-0.997875 14:-0.999446 15:-0.95 16:-0.997988 17:-0.931034 18:-0.997961 19:-0.996241 
1.0 1:-0.997334 2:-0.997257 3:1.0 4:1003.0 5:-0.88 6:4.0 7:-0.75 8:-0.928571 9:-0.979728 11:-0.992481 12:1.0 13:-0.997875 14:-0.999446 15:-0.75 16:-0.88 17:-0.931034 18:-0.979728 19:-0.992481 
1.0 1:-0.824099 2:-0.998981 3:1.0 4:1010.0 5:-0.99397 6:4.0 7:-0.95 8:-0.928571 9:-0.993888 10:1.0 11:-0.996241 12:1.0 13:-0.997875 14:-0.999446 15:-0.95 16:-0.99397 17:-0.931034 18:-0.993888 19:-0.996241 
1.0 1:-0.84245 2:-0.998981 4:4001.0 5:-0.981 6:4.0 7:-0.95 8:-0.928571 9:-0.980742 10:1.0 11:-0.996241 13:-0.997875 14:-0.999446 15:-0.95 16:-0.981 17:-0.931034 18:-0.980742 19:-0.996241 
1.0 1:-0.735874 2:-0.998981 4:4001.0 5:-0.72475 6:4.0 7:-0.75 8:-0.928571 9:-0.949524 10:1.0 11:-0.962406 12:1.0 13:-0.997875 14:-0.999446 15:-0.75 16:-0.72475 17:-0.931034 18:-0.949524 19:-0.962406 
1.0 1:-0.998981 2:-0.998981 4:4001.0 5:-0.9664 6:4.0 7:-0.95 8:-0.928571 9:-0.965944 10:1.0 11:-0.996241 13:-0.997875 14:-0.999446 15:-0.95 16:-0.9664 17:-0.931034 18:-0.965944 19:-0.996241 
1.0 1:-0.713367 2:-0.998981 4:4001.0 5:-0.7204 6:4.0 7:-0.95 8:-0.928571 9:-0.716602 10:1.0 11:-0.996241 12:1.0 13:-0.997875 14:-0.999446 15:-0.95 16:-0.7204 17:-0.931034 18:-0.716602 19:-0.996241 
1.0 1:-0.368388 2:-0.998981 4:4001.0 5:-0.4457 6:4.0 7:-0.9 8:-0.857143 9:-0.438171 11:-0.992481 13:-0.995749 14:-0.998892 15:-0.9 16:-0.4457 17:-0.862069 18:-0.438171 19:-0.992481 
1.0 1:-0.947692 2:-0.998981 4:4001.0 5:-0.99739 6:4.0 7:-0.95 8:-0.928571 9:-0.997355 10:1.0 11:-0.984962 13:-0.997875 14:-0.999446 15:-0.95 16:-0.99739 17:-0.931034 18:-0.997355 19:-0.984962 
1.0 1:-0.986041 2:-0.985813 3:1.0 4:1010.0 5:-1.0 6:4.0 7:-1.0 8:-1.0 9:-1.0 10:1.0 11:-0.996241 12:1.0 13:-1.0 14:-1.0 15:-1.0 16:-1.0 17:-1.0 18:-1.0 19:-0.996241 
1.0 1:-0.998667 2:-0.998981 4:1003.0 5:-0.96 6:4.0 7:-0.9 8:-0.857143 9:-0.959457 11:-0.992481 13:-0.995749 14:-0.998338 15:-0.85 16:-0.94 17:-0.931034 18:-0.979728 19:-0.984962 
1.0 1:-0.998353 2:-0.998981 3:1.0 4:4001.0 5:-0.712666 6:4.0 7:-0.9 8:-0.857143 9:-0.708763 11:-0.992481 13:-0.997875 14:-0.999446 15:-0.9 16:-0.712666 17:-0.862069 18:-0.708763 19:-0.992481 
1.0 1:-0.998745 2:-0.998981 3:1.0 4:1001.0 5:-1.0 6:1.0 7:-1.0 8:-1.0 9:-1.0 11:-0.996241 13:-0.997875 14:-0.999446 15:-1.0 16:-1.0 17:-1.0 18:-1.0 19:-0.984962 
0.34124645661028596 1:-0.998667 2:-0.998981 4:1014.0 5:-1.0 6:1.0 7:-1.0 8:-1.0 9:-1.0 10:1.0 11:-0.996241 13:-1.0 14:-1.0 15:-1.0 16:-1.0 17:-1.0 18:-1.0 19:-0.996241 
1.0 1:-0.71768 2:-0.716805 4:1007.0 5:-1.0 6:4.0 7:-1.0 8:-1.0 9:-1.0 10:1.0 11:-1.0 13:-1.0 14:-1.0 15:-1.0 16:-1.0 17:-1.0 18:-1.0 19:-1.0 
0.009267904562000079 1:-0.999529 2:-0.998981 3:1.0 4:2001.0 5:-1.0 6:1.0 7:-1.0 8:-1.0 9:-1.0 11:-0.996241 13:-0.995749 14:-0.998892 15:-1.0 16:-1.0 17:-1.0 18:-1.0 19:-0.996241 
1.0 1:-0.844018 2:-0.998981 4:4001.0 5:-0.988 6:4.0 7:-0.95 8:-0.928571 9:-0.987837 10:1.0 11:-0.996241 13:-0.997875 14:-0.999446 15:-0.95 16:-0.988 17:-0.931034 18:-0.987837 19:-0.996241 
1.0 1:-0.99851 2:-0.998981 4:4001.0 5:-0.9802 6:4.0 7:-0.95 8:-0.928571 9:-0.979931 10:1.0 11:-0.996241 13:-0.997875 14:-0.998892 15:-0.45 16:-0.7822 17:-0.931034 18:-0.979931 19:-0.93985 
1.0 1:-0.999059 2:-0.998824 3:1.0 4:2009.0 5:-1.0 6:9.0 7:-1.0 8:-1.0 9:-1.0 10:1.0 11:-0.996241 12:1.0 13:-1.0 14:-1.0 15:-1.0 16:-1.0 17:-1.0 18:-1.0 19:-0.996241 
1.0 1:-0.999294 2:-0.998981 3:1.0 4:1010.0 5:-0.993994 6:4.0 7:-0.95 8:-0.928571 9:-0.993912 10:1.0 11:-0.996241 12:1.0 13:-0.997875 14:-0.999446 15:-0.95 16:-0.993994 17:-0.931034 18:-0.993912 19:-0.996241 
1.0 1:-0.994354 2:-0.995219 4:4001.0 5:-0.9 6:4.0 7:-0.95 8:-0.928571 9:-0.898642 10:1.0 11:-0.996241 13:-1.0 14:-0.999446 15:-0.95 16:-0.9 17:-0.931034 18:-0.898642 19:-0.996241 
1.0 1:-0.99851 2:-0.998981 4:4001.0 5:-0.9854 6:4.0 7:-0.9 8:-0.857143 9:-0.985202 10:1.0 11:-0.992481 13:-0.997875 14:-0.999446 15:-0.9 16:-0.9854 17:-0.862069 18:-0.985202 19:-0.992481 
0.0047188608911395945 1:-0.998667 2:-0.998981 4:1014.0 5:-1.0 6:1.0 7:-1.0 8:-1.0 9:-1.0 10:1.0 11:-0.996241 13:-1.0 14:-1.0 15:-1.0 16:-1.0 17:-1.0 18:-1.0 19:-0.996241 
1.0 1:-0.998745 2:-0.997727 3:1.0 4:1010.0 5:-0.99005 6:4.0 7:-0.95 8:-0.928571 9:-0.989915 10:1.0 11:-1.0 13:-0.997875 14:-0.998892 15:-0.95 16:-0.99005 17:-0.931034 18:-0.989915 19:-1.0 
0.11063093356932069 1:-0.60138 2:-0.600564 4:2010.0 5:-1.0 6:9.0 7:-1.0 8:-1.0 9:-1.0 10:1.0 11:-1.0 13:-1.0 14:-1.0 15:-1.0 16:-1.0 17:-1.0 18:-1.0 19:-1.0 
1.0 1:-0.998667 2:-0.998981 4:2001.0 5:-1.0 6:4.0 7:-1.0 8:-1.0 9:-1.0 10:1.0 11:-0.996241 13:-0.997875 14:-0.999446 15:-1.0 16:-1.0 17:-1.0 18:-1.0 19:-0.996241 
1.0 1:-0.999216 2:-0.998981 3:1.0 4:2010.0 5:-1.0 6:1.0 7:-1.0 8:-1.0 9:-1.0 10:1.0 11:-0.988722 12:1.0 13:-0.997875 14:-0.999446 15:-1.0 16:-1.0 17:-1.0 18:-1.0 19:-0.988722 
0.07124963297531975 1:-0.998902 2:-0.998981 4:2009.0 5:-1.0 6:4.0 7:-1.0 8:-1.0 9:-1.0 10:1.0 11:-0.996241 13:-1.0 14:-1.0 15:-1.0 16:-1.0 17:-1.0 18:-1.0 19:-0.804511 
1.0 1:-0.725444 2:-0.724565 3:1.0 4:4001.0 5:-0.1208 6:4.0 7:-0.8 8:-0.785714 9:-0.168052 10:1.0 11:-0.984962 13:-0.993624 14:-0.998338 15:-1.0 16:-1.0 17:-1.0 18:-1.0 19:-1.0 
1.0 1:-0.997098 2:-0.997805 4:2001.0 5:-1.0 6:1.0 7:-1.0 8:-1.0 9:-1.0 10:1.0 11:-0.996241 13:-0.997875 14:-0.999446 15:-1.0 16:-1.0 17:-1.0 18:-1.0 19:-0.996241 
1.0 1:-0.999529 2:-0.998981 3:1.0 4:2010.0 5:-1.0 6:4.0 7:-1.0 8:-1.0 9:-1.0 11:-0.996241 13:-0.997875 14:-0.999446 15:-1.0 16:-1.0 17:-1.0 18:-1.0 19:-0.996241 
1.0 1:-0.998902 2:-0.998981 3:1.0 4:4001.0 5:-0.8206 6:4.0 7:-0.9 8:-0.857143 9:-0.818163 11:-0.992481 13:-0.995749 14:-0.998892 15:-0.9 16:-0.8206 17:-0.862069 18:-0.818163 19:-0.992481 
1.0 1:-0.975924 2:-0.998981 3:1.0 4:4001.0 5:-0.7402 6:4.0 7:-0.95 8:-0.928571 9:-0.736671 10:1.0 11:-0.996241 13:-0.997875 14:-0.998892 15:-0.95 16:-0.7402 17:-0.931034 18:-0.736671 19:-0.996241 
1.0 1:-0.999137 2:-0.998981 3:1.0 4:1003.0 5:-0.99 6:4.0 7:-0.95 8:-0.928571 9:-0.989864 11:-0.996241 12:1.0 13:-0.995749 14:-0.998892 15:-0.9 16:-0.984 17:-0.862069 18:-0.983783 19:-0.992481 
0.43019007897350947 1:-0.999922 2:-0.998903 3:1.0 4:1999.0 5:-1.0 6:4.0 7:-1.0 8:-1.0 9:-1.0 10:1.0 11:-1.0 13:-1.0 14:-1.0 15:-1.0 16:-1.0 17:-1.0 18:-1.0 19:-1.0 
0.6367637075349043 1:-0.99851 2:-0.998981 3:1.0 4:1006.0 5:-1.0 6:1.0 7:-1.0 8:-1.0 9:-1.0 10:1.0 11:-0.996241 13:-0.993624 14:-0.998338 15:-1.0 16:-1.0 17:-1.0 18:-1.0 19:-0.996241 
1.0 1:-0.999451 2:-0.998981 3:1.0 4:2001.0 5:-1.0 6:4.0 7:-1.0 8:-1.0 9:-1.0 10:1.0 11:-0.996241 12:1.0 13:-0.997875 14:-0.999446 15:-1.0 16:-1.0 17:-1.0 18:-1.0 19:-0.996241 
1.0 1:-0.964553 2:-0.998981 4:1010.0 5:-0.996024 6:4.0 7:-0.95 8:-0.928571 9:-0.99597 10:1.0 11:-0.996241 13:-0.997875 14:-0.999446 15:-0.95 16:-0.996024 17:-0.931034 18:-0.99597 19:-0.996241 
1.0 1:-0.982826 2:-0.981815 4:1010.0 5:-1.0 6:4.0 7:-1.0 8:-1.0 9:-1.0 10:1.0 11:-1.0 13:-1.0 14:-0.996677 15:-1.0 16:-1.0 17:-1.0 18:-1.0 19:-1.0 
1.0 1:-0.984943 2:-0.983932 3:1.0 4:1003.0 5:-0.96 6:4.0 7:-0.9 8:-0.928571 9:-0.979728 10:1.0 11:-1.0 13:-0.997875 14:-0.998892 15:-0.9 16:-0.96 17:-0.931034 18:-0.979728 19:-1.0 
1.0 1:-0.984159 2:-0.983853 4:2009.0 5:-1.0 6:4.0 7:-1.0 8:-1.0 9:-1.0 10:1.0 11:-0.996241 12:1.0 13:-1.0 14:-1.0 15:-1.0 16:-1.0 17:-1.0 18:-1.0 19:-0.992481 
1.0 1:-0.990746 2:-0.998981 3:1.0 4:4001.0 5:-0.7428 6:4.0 7:-0.95 8:-0.928571 9:-0.739307 10:1.0 11:-0.996241 13:-0.997875 14:-0.999446 15:-0.95 16:-0.7428 17:-0.931034 18:-0.739307 19:-0.996241 
1.0 1:-0.997412 2:-0.998197 3:1.0 4:4001.0 5:-0.6004 6:4.0 7:-0.95 8:-0.928571 9:-0.594973 10:1.0 11:-0.996241 13:-0.997875 14:-0.998892 15:-0.95 16:-0.6004 17:-0.931034 18:-0.594973 19:-0.996241 
1.0 1:-0.996236 2:-0.995219 4:4001.0 5:-1.0 6:4.0 7:-1.0 8:-1.0 9:-1.0 10:1.0 11:-1.0 13:-1.0 14:-1.0 15:-1.0 16:-1.0 17:-1.0 18:-1.0 19:-1.0 
1.0 1:-0.985492 2:-0.98448 4:1010.0 5:-0.998008 6:1.0 7:-0.95 8:-0.928571 9:-0.997981 10:1.0 11:-1.0 13:-0.997875 14:-0.999446 15:-0.95 16:-0.998008 17:-0.931034 18:-0.997981 19:-1.0 
1.0 1:-0.923068 2:-0.922088 3:1.0 4:1010.0 5:-0.995976 6:4.0 7:-0.95 8:-0.928571 9:-0.995921 10:1.0 11:-1.0 13:-0.997875 14:-0.996677 15:-0.95 16:-0.995976 17:-0.931034 18:-0.995921 19:-1.0 
0.13142944705616458 1:-0.603576 2:-0.602759 4:4008.0 5:-1.0 6:9.0 7:-1.0 8:-1.0 9:-1.0 10:1.0 11:-1.0 13:-1.0 14:-1.0 15:-1.0 16:-1.0 17:-1.0 18:-1.0 19:-1.0 
1.0 1:-0.998196 2:-0.998981 3:1.0 4:1008.0 5:-1.0 6:4.0 7:-1.0 8:-1.0 9:-1.0 10:1.0 11:-0.996241 13:-0.997875 14:-0.999446 15:-1.0 16:-1.0 17:-1.0 18:-1.0 19:-0.996241 
1.0 1:-0.977807 2:-0.977661 4:4001.0 5:-0.9744 6:4.0 7:-0.95 8:-0.928571 9:-0.974052 10:1.0 11:-0.996241 12:1.0 13:-0.997875 14:-0.999446 15:-0.95 16:-0.9744 17:-0.931034 18:-0.974052 19:-0.996241 
0.984470861042018 1:-0.985335 2:-0.985891 4:4999.0 5:-1.0 6:4.0 7:-1.0 8:-1.0 9:-1.0 10:1.0 11:-0.996241 13:-0.997875 14:-0.999446 15:-1.0 16:-1.0 17:-1.0 18:-1.0 19:-0.992481 
0.2290589014249205 1:-0.998902 2:-0.998981 3:1.0 4:2999.0 5:-1.0 6:1.0 7:-1.0 8:-1.0 9:-1.0 11:-0.996241 13:-0.995749 14:-0.993908 15:-1.0 16:-1.0 17:-1.0 18:-1.0 19:-0.996241 
1.0 1:-0.998275 2:-0.998903 3:1.0 4:4001.0 5:-0.7606 6:4.0 7:-0.95 8:-0.928571 9:-0.757348 10:1.0 11:-0.996241 13:-0.997875 14:-0.999446 15:-0.95 16:-0.7606 17:-0.931034 18:-0.757348 19:-0.996241 
1.0 1:-0.998432 2:-0.998981 4:4001.0 5:-0.9802 6:4.0 7:-0.95 8:-0.928571 9:-0.979931 10:1.0 11:-0.996241 13:-0.997875 14:-0.999446 15:-0.95 16:-0.9802 17:-0.931034 18:-0.979931 19:-0.996241 
1.0 1:-0.999686 2:-0.998668 3:1.0 4:2009.0 5:-1.0 6:4.0 7:-1.0 8:-1.0 9:-1.0 10:1.0 11:-1.0 13:-1.0 14:-1.0 15:-1.0 16:-1.0 17:-1.0 18:-1.0 19:-1.0 
0.019472978469507657 1:-0.999294 2:-0.998981 3:1.0 4:2999.0 5:-1.0 6:4.0 7:-1.0 8:-1.0 9:-1.0 10:1.0 11:-0.996241 12:1.0 13:-0.997875 14:-0.999446 15:-1.0 16:-1.0 17:-1.0 18:-1.0 19:-0.996241 
0.03462029211912165 1:-0.999451 2:-0.998981 4:2001.0 5:-1.0 6:4.0 7:-1.0 8:-1.0 9:-1.0 10:1.0 11:-0.992481 12:1.0 13:-0.997875 14:-0.998892 15:-1.0 16:-1.0 17:-1.0 18:-1.0 19:-0.996241 
1.0 1:-0.867231 2:-0.998981 3:1.0 4:4001.0 5:-0.5802 6:4.0 7:-0.95 8:-0.928571 9:-0.574498 10:1.0 11:-0.996241 13:-0.997875 14:-0.996677 15:-0.95 16:-0.5802 17:-0.931034 18:-0.574498 19:-0.996241 
0.03073466096574872 1:-0.961259 2:-0.998981 4:2009.0 5:-1.0 6:4.0 7:-1.0 8:-1.0 9:-1.0 10:1.0 11:-0.240602 13:-1.0 14:-1.0 15:-1.0 16:-1.0 17:-1.0 18:-1.0 19:-0.977444 
1.0 1:-0.999451 2:-0.998981 4:4001.0 5:-0.9766 6:4.0 7:-0.95 8:-0.928571 9:-0.976282 10:1.0 11:-0.996241 12:1.0 13:-0.997875 14:-0.999446 15:-0.95 16:-0.9766 17:-0.931034 18:-0.976282 19:-0.981203 
0.3005642066868524 1:-0.999216 2:-0.998981 4:2009.0 5:-1.0 6:1.0 7:-1.0 8:-1.0 9:-1.0 10:1.0 11:-0.996241 12:1.0 13:-0.993624 14:-0.998338 15:-1.0 16:-1.0 17:-1.0 18:-1.0 19:-0.988722 
1.0 1:-0.986041 2:-0.985029 4:1010.0 5:-1.0 6:4.0 7:-1.0 8:-1.0 9:-1.0 10:1.0 11:-1.0 13:-1.0 14:-0.997231 15:-1.0 16:-1.0 17:-1.0 18:-1.0 19:-1.0 
1.0 1:-0.998667 2:-0.998981 3:1.0 4:2001.0 5:-1.0 6:1.0 7:-1.0 8:-1.0 9:-1.0 10:1.0 11:-0.996241 13:-0.991498 14:-0.997785 15:-1.0 16:-1.0 17:-1.0 18:-1.0 19:-0.996241 
1.0 1:-0.995216 2:-0.9942 4:4001.0 5:-0.798 6:4.0 7:-0.95 8:-0.928571 9:-0.795256 10:1.0 11:-0.992481 13:-0.997875 14:-0.999446 15:-1.0 16:-1.0 17:-1.0 18:-1.0 19:-1.0 
1.0 1:-0.926675 2:-0.998981 3:1.0 4:4001.0 5:-0.7564 6:4.0 7:-0.9 8:-0.857143 9:-0.753091 10:1.0 11:-0.992481 13:-0.997875 14:-0.998338 15:-0.9 16:-0.7564 17:-0.862069 18:-0.753091 19:-0.992481 
1.0 1:-0.959613 2:-0.958614 3:1.0 4:2010.0 5:-1.0 6:1.0 7:-1.0 8:-1.0 9:-1.0 10:1.0 11:-1.0 13:-0.997875 14:-0.999446 15:-1.0 16:-1.0 17:-1.0 18:-1.0 19:-1.0 
0.7932705296167158 1:-0.961338 2:-0.960339 4:4004.0 5:-1.0 6:1.0 7:-1.0 8:-1.0 9:-1.0 10:1.0 11:-1.0 13:-1.0 14:-0.995569 15:-1.0 16:-1.0 17:-1.0 18:-1.0 19:-1.0 
1.0 1:-0.998824 2:-0.997805 3:1.0 4:2001.0 5:-1.0 6:1.0 7:-1.0 8:-1.0 9:-1.0 10:1.0 11:-0.996241 13:-0.993624 14:-0.996123 15:-1.0 16:-1.0 17:-1.0 18:-1.0 19:-1.0 
1.0 1:-0.983453 2:-0.998981 4:4001.0 5:-0.7002 6:4.0 7:-0.95 8:-0.928571 9:-0.696128 11:-0.996241 13:-0.997875 14:-0.999446 15:-0.95 16:-0.7002 17:-0.931034 18:-0.696128 19:-0.996241 
1.0 1:-0.998353 2:-0.998981 3:1.0 4:4001.0 5:-0.57262 6:4.0 7:-0.9 8:-0.857143 9:-0.566815 11:-0.992481 13:-0.995749 14:-0.998892 15:-0.9 16:-0.57262 17:-0.862069 18:-0.566815 19:-0.992481 
0.2586293912617611 1:-0.985413 2:-0.984637 3:1.0 4:2009.0 5:-1.0 6:4.0 7:-1.0 8:-1.0 9:-1.0 10:1.0 11:-0.984962 13:-1.0 14:-0.999446 15:-1.0 16:-1.0 17:-1.0 18:-1.0 19:-0.984962 
1.0 1:-0.985884 2:-0.985813 3:1.0 4:4001.0 5:-0.972 6:1.0 7:-0.6 8:-0.428571 9:-0.97162 10:1.0 11:-0.996241 12:1.0 13:-0.982997 14:-0.995015 15:-0.6 16:-0.972 17:-0.448276 18:-0.97162 19:-0.996241 
1.0 1:-0.94581 2:-0.944819 4:1010.0 5:-1.0 6:1.0 7:-1.0 8:-1.0 9:-1.0 10:1.0 11:-1.0 13:-1.0 14:-1.0 15:-1.0 16:-1.0 17:-1.0 18:-1.0 19:-1.0 
1.0 1:-1.0 2:-0.998981 3:1.0 4:4001.0 5:-0.7002 6:4.0 7:-0.95 8:-0.928571 9:-0.696128 11:-0.996241 13:-0.997875 14:-0.999446 15:-0.95 16:-0.7002 17:-0.931034 18:-0.696128 19:-0.996241 
1.0 1:-0.995608 2:-0.995689 4:2001.0 5:-1.0 6:1.0 7:-1.0 8:-1.0 9:-1.0 10:1.0 11:-0.992481 13:-0.995749 14:-0.998892 15:-1.0 16:-1.0 17:-1.0 18:-1.0 19:-0.992481 
0.1050994061557763 1:-0.999059 2:-0.998981 3:1.0 4:2009.0 5:-1.0 6:4.0 7:-1.0 8:-1.0 9:-1.0 10:1.0 11:-0.996241 12:1.0 13:-0.997875 14:-0.999446 15:-1.0 16:-1.0 17:-1.0 18:-1.0 19:-0.830827 
0.026022103775594607 1:-0.94981 2:-0.985891 4:4999.0 5:-1.0 6:4.0 7:-1.0 8:-1.0 9:-1.0 10:1.0 11:-0.988722 13:-1.0 14:-1.0 15:-1.0 16:-1.0 17:-1.0 18:-1.0 19:-0.981203 
0.8002710026000791 1:-0.936792 2:-0.998981 3:1.0 4:2001.0 5:-1.0 6:4.0 7:-1.0 8:-1.0 9:-1.0 10:1.0 11:-0.996241 13:-0.991498 14:-0.996677 15:-1.0 16:-1.0 17:-1.0 18:-1.0 19:-0.996241 
1.0 1:-0.999373 2:-0.998981 3:1.0 4:2001.0 5:-1.0 6:4.0 7:-1.0 8:-1.0 9:-1.0 10:1.0 11:-0.996241 12:1.0 13:-0.997875 14:-0.999446 15:-1.0 16:-1.0 17:-1.0 18:-1.0 19:-0.996241 
1.0 1:-0.833039 2:-0.998981 3:1.0 4:4001.0 5:-0.1102 6:4.0 7:-0.95 8:-0.928571 9:-0.098115 10:1.0 11:-0.996241 13:-0.997875 14:-0.999446 15:-0.95 16:-0.1102 17:-0.931034 18:-0.098115 19:-0.996241 
1.0 1:-0.939301 2:-0.938313 4:1010.0 5:-0.99004 6:1.0 7:-0.95 8:-0.928571 9:-0.989905 10:1.0 11:-1.0 13:-0.997875 14:-0.999446 15:-0.95 16:-0.99004 17:-0.931034 18:-0.989905 19:-1.0 
1.0 1:-0.998275 2:-0.997257 3:1.0 4:2009.0 5:-1.0 6:1.0 7:-1.0 8:-1.0 9:-1.0 10:1.0 11:-0.996241 13:-1.0 14:-0.998338 15:-1.0 16:-1.0 17:-1.0 18:-1.0 19:-1.0 
1.0 1:-0.821354 2:-0.998981 4:4001.0 5:-0.9626 6:4.0 7:-0.9 8:-0.928571 9:-0.967768 10:1.0 11:-0.992481 13:-0.997875 14:-0.999446 15:-0.9 16:-0.9626 17:-0.931034 18:-0.967768 19:-0.992481 
1.0 1:-0.999216 2:-0.998197 4:1010.0 5:-0.98002 6:4.0 7:-0.95 8:-0.928571 9:-0.979749 11:-1.0 13:-0.997875 14:-0.998892 15:-0.95 16:-0.98002 17:-0.931034 18:-0.979749 19:-1.0 
1.0 1:-0.998588 2:-0.998903 3:1.0 4:4999.0 5:-1.0 6:4.0 7:-1.0 8:-1.0 9:-1.0 10:1.0 11:-0.996241 13:-0.995749 14:-0.997785 15:-1.0 16:-1.0 17:-1.0 18:-1.0 19:-0.996241 
1.0 1:-0.946359 2:-0.998981 4:4001.0 5:-0.96633 6:4.0 7:-0.95 8:-0.928571 9:-0.965873 10:1.0 11:-0.996241 12:1.0 13:-0.997875 14:-0.999446 15:-0.95 16:-0.96633 17:-0.931034 18:-0.965873 19:-0.996241 
1.0 1:-0.998981 2:-0.998981 3:1.0 4:2010.0 5:-1.0 6:4.0 7:-1.0 8:-1.0 9:-1.0 11:-0.996241 13:-0.997875 14:-0.999446 15:-1.0 16:-1.0 17:-1.0 18:-1.0 19:-0.996241 
0.8091869687166882 1:-0.998902 2:-0.998981 3:1.0 4:2009.0 5:-1.0 6:9.0 7:-1.0 8:-1.0 9:-1.0 10:1.0 11:-0.966165 13:-0.997875 14:-0.998338 15:-1.0 16:-1.0 17:-1.0 18:-1.0 19:-0.966165 
1.0 1:-0.999373 2:-0.998981 3:1.0 4:1002.0 5:-1.0 6:4.0 7:-1.0 8:-1.0 9:-1.0 10:1.0 11:-0.996241 12:1.0 13:-0.997875 14:-0.999446 15:-1.0 16:-1.0 17:-1.0 18:-1.0 19:-0.996241 
0.10341221526952707 1:-0.998353 2:-0.998511 4:2009.0 5:-1.0 6:1.0 7:-1.0 8:-1.0 9:-1.0 10:1.0 11:-0.996241 13:-1.0 14:-0.999446 15:-1.0 16:-1.0 17:-1.0 18:-1.0 19:-0.996241 
1.0 1:-0.998353 2:-0.998981 3:1.0 4:4001.0 5:-0.712666 6:4.0 7:-0.9 8:-0.857143 9:-0.708763 11:-0.992481 13:-0.997875 14:-0.999446 15:-0.9 16:-0.712666 17:-0.862069 18:-0.708763 19:-0.992481 
1.0 1:-0.995844 2:-0.996394 3:1.0 4:1003.0 5:-0.958 6:4.0 7:-0.65 8:-0.857143 9:-0.987837 10:1.0 11:-0.996241 13:-0.995749 14:-0.996123 15:-0.65 16:-0.958 17:-0.862069 18:-0.987837 19:-0.996241 
0.05531038389493071 1:-0.944477 2:-0.943486 4:2010.0 5:-1.0 6:1.0 7:-1.0 8:-1.0 9:-1.0 11:-1.0 13:-0.997875 14:-0.999446 15:-1.0 16:-1.0 17:-1.0 18:-1.0 19:-1.0 
1.0 1:-0.998432 2:-0.998981 3:1.0 4:4001.0 5:-0.8932 6:4.0 7:-0.9 8:-0.857143 9:-0.891749 11:-0.992481 13:-0.995749 14:-0.998892 15:-0.9 16:-0.8932 17:-0.862069 18:-0.891749 19:-0.992481 
1.0 1:-0.999216 2:-0.998981 4:4001.0 5:-0.4002 6:4.0 7:-0.95 8:-0.928571 9:-0.392054 11:-0.996241 12:1.0 13:-0.997875 14:-0.999446 15:-0.95 16:-0.4002 17:-0.931034 18:-0.392054 19:-0.996241 
1.0 1:-0.98557 2:-0.984559 4:4001.0 5:-0.999998 6:4.0 7:-0.95 8:-0.928571 9:-0.999998 10:1.0 11:-0.992481 13:-0.991498 14:-0.994461 15:-1.0 16:-1.0 17:-1.0 18:-1.0 19:-1.0 
1.0 1:-0.934204 2:-0.933218 3:1.0 4:4001.0 5:-0.62204 6:4.0 7:0.05 8:-1.0 9:-1.0 11:-0.849624 13:-1.0 14:-1.0 15:-1.0 16:-1.0 17:-1.0 18:-1.0 19:-1.0 
1.0 1:-0.990197 2:-0.989183 4:4001.0 5:-0.9082 6:4.0 7:-0.95 8:-1.0 9:-1.0 10:1.0 11:-0.992481 13:-1.0 14:-0.999446 15:-1.0 16:-1.0 17:-1.0 18:-1.0 19:-1.0 
1.0 1:-0.976395 2:-0.998981 4:4001.0 5:-0.96666 6:4.0 7:-0.95 8:-0.928571 9:-0.966207 10:1.0 11:-0.984962 13:-0.997875 14:-0.999446 15:-0.95 16:-0.96666 17:-0.931034 18:-0.966207 19:-0.984962 
1.0 1:-0.792024 2:-0.998981 3:1.0 4:1003.0 5:-0.98 6:4.0 7:-0.95 8:-0.928571 9:-0.979728 10:1.0 11:-0.992481 12:1.0 13:-0.997875 14:-0.999446 15:-0.95 16:-0.98 17:-0.931034 18:-0.979728 19:-0.996241 
1.0 1:-0.998667 2:-0.998981 3:1.0 4:2009.0 5:-1.0 6:4.0 7:-1.0 8:-1.0 9:-1.0 10:1.0 11:-0.984962 13:-0.989373 14:-0.997231 15:-1.0 16:-1.0 17:-1.0 18:-1.0 19:-0.984962 
1.0 1:-0.924087 2:-0.923107 4:1010.0 5:-1.0 6:4.0 7:-1.0 8:-1.0 9:-1.0 10:1.0 11:-1.0 13:-0.997875 14:-0.997785 15:-1.0 16:-1.0 17:-1.0 18:-1.0 19:-1.0 
0.29756616978556405 1:-0.998588 2:-0.998981 3:1.0 4:2009.0 5:-1.0 6:1.0 7:-1.0 8:-1.0 9:-1.0 10:1.0 11:-0.879699 13:-0.997875 14:-0.998892 15:-1.0 16:-1.0 17:-1.0 18:-1.0 19:-0.864662 
1.0 1:-0.999137 2:-0.998981 4:4001.0 5:-0.4602 6:4.0 7:-0.95 8:-0.928571 9:-0.452868 11:-0.996241 12:1.0 13:-0.997875 14:-0.999446 15:-0.95 16:-0.4602 17:-0.931034 18:-0.452868 19:-0.996241 
0.7023194808016407 1:-0.998745 2:-0.998981 3:1.0 4:4001.0 5:-0.00342 6:4.0 7:-0.9 8:-0.928571 9:0.001014 11:-0.992481 13:-0.997875 14:-0.999446 15:-0.9 16:-0.00342 17:-0.931034 18:0.001014 19:-0.992481 
0.02768451169841444 1:-0.985884 2:-0.985813 4:5002.0 5:-1.0 6:9.0 7:-1.0 8:-1.0 9:-1.0 10:1.0 11:-0.996241 12:1.0 13:-1.0 14:-1.0 15:-1.0 16:-1.0 17:-1.0 18:-1.0 19:-0.996241 
1.0 1:-0.999059 2:-0.998981 3:1.0 4:4001.0 5:-0.52468 6:4.0 7:-0.95 8:-0.928571 9:-0.518224 10:1.0 11:-0.996241 12:1.0 13:-0.997875 14:-0.999446 15:-0.95 16:-0.52468 17:-0.931034 18:-0.518224 19:-0.996241 
1.0 1:-0.716818 2:-0.998981 4:4001.0 5:-0.457388 6:4.0 7:-0.9 8:-0.928571 9:-0.650302 11:-0.992481 12:1.0 13:-0.997875 14:-0.998892 15:-0.9 16:-0.457388 17:-0.931034 18:-0.650302 19:-0.992481 
1.0 1:-0.998745 2:-0.998903 4:1014.0 5:-1.0 6:1.0 7:-1.0 8:-1.0 9:-1.0 10:1.0 11:-0.996241 13:-1.0 14:-1.0 15:-1.0 16:-1.0 17:-1.0 18:-1.0 19:-0.996241 
1.0 1:-0.999451 2:-0.998981 4:1010.0 5:-0.993976 6:4.0 7:-0.95 8:-0.928571 9:-0.993894 11:-0.996241 12:1.0 13:-0.997875 14:-0.999446 15:-0.95 16:-0.993976 17:-0.931034 18:-0.993894 19:-0.996241 
1.0 1:-0.945732 2:-0.998981 4:4001.0 5:-0.9842 6:4.0 7:-0.95 8:-0.928571 9:-0.983985 10:1.0 11:-0.988722 13:-0.997875 14:-0.998892 15:-0.95 16:-0.9842 17:-0.931034 18:-0.983985 19:-0.988722 
1.0 1:-0.986276 2:-0.985813 4:2009.0 5:-1.0 6:4.0 7:-1.0 8:-1.0 9:-1.0 10:1.0 11:-0.988722 12:1.0 13:-1.0 14:-1.0 15:-1.0 16:-1.0 17:-1.0 18:-1.0 19:-0.988722 
1.0 1:-0.992942 2:-0.993729 3:1.0 4:1003.0 5:-0.944 6:4.0 7:-0.8 8:-0.785714 9:-0.953375 10:1.0 11:-0.996241 13:-0.995749 14:-0.995569 15:-0.8 16:-0.944 17:-0.793103 18:-0.953375 19:-0.992481 
1.0 1:-0.998824 2:-0.998981 3:1.0 4:2009.0 5:-1.0 6:1.0 7:-1.0 8:-1.0 9:-1.0 10:1.0 11:-0.992481 13:-0.982997 14:-0.995569 15:-1.0 16:-1.0 17:-1.0 18:-1.0 19:-0.984962 
1.0 1:-0.985806 2:-0.995062 4:4001.0 5:-0.9364 6:4.0 7:-0.9 8:-1.0 9:-1.0 10:1.0 11:-0.992481 12:1.0 13:-1.0 14:-1.0 15:-0.9 16:-0.9364 17:-1.0 18:-1.0 19:-0.992481 
1.0 1:-0.99451 2:-0.995297 3:1.0 4:2009.0 5:-1.0 6:4.0 7:-1.0 8:-1.0 9:-1.0 10:1.0 11:-0.977444 13:-1.0 14:-0.998338 15:-1.0 16:-1.0 17:-1.0 18:-1.0 19:-0.977444 
1.0 1:-0.985962 2:-0.984951 3:1.0 4:1003.0 5:-1.0 6:4.0 7:-1.0 8:-1.0 9:-1.0 10:1.0 11:-1.0 13:-1.0 14:-1.0 15:-1.0 16:-1.0 17:-1.0 18:-1.0 19:-1.0 
0.5747306320522768 1:-0.936949 2:-0.935962 3:1.0 4:2009.0 5:-1.0 6:4.0 7:-1.0 8:-1.0 9:-1.0 10:1.0 11:-1.0 13:-1.0 14:-1.0 15:-1.0 16:-1.0 17:-1.0 18:-1.0 19:-1.0 
0.9360549667424507 1:-0.895071 2:-0.894106 3:1.0 4:1003.0 5:-0.99 6:4.0 7:-0.95 8:-0.928571 9:-0.989864 10:1.0 11:-1.0 13:-0.997875 14:-0.999446 15:-0.95 16:-0.99 17:-0.931034 18:-0.989864 19:-1.0 
1.0 1:-0.996942 2:-0.997649 4:1011.0 5:-1.0 6:4.0 7:-1.0 8:-1.0 9:-1.0 10:1.0 11:-0.996241 13:-0.997875 14:-0.999446 15:-1.0 16:-1.0 17:-1.0 18:-1.0 19:-0.996241 
1.0 1:-0.979453 2:-0.998981 4:4001.0 5:-0.7708 6:4.0 7:-0.85 8:-0.785714 9:-0.767687 10:1.0 11:-0.988722 13:-0.993624 14:-0.997231 15:-0.85 16:-0.7708 17:-0.793103 18:-0.767687 19:-0.988722 
1.0 1:-0.971141 2:-0.995846 3:1.0 4:1010.0 5:-0.97387 6:1.0 7:-0.75 8:-0.714286 9:-0.979627 10:1.0 11:-0.996241 13:-0.989373 14:-0.990584 15:-0.75 16:-0.97387 17:-0.724138 18:-0.979627 19:-0.996241 
1.0 1:-0.952084 2:-0.963631 3:1.0 4:4001.0 5:-0.2824 6:4.0 7:-0.8 8:-0.714286 9:-0.272654 11:-0.981203 13:-0.991498 14:-0.997785 15:-0.8 16:-0.2824 17:-0.724138 18:-0.272654 19:-0.981203 
0.9599499331496687 1:-0.99851 2:-0.998981 3:1.0 4:1006.0 5:-1.0 6:1.0 7:-1.0 8:-1.0 9:-1.0 10:1.0 11:-0.996241 13:-0.993624 14:-0.998338 15:-1.0 16:-1.0 17:-1.0 18:-1.0 19:-0.996241 
0.5737745697373313 1:-0.999216 2:-0.998981 3:1.0 4:2007.0 5:-1.0 6:4.0 7:-1.0 8:-1.0 9:-1.0 11:-0.996241 12:1.0 13:-0.997875 14:-0.999446 15:-1.0 16:-1.0 17:-1.0 18:-1.0 19:-0.996241 
1.0 1:-0.923146 2:-0.998981 3:1.0 4:1010.0 5:-0.98004 6:4.0 7:-0.95 8:-0.928571 9:-0.979769 10:1.0 11:-0.996241 13:-0.997875 14:-0.998892 15:-0.95 16:-0.98004 17:-0.931034 18:-0.979769 19:-0.996241 
0.43174858325037924 1:-0.801435 2:-0.985813 3:1.0 4:4004.0 5:-1.0 6:1.0 7:-1.0 8:-1.0 9:-1.0 10:1.0 11:-0.996241 12:1.0 13:-1.0 14:-1.0 15:-1.0 16:-1.0 17:-1.0 18:-1.0 19:-0.996241 
1.0 1:-0.887699 2:-0.886738 3:1.0 4:1010.0 5:-0.995976 6:4.0 7:-0.95 8:-0.928571 9:-0.995921 10:1.0 11:-1.0 13:-0.997875 14:-0.999446 15:-0.95 16:-0.995976 17:-0.931034 18:-0.995921 19:-1.0 
1.0 1:-0.989884 2:-0.998981 3:1.0 4:1010.0 5:-0.99004 6:4.0 7:-0.95 8:-0.928571 9:-0.989905 10:1.0 11:-0.996241 12:1.0 13:-0.997875 14:-0.999446 15:-0.95 16:-0.99004 17:-0.931034 18:-0.989905 19:-0.996241 
1.0 1:-0.998588 2:-0.998903 3:1.0 4:1010.0 5:-0.990122 6:4.0 7:-0.95 8:-0.928571 9:-0.989988 10:1.0 11:-0.996241 13:-0.997875 14:-0.977292 15:-0.95 16:-0.990122 17:-0.931034 18:-0.989988 19:-0.996241 
1.0 1:-0.991452 2:-0.998981 3:1.0 4:4001.0 5:-0.8076 6:4.0 7:-0.9 8:-0.857143 9:-0.804987 11:-0.992481 13:-0.995749 14:-0.998892 15:-0.9 16:-0.8076 17:-0.862069 18:-0.804987 19:-0.992481 
0.11825269769385467 1:-0.998667 2:-0.998981 3:1.0 4:2009.0 5:-1.0 6:4.0 7:-1.0 8:-1.0 9:-1.0 11:-0.992481 13:-0.997875 14:-0.999446 15:-0.95 16:-0.5202 17:-1.0 18:-1.0 19:-0.988722 
1.0 1:-1.0 2:-0.998981 3:1.0 4:2009.0 5:-1.0 6:4.0 7:-1.0 8:-1.0 9:-1.0 10:1.0 11:-0.996241 13:-0.993624 14:-0.998338 15:-1.0 16:-1.0 17:-1.0 18:-1.0 19:-0.992481 
1.0 1:-0.831392 2:-0.993181 3:1.0 4:1003.0 5:-0.998 6:4.0 7:-0.95 8:-0.928571 9:-0.997973 10:1.0 11:-0.996241 12:1.0 13:-0.997875 14:-0.999446 15:-0.95 16:-0.998 17:-0.931034 18:-0.997973 19:-0.996241 
0.049663931288724913 1:-0.038544 2:-0.038015 3:1.0 4:2001.0 5:-1.0 6:4.0 7:-1.0 8:-1.0 9:-1.0 11:-1.0 13:-1.0 14:-0.998338 15:-1.0 16:-1.0 17:-1.0 18:-1.0 19:-1.0 
1.0 1:-0.959299 2:-0.998981 3:1.0 4:4001.0 5:-0.8224 6:4.0 7:-0.95 8:-0.928571 9:-0.819988 11:-0.996241 13:-0.991498 14:-0.997785 15:-0.8 16:-0.2896 17:-0.724138 18:-0.279951 19:-0.984962 
1.0 1:-0.996236 2:-0.995219 4:4001.0 5:-1.0 6:4.0 7:-1.0 8:-1.0 9:-1.0 10:1.0 11:-1.0 13:-1.0 14:-1.0 15:-1.0 16:-1.0 17:-1.0 18:-1.0 19:-1.0 
1.0 1:-0.99851 2:-0.998981 3:1.0 4:4001.0 5:-0.8778 6:4.0 7:-0.95 8:-0.928571 9:-0.87614 10:1.0 11:-0.996241 13:-0.997875 14:-0.999446 15:-0.95 16:-0.8778 17:-0.931034 18:-0.87614 19:-0.996241 
0.5626897866031019 1:-1.0 2:-0.998981 3:1.0 4:4001.0 5:-0.7606 6:4.0 7:-0.95 8:-0.928571 9:-0.757348 11:-0.996241 13:-0.997875 14:-0.999446 15:-0.95 16:-0.7606 17:-0.931034 18:-0.757348 19:-0.996241 
1.0 1:-0.998588 2:-0.998981 3:1.0 4:4001.0 5:-0.91864 6:4.0 7:-0.7 8:-0.571429 9:-0.917535 10:1.0 11:-0.977444 13:-0.991498 14:-0.996123 15:-0.7 16:-0.91864 17:-0.586207 18:-0.917535 19:-0.977444 
1.0 1:-0.998353 2:-0.998981 3:1.0 4:2001.0 5:-1.0 6:4.0 7:-1.0 8:-1.0 9:-1.0 10:1.0 11:-0.996241 13:-0.997875 14:-0.999446 15:-1.0 16:-1.0 17:-1.0 18:-1.0 19:-0.992481 
0.8334544597000519 1:-0.999059 2:-0.998981 3:1.0 4:2001.0 5:-1.0 6:4.0 7:-1.0 8:-1.0 9:-1.0 10:1.0 11:-0.992481 12:1.0 13:-0.982997 14:-0.973968 15:-1.0 16:-1.0 17:-1.0 18:-1.0 19:-0.992481 
1.0 1:-0.998745 2:-0.998981 4:1010.0 5:-0.99001 6:4.0 7:-0.95 8:-0.928571 9:-0.989874 11:-0.992481 13:-0.997875 14:-0.999446 15:-0.95 16:-0.99001 17:-0.931034 18:-0.989874 19:-0.992481 
0.4715770777257522 1:-0.998902 2:-0.998981 4:2010.0 5:-1.0 6:4.0 7:-1.0 8:-1.0 9:-1.0 11:-0.996241 13:-0.997875 14:-0.999446 15:-1.0 16:-1.0 17:-1.0 18:-1.0 19:-0.996241 
1.0 1:-0.999216 2:-0.998981 4:4001.0 5:-0.4006 6:4.0 7:-0.95 8:-0.928571 9:-0.392459 11:-0.996241 12:1.0 13:-0.997875 14:-0.999446 15:-0.95 16:-0.4006 17:-0.931034 18:-0.392459 19:-0.996241 
1.0 1:-0.972631 2:-0.998981 4:4001.0 5:-0.9 6:4.0 7:-0.9 8:-0.857143 9:-0.898642 10:1.0 11:-0.992481 13:-0.995749 14:-0.998892 15:-0.9 16:-0.9 17:-0.862069 18:-0.898642 19:-0.992481 
1.0 1:-0.998196 2:-0.998981 3:1.0 4:1010.0 5:-0.99799 6:4.0 7:-0.95 8:-0.928571 9:-0.997963 10:1.0 11:-0.996241 13:-0.997875 14:-0.998338 15:-0.95 16:-0.99799 17:-0.931034 18:-0.997963 19:-0.996241 
1.0 1:-0.995059 2:-0.998981 3:1.0 4:4001.0 5:-0.7064 6:4.0 7:-0.9 8:-0.928571 9:-0.854247 10:1.0 11:-0.992481 13:-0.997875 14:-0.999446 15:-0.9 16:-0.7064 17:-0.931034 18:-0.854247 19:-0.992481 
0.5120407191693183 1:-0.999294 2:-0.998981 4:1002.0 5:-1.0 6:4.0 7:-1.0 8:-1.0 9:-1.0 10:1.0 11:-0.996241 12:1.0 13:-0.976621 14:-0.506508 15:-1.0 16:-1.0 17:-1.0 18:-1.0 19:-0.996241 
0.03103822276425606 1:-0.996471 2:-0.998981 3:1.0 4:1999.0 5:-1.0 6:4.0 7:-1.0 8:-1.0 9:-1.0 11:-0.973684 13:-0.991498 14:-0.996677 15:-1.0 16:-1.0 17:-1.0 18:-1.0 19:-0.973684 
1.0 1:-0.996079 2:-0.995062 4:4001.0 5:-1.0 6:4.0 7:-1.0 8:-1.0 9:-1.0 10:1.0 11:-1.0 13:-1.0 14:-0.999446 15:-1.0 16:-1.0 17:-1.0 18:-1.0 19:-1.0 
1.0 1:-0.998353 2:-0.998981 3:1.0 4:4001.0 5:-0.716 6:4.0 7:-0.95 8:-0.928571 9:-0.712143 10:1.0 11:-0.996241 13:-0.997875 14:-0.999446 15:-0.95 16:-0.716 17:-0.931034 18:-0.712143 19:-0.996241 
0.546240276641888 1:-0.998432 2:-0.997413 3:1.0 4:2009.0 5:-1.0 6:9.0 7:-1.0 8:-1.0 9:-1.0 10:1.0 11:-1.0 13:-1.0 14:-0.998338 15:-1.0 16:-1.0 17:-1.0 18:-1.0 19:-1.0 
1.0 1:-0.998824 2:-0.998981 3:1.0 4:2001.0 5:-1.0 6:1.0 7:-1.0 8:-1.0 9:-1.0 11:-0.996241 13:-0.991498 14:-0.997785 15:-1.0 16:-1.0 17:-1.0 18:-1.0 19:-0.996241 
1.0 1:-0.996706 2:-0.995689 3:1.0 4:1005.0 5:-1.0 6:4.0 7:-1.0 8:-1.0 9:-1.0 10:1.0 11:-1.0 13:-1.0 14:-0.997785 15:-1.0 16:-1.0 17:-1.0 18:-1.0 19:-1.0 
1.0 1:-0.999059 2:-0.998981 4:1010.0 5:-0.990122 6:4.0 7:-0.95 8:-0.928571 9:-0.989988 11:-0.996241 12:1.0 13:-0.997875 14:-0.999446 15:-0.95 16:-0.990122 17:-0.931034 18:-0.989988 19:-0.996241 
1.0 1:-0.88417 2:-0.883211 3:1.0 4:1003.0 5:-0.95 6:4.0 7:-0.9 8:-0.928571 9:-0.959457 10:1.0 11:-1.0 13:-0.997875 14:-0.997785 15:-0.9 16:-0.95 17:-0.931034 18:-0.959457 19:-0.996241 
1.0 1:-0.999059 2:-0.99804 3:1.0 4:1010.0 5:-0.99002 6:4.0 7:-0.95 8:-0.928571 9:-0.989884 10:1.0 11:-1.0 13:-0.997875 14:-0.999446 15:-0.95 16:-0.99002 17:-0.931034 18:-0.989884 19:-1.0 
1.0 1:-0.979375 2:-0.978367 3:1.0 4:1007.0 5:-1.0 6:1.0 7:-1.0 8:-1.0 9:-1.0 10:1.0 11:-1.0 13:-0.997875 14:-0.997785 15:-1.0 16:-1.0 17:-1.0 18:-1.0 19:-1.0 
1.0 1:-0.999059 2:-0.998981 4:1010.0 5:-0.988002 6:4.0 7:-0.9 8:-0.857143 9:-0.987839 11:-0.996241 12:1.0 13:-0.995749 14:-0.998892 15:-0.9 16:-0.988002 17:-0.862069 18:-0.987839 19:-0.996241 
1.0 1:-0.995922 2:-0.994905 4:4001.0 5:-1.0 6:4.0 7:-1.0 8:-1.0 9:-1.0 10:1.0 11:-1.0 13:-1.0 14:-0.999446 15:-1.0 16:-1.0 17:-1.0 18:-1.0 19:-1.0 
1.0 1:-0.821668 2:-0.998981 3:1.0 4:1010.0 5:-0.99008 6:4.0 7:-0.95 8:-0.928571 9:-0.989945 10:1.0 11:-0.988722 13:-0.997875 14:-0.999446 15:-0.95 16:-0.99008 17:-0.931034 18:-0.989945 19:-0.988722 
1.0 1:-0.86135 2:-0.860401 4:2010.0 5:-1.0 6:1.0 7:-1.0 8:-1.0 9:-1.0 10:1.0 11:-1.0 13:-0.997875 14:-0.997785 15:-1.0 16:-1.0 17:-1.0 18:-1.0 19:-1.0 
1.0 1:-0.999843 2:-0.998824 4:2009.0 5:-1.0 6:4.0 7:-1.0 8:-1.0 9:-1.0 10:1.0 11:-1.0 13:-0.989373 14:-0.996123 15:-1.0 16:-1.0 17:-1.0 18:-1.0 19:-1.0 
1.0 1:-0.999294 2:-0.998981 4:4001.0 5:-0.9822 6:4.0 7:-0.95 8:-0.928571 9:-0.981958 10:1.0 11:-0.996241 12:1.0 13:-1.0 14:-1.0 15:-0.95 16:-0.9822 17:-0.931034 18:-0.981958 19:-0.996241 
0.9397060132000383 1:-0.999451 2:-0.998981 4:1014.0 5:-1.0 6:1.0 7:-1.0 8:-1.0 9:-1.0 10:1.0 11:-0.996241 12:1.0 13:-1.0 14:-1.0 15:-1.0 16:-1.0 17:-1.0 18:-1.0 19:-0.996241 
0.769007992808342 1:-0.998432 2:-0.997413 3:1.0 4:2001.0 5:-1.0 6:4.0 7:-1.0 8:-1.0 9:-1.0 11:-1.0 13:-0.993624 14:-0.996677 15:-1.0 16:-1.0 17:-1.0 18:-1.0 19:-1.0 
1.0 1:-0.996314 2:-0.998981 4:4001.0 5:-0.99802 6:4.0 7:-0.95 8:-0.928571 9:-0.997993 10:1.0 11:-0.992481 13:-0.997875 14:-0.999446 15:-0.95 16:-0.99802 17:-0.931034 18:-0.997993 19:-0.992481 
1.0 1:-0.989805 2:-0.988791 4:1002.0 5:-1.0 6:1.0 7:-1.0 8:-1.0 9:-1.0 10:1.0 11:-1.0 13:-0.997875 14:-0.998892 15:-1.0 16:-1.0 17:-1.0 18:-1.0 19:-1.0 
1.0 1:-0.999765 2:-0.998981 4:1014.0 5:-1.0 6:1.0 7:-1.0 8:-1.0 9:-1.0 10:1.0 11:-0.996241 13:-1.0 14:-1.0 15:-1.0 16:-1.0 17:-1.0 18:-1.0 19:-0.996241 
1.0 1:-0.999373 2:-0.998981 3:1.0 4:4001.0 5:-0.8002 6:4.0 7:-0.95 8:-0.928571 9:-0.797486 10:1.0 11:-0.996241 12:1.0 13:-0.997875 14:-0.999446 15:-0.95 16:-0.8002 17:-0.931034 18:-0.797486 19:-0.996241 
1.0 1:-0.994432 2:-0.993416 4:4001.0 5:-0.9402 6:4.0 7:-0.95 8:-0.928571 9:-0.939388 10:1.0 11:-0.996241 13:-0.997875 14:-0.999446 15:-1.0 16:-1.0 17:-1.0 18:-1.0 19:-1.0 
0.5037550352669878 1:-0.998745 2:-0.998903 3:1.0 4:4001.0 5:-0.889392 6:1.0 7:-0.45 8:-0.214286 9:-0.88789 11:-0.996241 13:-0.976621 14:-0.993908 15:-0.45 16:-0.889392 17:-0.241379 18:-0.88789 19:-0.996241 
0.024761699197400126 1:-0.853978 2:-0.985813 3:1.0 4:2009.0 5:-1.0 6:4.0 7:-1.0 8:-1.0 9:-1.0 11:-0.996241 13:0.927736 14:0.579618 15:-1.0 16:-1.0 17:-1.0 18:-1.0 19:-0.996241 
1.0 1:-0.999137 2:-0.998981 3:1.0 4:4001.0 5:-0.6604 6:4.0 7:-0.95 8:-0.928571 9:-0.655788 10:1.0 11:-0.996241 12:1.0 13:-0.997875 14:-0.999446 15:-0.95 16:-0.6604 17:-0.931034 18:-0.655788 19:-0.996241 
1.0 1:-0.991452 2:-0.998981 3:1.0 4:4001.0 5:-0.8076 6:4.0 7:-0.9 8:-0.857143 9:-0.804987 11:-0.992481 13:-0.995749 14:-0.998892 15:-0.9 16:-0.8076 17:-0.862069 18:-0.804987 19:-0.992481 
1.0 1:-0.996236 2:-0.995219 4:4001.0 5:-1.0 6:4.0 7:-1.0 8:-1.0 9:-1.0 10:1.0 11:-1.0 13:-1.0 14:-1.0 15:-1.0 16:-1.0 17:-1.0 18:-1.0 19:-1.0 
1.0 1:-0.999216 2:-0.998981 4:1002.0 5:-1.0 6:4.0 7:-1.0 8:-1.0 9:-1.0 10:1.0 11:-0.996241 12:1.0 13:-0.985122 14:-0.975076 15:-1.0 16:-1.0 17:-1.0 18:-1.0 19:-0.996241 
0.6066807384628238 1:-0.888327 2:-0.998981 3:1.0 4:1003.0 5:-0.992 6:4.0 7:-0.9 8:-0.857143 9:-0.991891 11:-0.996241 12:1.0 13:-0.997875 14:-0.998892 15:-0.9 16:-0.992 17:-0.862069 18:-0.991891 19:-0.996241 
1.0 1:-0.999451 2:-0.998981 3:1.0 4:1003.0 5:-0.99 6:4.0 7:-0.95 8:-0.928571 9:-0.989864 11:-0.996241 12:1.0 13:-0.997875 14:-0.999446 15:-0.95 16:-0.99 17:-0.931034 18:-0.989864 19:-0.996241 
0.05043305378974733 1:-0.485394 2:-0.484637 3:1.0 5:-1.0 6:4.0 7:-1.0 8:-1.0 9:-1.0 10:1.0 11:-0.996241 13:-1.0 14:-0.999446 15:-1.0 16:-1.0 17:-1.0 18:-1.0 19:-1.0 
1.0 1:-0.998902 2:-0.998354 3:1.0 4:2009.0 5:-1.0 6:1.0 7:-1.0 8:-1.0 9:-1.0 10:1.0 11:-0.988722 13:-0.997875 14:-0.998892 15:-1.0 16:-1.0 17:-1.0 18:-1.0 19:-0.988722 
1.0 1:-0.993805 2:-0.998981 3:1.0 4:1010.0 5:-0.990024 6:4.0 7:-0.95 8:-0.928571 9:-0.989889 10:1.0 11:-0.992481 12:1.0 13:-0.997875 14:-0.999446 15:-0.95 16:-0.990024 17:-0.931034 18:-0.989889 19:-0.984962 
0.995470633483447 1:-0.759871 2:-0.998981 3:1.0 4:1003.0 5:-0.994 6:4.0 7:-0.95 8:-0.928571 9:-0.993919 10:1.0 11:-0.996241 13:-0.997875 14:-0.999446 15:-0.95 16:-0.994 17:-0.931034 18:-0.993919 19:-0.996241 
1.0 1:-0.972003 2:-0.970999 4:1010.0 5:-0.998008 6:4.0 7:-0.95 8:-0.928571 9:-0.997981 11:-1.0 13:-0.997875 14:-0.999446 15:-0.95 16:-0.998008 17:-0.931034 18:-0.997981 19:-1.0 
1.0 1:-0.986119 2:-0.985813 3:1.0 4:4001.0 5:-1.0 6:4.0 7:-1.0 8:-1.0 9:-1.0 11:-0.996241 12:1.0 13:-1.0 14:-1.0 15:-1.0 16:-1.0 17:-1.0 18:-1.0 19:-0.996241 
1.0 1:-0.946202 2:-0.998981 4:4001.0 5:-0.9664 6:4.0 7:-0.9 8:-0.928571 9:-0.986013 10:1.0 11:-0.992481 13:-0.997875 14:-0.998338 15:-0.85 16:-0.925 17:-0.931034 18:-0.986013 19:-0.984962 
1.0 1:-0.985884 2:-0.985891 3:1.0 4:2999.0 5:-1.0 6:4.0 7:-1.0 8:-1.0 9:-1.0 10:1.0 11:-0.996241 12:1.0 13:-1.0 14:-1.0 15:-1.0 16:-1.0 17:-1.0 18:-1.0 19:-0.996241 
1.0 1:-0.997569 2:-0.997962 4:2009.0 5:-1.0 6:1.0 7:-1.0 8:-1.0 9:-1.0 10:1.0 11:-0.973684 13:-0.997875 14:-0.998892 15:-1.0 16:-1.0 17:-1.0 18:-1.0 19:-0.988722 
0.32836851971425396 1:-0.709446 2:-0.708575 3:1.0 4:1010.0 5:-0.90121 6:1.0 7:-0.85 8:-0.785714 9:-0.899868 10:1.0 11:-1.0 13:-0.993624 14:-0.998338 15:-0.85 16:-0.90121 17:-0.793103 18:-0.899868 19:-1.0 
0.5742490663739268 1:-0.998902 2:-0.998981 4:2999.0 5:-1.0 6:4.0 7:-1.0 8:-1.0 9:-1.0 11:-0.996241 13:-0.997875 14:-0.999446 15:-1.0 16:-1.0 17:-1.0 18:-1.0 19:-0.996241 
1.0 1:-0.986119 2:-0.985891 3:1.0 4:1010.0 5:-1.0 6:4.0 7:-1.0 8:-1.0 9:-1.0 10:1.0 11:-0.996241 12:1.0 13:-1.0 14:-1.0 15:-1.0 16:-1.0 17:-1.0 18:-1.0 19:-0.996241 
0.7474664867135167 1:-0.999451 2:-0.998981 4:2010.0 5:-1.0 6:4.0 7:-1.0 8:-1.0 9:-1.0 10:1.0 11:-0.996241 12:1.0 13:-1.0 14:-1.0 15:-1.0 16:-1.0 17:-1.0 18:-1.0 19:-0.996241 
0.0035909900820428643 1:-0.395208 2:-0.394498 3:1.0 4:2009.0 5:-1.0 6:9.0 7:-1.0 8:-1.0 9:-1.0 10:1.0 11:-1.0 13:-1.0 14:-1.0 15:-1.0 16:-1.0 17:-1.0 18:-1.0 19:-1.0 
1.0 1:-0.96871 2:-0.967707 3:1.0 4:1010.0 5:-0.9801 6:4.0 7:-0.95 8:-0.928571 9:-0.97983 10:1.0 11:-0.996241 13:-0.997875 14:-0.999446 15:-0.95 16:-0.9801 17:-0.931034 18:-0.97983 19:-1.0 
1.0 1:-0.998902 2:-0.998981 3:1.0 4:4001.0 5:-0.8576 6:4.0 7:-0.95 8:-0.928571 9:-0.855666 10:1.0 11:-0.996241 13:-0.997875 14:-0.999446 15:-0.95 16:-0.8576 17:-0.931034 18:-0.855666 19:-0.996241 
1.0 1:-0.996236 2:-0.995219 4:4001.0 5:-1.0 6:4.0 7:-1.0 8:-1.0 9:-1.0 10:1.0 11:-1.0 13:-1.0 14:-1.0 15:-1.0 16:-1.0 17:-1.0 18:-1.0 19:-1.0 
1.0 1:-0.999059 2:-0.998981 4:4001.0 5:-0.96431 6:4.0 7:-0.95 8:-0.928571 9:-0.963825 10:1.0 11:-0.996241 12:1.0 13:-0.997875 14:-0.999446 15:-0.95 16:-0.96431 17:-0.931034 18:-0.963825 19:-0.996241 
1.0 1:-0.846293 2:-0.998981 4:4001.0 5:-0.974 6:4.0 7:-0.95 8:-0.928571 9:-0.973647 10:1.0 11:-0.996241 13:-0.997875 14:-0.999446 15:-0.95 16:-0.974 17:-0.931034 18:-0.973647 19:-0.996241 
1.0 1:-0.999922 2:-0.998903 3:1.0 4:2001.0 5:-1.0 6:4.0 7:-1.0 8:-1.0 9:-1.0 10:1.0 11:-1.0 13:-0.997875 14:-0.999446 15:-1.0 16:-1.0 17:-1.0 18:-1.0 19:-1.0 
1.0 1:-0.999137 2:-0.998903 3:1.0 4:1002.0 5:-1.0 6:1.0 7:-1.0 8:-1.0 9:-1.0 11:-0.996241 12:1.0 13:-0.997875 14:-0.998892 15:-1.0 16:-1.0 17:-1.0 18:-1.0 19:-0.996241 
0.029709796551508048 1:-0.999059 2:-0.998981 3:1.0 4:2999.0 5:-1.0 6:1.0 7:-1.0 8:-1.0 9:-1.0 11:-0.996241 12:1.0 13:-0.995749 14:-0.998892 15:-1.0 16:-1.0 17:-1.0 18:-1.0 19:-0.996241 
0.0353434287279134 1:-0.999451 2:-0.998981 4:2010.0 5:-1.0 6:4.0 7:-1.0 8:-1.0 9:-1.0 11:-0.996241 12:1.0 13:-0.997875 14:-0.999446 15:-1.0 16:-1.0 17:-1.0 18:-1.0 19:-0.996241 
1.0 1:-0.998745 2:-0.998981 3:1.0 4:4001.0 5:-0.464 6:4.0 7:-0.95 8:-0.928571 9:-0.45672 10:1.0 11:-0.996241 13:-0.997875 14:-0.999446 15:-0.95 16:-0.464 17:-0.931034 18:-0.45672 19:-0.996241 
1.0 1:-0.999137 2:-0.998981 4:4001.0 5:-0.4602 6:4.0 7:-0.95 8:-0.928571 9:-0.452868 11:-0.996241 12:1.0 13:-0.997875 14:-0.999446 15:-0.95 16:-0.4602 17:-0.931034 18:-0.452868 19:-0.996241 
1.0 1:-0.999373 2:-0.998981 3:1.0 4:1006.0 5:-1.0 6:4.0 7:-1.0 8:-1.0 9:-1.0 10:1.0 11:-0.996241 12:1.0 13:-0.997875 14:-0.999446 15:-1.0 16:-1.0 17:-1.0 18:-1.0 19:-0.996241 
0.8409439910077604 1:-0.999216 2:-0.998981 3:1.0 4:2001.0 5:-1.0 6:4.0 7:-1.0 8:-1.0 9:-1.0 11:-0.996241 12:1.0 13:-0.995749 14:-0.998892 15:-1.0 16:-1.0 17:-1.0 18:-1.0 19:-0.996241 
1.0 1:-0.999294 2:-0.998981 3:1.0 4:1010.0 5:-0.99005 6:4.0 7:-0.95 8:-0.928571 9:-0.989915 10:1.0 11:-0.996241 12:1.0 13:-0.995749 14:-0.994461 15:-0.95 16:-0.99005 17:-0.931034 18:-0.989915 19:-0.996241 
1.0 1:-0.998902 2:-0.997884 3:1.0 4:1010.0 5:-0.99001 6:4.0 7:-0.95 8:-0.928571 9:-0.989874 10:1.0 11:-1.0 13:-0.997875 14:-0.999446 15:-0.95 16:-0.99001 17:-0.931034 18:-0.989874 19:-1.0 
1.0 1:-0.76936 2:-0.768459 4:1010.0 5:-0.99002 6:1.0 7:-0.95 8:-0.928571 9:-0.989884 10:1.0 11:-1.0 13:-0.997875 14:-0.990584 15:-0.95 16:-0.99002 17:-0.931034 18:-0.989884 19:-1.0 
0.03366998372721908 1:-0.998432 2:-0.998981 3:1.0 4:1013.0 5:-1.0 6:1.0 7:-1.0 8:-1.0 9:-1.0 11:-0.992481 13:-0.989373 14:-0.995015 15:-1.0 16:-1.0 17:-1.0 18:-1.0 19:-0.973684 
1.0 1:-0.990746 2:-0.998981 3:1.0 4:4001.0 5:-0.7428 6:4.0 7:-0.95 8:-0.928571 9:-0.739307 10:1.0 11:-0.996241 13:-0.997875 14:-0.999446 15:-0.95 16:-0.7428 17:-0.931034 18:-0.739307 19:-0.996241 
1.0 1:-0.998196 2:-0.998981 3:1.0 4:4001.0 5:0.2998 6:4.0 7:-0.95 8:-0.928571 9:0.317454 11:-0.996241 13:-0.997875 14:-0.999446 15:-0.95 16:0.2998 17:-0.931034 18:0.317454 19:-0.996241 
1.0 1:-0.998824 2:-0.998981 4:2001.0 5:-1.0 6:4.0 7:-1.0 8:-1.0 9:-1.0 10:1.0 11:-0.996241 13:-0.997875 14:-0.999446 15:-1.0 16:-1.0 17:-1.0 18:-1.0 19:-0.996241 
1.0 1:-1.0 2:-0.998981 4:2010.0 5:-1.0 6:4.0 7:-1.0 8:-1.0 9:-1.0 10:1.0 11:-0.996241 13:-1.0 14:-1.0 15:-1.0 16:-1.0 17:-1.0 18:-1.0 19:-0.996241 
1.0 1:-0.97663 2:-0.975623 3:1.0 4:1010.0 5:-0.928454 6:1.0 7:-0.7 8:-0.857143 9:-0.983979 10:1.0 11:-1.0 13:-0.995749 14:-0.998338 15:-0.7 16:-0.928454 17:-0.862069 18:-0.983979 19:-1.0 
0.36977892118405703 1:-0.980238 2:-0.979229 4:4001.0 5:-0.9596 6:1.0 7:-0.85 8:-0.785714 9:-0.959051 11:-1.0 13:-0.993624 14:-0.998338 15:-0.85 16:-0.9596 17:-0.793103 18:-0.959051 19:-1.0 
1.0 1:-0.998667 2:-0.998981 4:4001.0 5:-0.97446 6:4.0 7:-0.95 8:-0.928571 9:-0.974113 10:1.0 11:-0.996241 13:-0.997875 14:-0.999446 15:-0.95 16:-0.97446 17:-0.931034 18:-0.974113 19:-0.996241 
0.04745664231798023 1:-0.985727 2:-0.985891 4:1999.0 5:-1.0 6:9.0 7:-1.0 8:-1.0 9:-1.0 10:1.0 11:-0.996241 13:-1.0 14:-1.0 15:-1.0 16:-1.0 17:-1.0 18:-1.0 19:-0.996241 
1.0 1:-0.959377 2:-0.958379 3:1.0 4:2010.0 5:-1.0 6:1.0 7:-1.0 8:-1.0 9:-1.0 10:1.0 11:-1.0 13:-0.997875 14:-0.997785 15:-1.0 16:-1.0 17:-1.0 18:-1.0 19:-0.996241 
0.7313321241928934 1:-0.986276 2:-0.985813 4:2009.0 5:-1.0 6:4.0 7:-1.0 8:-1.0 9:-1.0 10:1.0 11:-0.996241 12:1.0 13:-1.0 14:-1.0 15:-1.0 16:-1.0 17:-1.0 18:-1.0 19:-0.996241 
1.0 1:-0.985335 2:-0.985891 3:1.0 4:2009.0 5:-1.0 6:4.0 7:-1.0 8:-1.0 9:-1.0 10:1.0 11:-0.973684 13:-1.0 14:-1.0 15:-1.0 16:-1.0 17:-1.0 18:-1.0 19:-0.973684 
1.0 1:-0.996 2:-0.994984 4:4001.0 5:-1.0 6:4.0 7:-1.0 8:-1.0 9:-1.0 10:1.0 11:-0.992481 13:-1.0 14:-0.999446 15:-1.0 16:-1.0 17:-1.0 18:-1.0 19:-1.0 
1.0 1:-0.998981 2:-0.998981 3:1.0 4:4001.0 5:-0.8048 6:4.0 7:-0.9 8:-0.857143 9:-0.802149 11:-0.992481 13:-0.995749 14:-0.998892 15:-0.9 16:-0.8048 17:-0.862069 18:-0.802149 19:-0.992481 
1.0 1:-0.998275 2:-0.998981 4:4001.0 5:-0.5064 6:4.0 7:-0.95 8:-0.928571 9:-0.499696 11:-0.996241 13:-0.997875 14:-0.998892 15:-0.95 16:-0.5064 17:-0.931034 18:-0.499696 19:-0.996241 
1.0 1:-0.809042 2:-0.80812 4:1010.0 5:-1.0 6:4.0 7:-1.0 8:-1.0 9:-1.0 10:1.0 11:-1.0 13:-1.0 14:-0.998338 15:-1.0 16:-1.0 17:-1.0 18:-1.0 19:-1.0 
1.0 1:-0.998981 2:-0.998981 3:1.0 4:1010.0 5:-0.92022 6:1.0 7:-0.65 8:-0.5 9:-0.919136 10:1.0 11:-0.996241 13:-0.985122 14:-0.996123 15:-0.65 16:-0.92022 17:-0.517241 18:-0.919136 19:-0.996241 
0.2938952443456846 1:-0.998432 2:-0.998981 3:1.0 4:2010.0 5:-1.0 6:4.0 7:-1.0 8:-1.0 9:-1.0 11:-0.996241 13:-0.997875 14:-0.999446 15:-1.0 16:-1.0 17:-1.0 18:-1.0 19:-0.992481 
0.9914065023593057 1:-0.999137 2:-0.998903 4:2001.0 5:-1.0 6:1.0 7:-1.0 8:-1.0 9:-1.0 10:1.0 11:-0.996241 12:1.0 13:-0.997875 14:-0.996123 15:-1.0 16:-1.0 17:-1.0 18:-1.0 19:-0.992481 
1.0 1:-0.793671 2:-0.998903 4:4001.0 5:-0.969 6:4.0 7:-0.95 8:-0.928571 9:-0.968579 10:1.0 11:-0.996241 13:-0.997875 14:-0.999446 15:-0.95 16:-0.969 17:-0.931034 18:-0.968579 19:-0.996241 
1.0 1:-0.884406 2:-0.998981 3:1.0 4:1010.0 5:-0.98008 6:4.0 7:-0.95 8:-0.928571 9:-0.979809 10:1.0 11:-0.996241 12:1.0 13:-0.997875 14:-0.994461 15:-0.95 16:-0.98008 17:-0.931034 18:-0.979809 19:-0.996241 
1.0 1:-0.978512 2:-0.998981 4:1010.0 5:-0.98002 6:4.0 7:-0.95 8:-0.928571 9:-0.979749 11:-0.996241 12:1.0 13:-0.997875 14:-0.999446 15:-0.95 16:-0.98002 17:-0.931034 18:-0.979749 19:-0.996241 
1.0 1:-0.998353 2:-0.998981 3:1.0 4:1010.0 5:-0.996048 6:4.0 7:-0.95 8:-0.928571 9:-0.995994 10:1.0 11:-0.996241 13:-0.997875 14:-0.997231 15:-0.95 16:-0.996048 17:-0.931034 18:-0.995994 19:-0.996241 
0.5786965211888164 1:-0.888797 2:-0.998981 4:1003.0 5:-0.976 6:4.0 7:-0.8 8:-0.785714 9:-0.979728 11:-0.996241 13:-0.991498 14:-0.997785 15:-0.8 16:-0.976 17:-0.793103 18:-0.979728 19:-0.996241 
1.0 1:-0.998745 2:-0.998981 3:1.0 4:4001.0 5:-0.7896 6:4.0 7:-0.9 8:-0.857143 9:-0.786742 11:-0.992481 13:-0.995749 14:-0.998892 15:-0.9 16:-0.7896 17:-0.862069 18:-0.786742 19:-0.992481 
1.0 1:-0.998432 2:-0.998981 4:2009.0 5:-1.0 6:1.0 7:-1.0 8:-1.0 9:-1.0 10:1.0 11:-0.984962 13:-0.995749 14:-0.997231 15:-1.0 16:-1.0 17:-1.0 18:-1.0 19:-0.984962 
1.0 1:-0.989727 2:-0.998903 4:4001.0 5:-0.3602 6:4.0 7:-0.95 8:-0.928571 9:-0.35151 10:1.0 11:-0.996241 12:1.0 13:-0.997875 14:-0.999446 15:-0.95 16:-0.3602 17:-0.931034 18:-0.35151 19:-0.996241 
0.045054248950656475 1:-0.555033 2:-0.998981 3:1.0 4:2001.0 5:-1.0 6:4.0 7:-1.0 8:-1.0 9:-1.0 11:-0.996241 12:1.0 13:-1.0 14:-0.994461 15:-1.0 16:-1.0 17:-1.0 18:-1.0 19:-0.992481 
1.0 1:-0.904325 2:-0.903355 3:1.0 4:1003.0 5:-0.99 6:4.0 7:-0.95 8:-0.928571 9:-0.989864 10:1.0 11:-1.0 13:-0.997875 14:-0.997231 15:-0.9 16:-0.984 17:-0.931034 18:-0.989864 19:-0.996241 
1.0 1:-0.997255 2:-0.998981 3:1.0 4:4001.0 5:-0.7876 6:4.0 7:-0.95 8:-0.928571 9:-0.784715 10:1.0 11:-0.996241 12:1.0 13:-0.997875 14:-0.999446 15:-0.95 16:-0.7876 17:-0.931034 18:-0.784715 19:-0.996241 
1.0 1:-0.998981 2:-0.998981 4:4001.0 5:-0.9908 6:4.0 7:-0.95 8:-0.928571 9:-0.990675 10:1.0 11:-0.996241 13:-0.997875 14:-0.999446 15:-0.95 16:-0.9908 17:-0.931034 18:-0.990675 19:-0.996241 
0.11516812963822756 1:-0.999686 2:-0.998981 3:1.0 4:4999.0 5:-1.0 6:4.0 7:-1.0 8:-1.0 9:-1.0 10:1.0 11:-0.996241 13:-0.997875 14:-0.999446 15:-1.0 16:-1.0 17:-1.0 18:-1.0 19:-0.996241 
1.0 1:-0.997412 2:-0.997727 4:2001.0 5:-1.0 6:1.0 7:-1.0 8:-1.0 9:-1.0 10:1.0 11:-0.996241 13:-0.997875 14:-0.999446 15:-1.0 16:-1.0 17:-1.0 18:-1.0 19:-0.996241 
1.0 1:-0.999059 2:-0.998981 3:1.0 4:4001.0 5:-0.767 6:4.0 7:-0.95 8:-0.928571 9:-0.763835 10:1.0 11:-0.996241 12:1.0 13:-0.997875 14:-0.999446 15:-0.95 16:-0.767 17:-0.931034 18:-0.763835 19:-0.996241 
1.0 1:-0.994432 2:-0.993416 4:4001.0 5:-0.9402 6:4.0 7:-0.95 8:-0.928571 9:-0.939388 10:1.0 11:-0.996241 13:-0.997875 14:-0.999446 15:-1.0 16:-1.0 17:-1.0 18:-1.0 19:-1.0 
1.0 1:-0.860016 2:-0.998981 3:1.0 4:1003.0 5:-0.99 6:4.0 7:-0.95 8:-0.928571 9:-0.989864 10:1.0 11:-0.996241 12:1.0 13:-0.997875 14:-0.999446 15:-0.95 16:-0.99 17:-0.931034 18:-0.989864 19:-0.996241 
0.9351648621422801 1:-0.607419 2:-0.998981 4:1010.0 5:-0.97012 6:4.0 7:-0.9 8:-0.857143 9:-0.969714 11:-0.992481 13:-0.995749 14:-0.998892 15:-0.9 16:-0.97012 17:-0.862069 18:-0.969714 19:-0.992481 
1.0 1:-0.789515 2:-0.788603 3:1.0 4:4001.0 5:-0.64154 6:4.0 7:-0.95 8:-0.928571 9:-0.636671 10:1.0 11:-1.0 13:-0.997875 14:-0.999446 15:-0.95 16:-0.64154 17:-0.931034 18:-0.636671 19:-1.0 
1.0 1:-0.998667 2:-0.998981 3:1.0 4:4001.0 5:-0.9544 6:4.0 7:-0.8 8:-0.714286 9:-0.953781 10:1.0 11:-0.984962 13:-0.995749 14:-0.998892 15:-0.8 16:-0.9544 17:-0.724138 18:-0.953781 19:-0.984962 
1.0 1:-1.0 2:-0.998981 4:2009.0 5:-1.0 6:1.0 7:-1.0 8:-1.0 9:-1.0 10:1.0 11:-0.984962 13:-1.0 14:-0.998892 15:-1.0 16:-1.0 17:-1.0 18:-1.0 19:-0.984962 
0.16701236913683448 1:-0.890052 2:-0.993416 3:1.0 4:4999.0 5:-1.0 6:4.0 7:-1.0 8:-1.0 9:-1.0 10:1.0 11:-0.992481 12:1.0 13:-0.997875 14:-0.999446 15:-1.0 16:-1.0 17:-1.0 18:-1.0 19:-0.996241 
0.2373160188501719 1:-0.916559 2:-0.998981 4:1003.0 5:-0.994 6:1.0 7:-0.85 8:-0.785714 9:-0.993919 11:-0.996241 12:1.0 13:-0.987248 14:-0.996677 15:-0.7 16:-0.988 17:-0.586207 18:-0.987837 19:-0.992481 
1.0 1:-0.984943 2:-0.983932 4:4001.0 5:-0.97224 6:4.0 7:-0.95 8:-0.928571 9:-0.971863 10:1.0 11:-1.0 13:-0.997875 14:-0.999446 15:-0.95 16:-0.97224 17:-0.931034 18:-0.971863 19:-1.0 
1.0 1:-0.994824 2:-0.995219 3:1.0 4:1003.0 5:-0.996 6:4.0 7:-0.9 8:-0.857143 9:-0.995946 10:1.0 11:-0.996241 13:-0.997875 14:-0.998892 15:-0.9 16:-0.996 17:-0.862069 18:-0.995946 19:-0.996241 
1.0 1:-0.936949 2:-0.935962 3:1.0 4:1010.0 5:-0.99002 6:4.0 7:-0.95 8:-0.928571 9:-0.989884 10:1.0 11:-1.0 13:-0.997875 14:-0.998338 15:-0.95 16:-0.99002 17:-0.931034 18:-0.989884 19:-1.0 
1.0 1:-1.0 2:-0.998981 3:1.0 4:4001.0 5:-0.7002 6:4.0 7:-0.95 8:-0.928571 9:-0.696128 11:-0.996241 13:-0.997875 14:-0.999446 15:-0.95 16:-0.7002 17:-0.931034 18:-0.696128 19:-0.996241 
1.0 1:-1.0 2:-0.998981 3:1.0 4:2009.0 5:-1.0 6:4.0 7:-1.0 8:-1.0 9:-1.0 10:1.0 11:-1.0 13:-0.997875 14:-0.999446 15:-1.0 16:-1.0 17:-1.0 18:-1.0 19:-1.0 
1.0 1:-0.997098 2:-0.997257 3:1.0 4:4999.0 5:-1.0 6:1.0 7:-1.0 8:-1.0 9:-1.0 10:1.0 11:-0.996241 13:-0.993624 14:-0.998338 15:-1.0 16:-1.0 17:-1.0 18:-1.0 19:-0.996241 
1.0 1:-0.991923 2:-0.990908 4:1003.0 5:-0.9804 6:1.0 7:-0.9 8:-0.928571 9:-0.993919 10:1.0 11:-1.0 13:-0.997875 14:-0.998892 15:-0.9 16:-0.9804 17:-0.931034 18:-0.993919 19:-1.0 
1.0 1:-0.998981 2:-0.998903 3:1.0 4:2009.0 5:-1.0 6:9.0 7:-1.0 8:-1.0 9:-1.0 10:1.0 11:-0.996241 12:1.0 13:-1.0 14:-1.0 15:-1.0 16:-1.0 17:-1.0 18:-1.0 19:-0.996241 
1.0 1:-0.983375 2:-0.996473 3:1.0 4:1003.0 5:-0.9744 6:1.0 7:-0.95 8:-0.928571 9:-0.974052 10:1.0 11:-0.996241 12:1.0 13:-0.997875 14:-0.999446 15:-0.95 16:-0.9744 17:-0.931034 18:-0.974052 19:-0.996241 
1.0 1:-0.998353 2:-0.998354 3:1.0 4:1002.0 5:-1.0 6:1.0 7:-1.0 8:-1.0 9:-1.0 11:-0.996241 12:1.0 13:-0.997875 14:-0.999446 15:-1.0 16:-1.0 17:-1.0 18:-1.0 19:-0.996241 
1.0 1:-0.998196 2:-0.998981 3:1.0 4:4001.0 5:-0.708 6:4.0 7:-0.95 8:-0.928571 9:-0.704034 10:1.0 11:-0.996241 13:-0.997875 14:-0.999446 15:-0.95 16:-0.708 17:-0.931034 18:-0.704034 19:-0.996241 
0.2060899454955279 1:-0.998745 2:-0.998981 4:1010.0 5:-0.99001 6:9.0 7:-0.95 8:-0.928571 9:-0.989874 10:1.0 11:-0.996241 13:-1.0 14:-1.0 15:-0.95 16:-0.99001 17:-0.931034 18:-0.989874 19:-0.996241 
1.0 1:-0.999137 2:-0.998981 4:4001.0 5:-0.5402 6:4.0 7:-0.95 8:-0.928571 9:-0.533955 11:-0.996241 12:1.0 13:-0.997875 14:-0.999446 15:-0.95 16:-0.5402 17:-0.931034 18:-0.533955 19:-0.996241 
1.0 1:-0.998275 2:-0.998981 3:1.0 4:4001.0 5:-0.422 6:4.0 7:-0.9 8:-0.857143 9:-0.41415 11:-0.992481 13:-0.995749 14:-0.998892 15:-0.9 16:-0.422 17:-0.862069 18:-0.41415 19:-0.992481 
0.2699260298404005 1:-0.999294 2:-0.998981 3:1.0 4:2009.0 5:-1.0 6:1.0 7:-1.0 8:-1.0 9:-1.0 11:-0.996241 12:1.0 13:-1.0 14:-1.0 15:-1.0 16:-1.0 17:-1.0 18:-1.0 19:-0.996241 
1.0 1:-0.957338 2:-0.956341 3:1.0 4:2010.0 5:-1.0 6:1.0 7:-1.0 8:-1.0 9:-1.0 10:1.0 11:-1.0 13:-0.997875 14:-0.994461 15:-1.0 16:-1.0 17:-1.0 18:-1.0 19:-1.0 
1.0 1:-0.999451 2:-0.998981 3:1.0 4:2009.0 5:-1.0 6:1.0 7:-1.0 8:-1.0 9:-1.0 10:1.0 11:-0.996241 13:-0.995749 14:-0.998338 15:-1.0 16:-1.0 17:-1.0 18:-1.0 19:-0.977444 
1.0 1:-0.884249 2:-0.883289 4:1010.0 5:-0.996048 6:1.0 7:-0.95 8:-0.928571 9:-0.995994 10:1.0 11:-1.0 13:-0.997875 14:-0.998892 15:-0.95 16:-0.996048 17:-0.931034 18:-0.995994 19:-1.0 
1.0 1:-0.999059 2:-0.99804 4:1010.0 5:-0.993994 6:4.0 7:-0.95 8:-0.928571 9:-0.993912 11:-1.0 13:-0.997875 14:-0.999446 15:-0.95 16:-0.993994 17:-0.931034 18:-0.993912 19:-0.996241 
0.16404267903933323 1:-0.999059 2:-0.998981 3:1.0 4:2009.0 5:-1.0 6:9.0 7:-1.0 8:-1.0 9:-1.0 10:1.0 11:-0.996241 12:1.0 13:-0.997875 14:-0.999446 15:-1.0 16:-1.0 17:-1.0 18:-1.0 19:-0.996241 
1.0 1:-0.998902 2:-0.998981 4:4001.0 5:-0.897 6:4.0 7:-0.95 8:-0.928571 9:-0.895601 10:1.0 11:-0.996241 13:-0.997875 14:-0.999446 15:-0.95 16:-0.897 17:-0.931034 18:-0.895601 19:-0.996241 
0.4940689412906542 1:-0.998902 2:-0.997884 3:1.0 4:1008.0 5:-1.0 6:4.0 7:-1.0 8:-1.0 9:-1.0 10:1.0 11:-1.0 13:-0.997875 14:-0.999446 15:-1.0 16:-1.0 17:-1.0 18:-1.0 19:-1.0 
1.0 1:-0.999294 2:-0.998981 3:1.0 4:2001.0 5:-1.0 6:4.0 7:-1.0 8:-1.0 9:-1.0 10:1.0 11:-0.996241 12:1.0 13:-1.0 14:-1.0 15:-1.0 16:-1.0 17:-1.0 18:-1.0 19:-0.996241 
1.0 1:-0.998275 2:-0.998981 3:1.0 4:4001.0 5:-0.9604 6:4.0 7:-0.95 8:-0.928571 9:-0.959862 10:1.0 11:-0.996241 13:-0.995749 14:-0.998892 15:-0.75 16:-0.802 17:-0.655172 18:-0.799311 19:-0.932331 
1.0 1:-0.387131 2:-0.998981 4:4001.0 5:-0.7743 6:4.0 7:-0.9 8:-0.857143 9:-0.771235 10:1.0 11:-0.988722 13:-0.995749 14:-0.998892 15:-0.9 16:-0.7743 17:-0.862069 18:-0.771235 19:-0.988722 
1.0 1:-0.998353 2:-0.998981 4:4001.0 5:-0.98182 6:4.0 7:-0.95 8:-0.928571 9:-0.981573 10:1.0 11:-0.996241 13:-0.997875 14:-0.999446 15:-0.95 16:-0.98182 17:-0.931034 18:-0.981573 19:-0.996241 
0.8751292901329663 1:-0.999373 2:-0.998354 4:1004.0 5:-1.0 6:4.0 7:-1.0 8:-1.0 9:-1.0 11:-1.0 13:-0.997875 14:-0.999446 15:-1.0 16:-1.0 17:-1.0 18:-1.0 19:-1.0 
1.0 1:-0.999451 2:-0.998981 3:1.0 4:1003.0 5:-0.99 6:4.0 7:-0.95 8:-0.928571 9:-0.989864 11:-0.996241 12:1.0 13:-0.995749 14:-0.998892 15:-0.9 16:-0.98 17:-0.862069 18:-0.979728 19:-0.996241 
1.0 1:-0.985649 2:-0.985421 3:1.0 4:4001.0 5:-1.0 6:4.0 7:-1.0 8:-1.0 9:-1.0 11:-0.996241 12:1.0 13:-1.0 14:-1.0 15:-1.0 16:-1.0 17:-1.0 18:-1.0 19:-0.996241 
0.027629129758141892 1:-0.311532 2:-0.310864 3:1.0 4:2009.0 5:-1.0 6:9.0 7:-1.0 8:-1.0 9:-1.0 11:-1.0 13:-0.997875 14:-0.999446 15:-1.0 16:-1.0 17:-1.0 18:-1.0 19:-1.0 
1.0 1:-0.998902 2:-0.998981 3:1.0 4:1003.0 5:-0.996 6:4.0 7:-0.95 8:-0.928571 9:-0.995946 10:1.0 11:-0.996241 13:-0.997875 14:-0.999446 15:-0.95 16:-0.996 17:-0.931034 18:-0.995946 19:-0.996241 
0.28337753901772406 1:-0.996471 2:-0.996865 3:1.0 4:1003.0 5:-0.866 6:1.0 7:-0.8 8:-0.857143 9:-0.87837 11:-0.992481 13:-0.989373 14:-0.997231 15:-0.85 16:-0.87 17:-0.862069 18:-0.87837 19:-0.996241 
1.0 1:-0.684194 2:-0.683336 4:4001.0 5:-0.600002 6:4.0 7:-0.95 8:-0.928571 9:-0.594569 11:-1.0 13:-0.997875 14:-0.999446 15:-0.95 16:-0.600002 17:-0.931034 18:-0.594569 19:-1.0 
1.0 1:-0.985021 2:-0.985029 4:4001.0 5:-0.998202 6:1.0 7:-0.95 8:-1.0 9:-1.0 10:1.0 11:-0.996241 12:1.0 13:-1.0 14:-0.999446 15:-0.95 16:-0.998202 17:-1.0 18:-1.0 19:-0.996241 
1.0 1:-0.998353 2:-0.998981 4:4001.0 5:-0.9822 6:4.0 7:-0.95 8:-0.928571 9:-0.981958 10:1.0 11:-0.996241 13:-0.991498 14:-0.997785 15:-0.8 16:-0.9228 17:-0.724138 18:-0.921751 19:-0.977444 
1.0 1:-0.801514 2:-0.998981 4:1010.0 5:-0.994024 6:4.0 7:-0.95 8:-0.928571 9:-0.993943 11:-0.996241 12:1.0 13:-0.997875 14:-0.999446 15:-0.95 16:-0.994024 17:-0.931034 18:-0.993943 19:-0.996241 
1.0 1:-0.996236 2:-0.995219 4:4001.0 5:-1.0 6:4.0 7:-1.0 8:-1.0 9:-1.0 10:1.0 11:-1.0 13:-1.0 14:-1.0 15:-1.0 16:-1.0 17:-1.0 18:-1.0 19:-1.0 
1.0 1:-0.952084 2:-0.998981 3:1.0 4:4001.0 5:-0.99996 6:4.0 7:-0.9 8:-0.857143 9:-0.999959 11:-0.992481 12:1.0 13:-0.995749 14:-0.998892 15:-0.95 16:-0.99998 17:-0.931034 18:-0.99998 19:-0.996241 
1.0 1:-0.877818 2:-0.998981 3:1.0 4:4001.0 5:-0.7602 6:4.0 7:-0.95 8:-0.928571 9:-0.756943 10:1.0 11:-0.996241 13:-0.997875 14:-0.999446 15:-0.95 16:-0.7602 17:-0.931034 18:-0.756943 19:-0.996241 
0.09220866415429897 1:-0.94283 2:-0.942546 3:1.0 4:2009.0 5:-1.0 6:4.0 7:-1.0 8:-1.0 9:-1.0 11:-0.996241 12:1.0 13:-1.0 14:-1.0 15:-1.0 16:-1.0 17:-1.0 18:-1.0 19:-0.996241 
1.0 1:-0.999373 2:-0.998981 3:1.0 4:4001.0 5:-0.8729 6:4.0 7:-0.9 8:-0.857143 9:-0.871174 10:1.0 11:-0.992481 12:1.0 13:-0.995749 14:-0.998892 15:-0.9 16:-0.8729 17:-0.862069 18:-0.871174 19:-0.992481 
1.0 1:-0.985884 2:-0.985891 3:1.0 4:1010.0 5:-1.0 6:4.0 7:-1.0 8:-1.0 9:-1.0 10:1.0 11:-0.996241 12:1.0 13:-1.0 14:-1.0 15:-1.0 16:-1.0 17:-1.0 18:-1.0 19:-0.996241 
1.0 1:-0.999059 2:-0.998981 4:4001.0 5:-0.4804 6:4.0 7:-0.95 8:-0.928571 9:-0.473343 11:-0.996241 12:1.0 13:-0.997875 14:-0.999446 15:-0.95 16:-0.4804 17:-0.931034 18:-0.473343 19:-0.996241 
1.0 1:-0.495902 2:-0.998981 4:4001.0 5:-0.89622 6:4.0 7:-0.95 8:-0.928571 9:-0.89481 10:1.0 11:-0.996241 13:-0.997875 14:-0.999446 15:-0.95 16:-0.89622 17:-0.931034 18:-0.89481 19:-0.996241 
1.0 1:-0.999294 2:-0.998981 3:1.0 4:1003.0 5:-0.98 6:4.0 7:-0.95 8:-0.928571 9:-0.979728 11:-0.996241 12:1.0 13:-0.997875 14:-0.999446 15:-0.95 16:-0.98 17:-0.931034 18:-0.979728 19:-0.996241 
1.0 1:-0.729993 2:-0.998981 4:4001.0 5:-0.7474 6:4.0 7:-0.95 8:-0.928571 9:-0.743969 10:1.0 11:-0.996241 12:1.0 13:-0.997875 14:-0.999446 15:-0.95 16:-0.7474 17:-0.931034 18:-0.743969 19:-0.996241 
1.0 1:-0.994903 2:-0.995219 3:1.0 4:4001.0 5:-0.13862 6:4.0 7:-0.9 8:-0.857143 9:-0.126921 11:-0.988722 13:-0.995749 14:-0.998892 15:-0.9 16:-0.13862 17:-0.862069 18:-0.126921 19:-0.988722 
1.0 1:-0.878603 2:-0.877645 4:2010.0 5:-1.0 6:1.0 7:-1.0 8:-1.0 9:-1.0 10:1.0 11:-1.0 13:-0.997875 14:-0.999446 15:-1.0 16:-1.0 17:-1.0 18:-1.0 19:-1.0 
1.0 1:-0.998275 2:-0.998981 3:1.0 4:4001.0 5:-0.6826 6:4.0 7:-0.9 8:-0.857143 9:-0.678289 11:-0.992481 13:-0.997875 14:-0.998892 15:-0.9 16:-0.6826 17:-0.862069 18:-0.678289 19:-0.992481 
1.0 1:-0.359056 2:-0.998981 4:4001.0 5:-0.588 6:4.0 7:-0.95 8:-0.928571 9:-0.582404 11:-0.996241 13:-0.997875 14:-0.999446 15:-0.95 16:-0.588 17:-0.931034 18:-0.582404 19:-0.996241 
1.0 1:-0.929498 2:-0.928515 3:1.0 4:1003.0 5:-0.996 6:4.0 7:-0.95 8:-0.928571 9:-0.995946 10:1.0 11:-1.0 13:-0.997875 14:-0.999446 15:-0.95 16:-0.996 17:-0.931034 18:-0.995946 19:-1.0 
0.4264321756754094 1:-0.999216 2:-0.998981 3:1.0 4:1002.0 5:-1.0 6:4.0 7:-1.0 8:-1.0 9:-1.0 10:1.0 11:-0.996241 12:1.0 13:-0.997875 14:-0.999446 15:-1.0 16:-1.0 17:-1.0 18:-1.0 19:-0.996241 
1.0 1:-0.955691 2:-0.954695 3:1.0 4:1003.0 5:-0.9988 6:4.0 7:-0.95 8:-0.928571 9:-0.998784 10:1.0 11:-1.0 13:-0.997875 14:-0.999446 15:-0.95 16:-0.9988 17:-0.931034 18:-0.998784 19:-1.0 
1.0 1:-0.99553 2:-0.994513 4:4001.0 5:-1.0 6:4.0 7:-1.0 8:-1.0 9:-1.0 10:1.0 11:-1.0 13:-1.0 14:-1.0 15:-1.0 16:-1.0 17:-1.0 18:-1.0 19:-1.0 
1.0 1:-0.986119 2:-0.985813 3:1.0 4:4001.0 5:-1.0 6:4.0 7:-1.0 8:-1.0 9:-1.0 11:-0.996241 12:1.0 13:-1.0 14:-1.0 15:-1.0 16:-1.0 17:-1.0 18:-1.0 19:-0.996241 
0.03600293649229407 1:-0.999059 2:-0.998981 3:1.0 4:2999.0 5:-1.0 6:9.0 7:-1.0 8:-1.0 9:-1.0 10:1.0 11:-0.996241 12:1.0 13:-0.995749 14:-0.983384 15:-1.0 16:-1.0 17:-1.0 18:-1.0 19:-0.996241 
1.0 1:-0.994903 2:-0.995219 3:1.0 4:4001.0 5:-0.13862 6:4.0 7:-0.9 8:-0.857143 9:-0.126921 11:-0.988722 13:-0.995749 14:-0.998892 15:-0.9 16:-0.13862 17:-0.862069 18:-0.126921 19:-0.988722 
0.1320679357855063 1:-0.999216 2:-0.998981 3:1.0 4:2009.0 5:-1.0 6:1.0 7:-1.0 8:-1.0 9:-1.0 11:-0.996241 12:1.0 13:-0.953241 14:-0.987261 15:-1.0 16:-1.0 17:-1.0 18:-1.0 19:-0.996241 
1.0 1:-0.998432 2:-0.998981 3:1.0 4:4001.0 5:-0.7002 6:4.0 7:-0.95 8:-0.928571 9:-0.696128 10:1.0 11:-0.996241 13:-0.997875 14:-0.999446 15:-0.95 16:-0.7002 17:-0.931034 18:-0.696128 19:-0.996241 
1.0 1:-0.9851 2:-0.984088 3:1.0 4:1003.0 5:-1.0 6:4.0 7:-1.0 8:-1.0 9:-1.0 10:1.0 11:-1.0 13:-1.0 14:-1.0 15:-1.0 16:-1.0 17:-1.0 18:-1.0 19:-1.0 
0.5396538319666666 1:-0.998824 2:-0.998981 4:2009.0 5:-0.98322 6:4.0 7:-0.95 8:-1.0 9:-1.0 10:1.0 11:-0.977444 13:-1.0 14:-1.0 15:-0.95 16:-0.98322 17:-1.0 18:-1.0 19:-0.977444 
1.0 1:-0.957103 2:-0.956106 3:1.0 4:1003.0 5:-0.998 6:4.0 7:-0.95 8:-0.928571 9:-0.997973 10:1.0 11:-1.0 13:-0.997875 14:-0.999446 15:-0.95 16:-0.998 17:-0.931034 18:-0.997973 19:-1.0 
1.0 1:-0.929498 2:-0.928515 3:1.0 4:1003.0 5:-0.996 6:4.0 7:-0.95 8:-0.928571 9:-0.995946 10:1.0 11:-1.0 13:-0.997875 14:-0.999446 15:-0.95 16:-0.996 17:-0.931034 18:-0.995946 19:-1.0 
1.0 1:-0.999137 2:-0.998119 4:2009.0 5:-1.0 6:4.0 7:-1.0 8:-1.0 9:-1.0 10:1.0 11:-1.0 13:-1.0 14:-1.0 15:-1.0 16:-1.0 17:-1.0 18:-1.0 19:-1.0 
1.0 1:-0.99851 2:-0.998903 3:1.0 4:2009.0 5:-1.0 6:9.0 7:-1.0 8:-1.0 9:-1.0 10:1.0 11:-0.996241 13:-1.0 14:-1.0 15:-1.0 16:-1.0 17:-1.0 18:-1.0 19:-0.996241 
1.0 1:-0.996314 2:-0.9971 4:2001.0 5:-1.0 6:1.0 7:-1.0 8:-1.0 9:-1.0 10:1.0 11:-0.996241 13:-0.997875 14:-0.999446 15:-1.0 16:-1.0 17:-1.0 18:-1.0 19:-0.996241 
0.48366866762558985 1:-0.81861 2:-0.817683 3:1.0 4:4001.0 5:0.4 6:1.0 7:-0.8 8:-0.857143 9:-0.290493 10:1.0 11:-1.0 13:-0.995749 14:-0.997785 15:-0.8 16:0.4 17:-0.862069 18:-0.290493 19:-1.0 
1.0 1:-0.789672 2:-0.78876 4:4001.0 5:-0.9006 6:4.0 7:-0.95 8:-0.928571 9:-0.89925 10:1.0 11:-1.0 13:-0.997875 14:-0.999446 15:-0.95 16:-0.9006 17:-0.931034 18:-0.89925 19:-1.0 
0.14736419394489872 1:-0.292946 2:-0.292287 3:1.0 4:2009.0 5:-1.0 6:4.0 7:-1.0 8:-1.0 9:-1.0 10:1.0 11:-1.0 13:-0.995749 14:-0.995015 15:-1.0 16:-1.0 17:-1.0 18:-1.0 19:-1.0 
0.7778615809407804 1:-0.999216 2:-0.998981 3:1.0 4:1002.0 5:-1.0 6:4.0 7:-1.0 8:-1.0 9:-1.0 10:1.0 11:-0.996241 12:1.0 13:-0.997875 14:-0.999446 15:-1.0 16:-1.0 17:-1.0 18:-1.0 19:-0.996241 
1.0 1:-0.998353 2:-0.998981 3:1.0 4:2999.0 5:-1.0 6:4.0 7:-1.0 8:-1.0 9:-1.0 10:1.0 11:-0.996241 13:-0.995749 14:-0.998892 15:-1.0 16:-1.0 17:-1.0 18:-1.0 19:-0.996241 
1.0 1:-0.998902 2:-0.998981 3:1.0 4:4001.0 5:-0.980356 6:1.0 7:-0.8 8:-0.714286 9:-0.980089 10:1.0 11:-0.996241 13:-0.991498 14:-0.997785 15:-0.8 16:-0.980356 17:-0.724138 18:-0.980089 19:-0.996241 
1.0 1:-0.939301 2:-0.938313 4:1010.0 5:-0.99004 6:1.0 7:-0.95 8:-0.928571 9:-0.989905 10:1.0 11:-1.0 13:-0.997875 14:-0.999446 15:-0.95 16:-0.99004 17:-0.931034 18:-0.989905 19:-1.0 
1.0 1:-0.942673 2:-0.942546 3:1.0 4:2009.0 5:-1.0 6:4.0 7:-1.0 8:-1.0 9:-1.0 10:1.0 11:-0.988722 12:1.0 13:-1.0 14:-1.0 15:-1.0 16:-1.0 17:-1.0 18:-1.0 19:-0.988722 
1.0 1:-0.979532 2:-0.998981 4:4001.0 5:-0.87196 6:4.0 7:-0.85 8:-0.928571 9:-0.943848 10:1.0 11:-0.988722 13:-0.997875 14:-0.998338 15:-0.85 16:-0.87196 17:-0.931034 18:-0.943848 19:-0.988722 
1.0 1:-0.823393 2:-0.998981 3:1.0 4:4001.0 5:-0.3402 6:4.0 7:-0.95 8:-0.928571 9:-0.331239 10:1.0 11:-0.988722 13:-0.995749 14:-0.998892 15:-0.95 16:-0.3402 17:-0.931034 18:-0.331239 19:-0.988722 
0.37492259462283567 1:-0.799475 2:-0.798558 3:1.0 4:1010.0 5:-0.960484 6:4.0 7:-0.95 8:-0.928571 9:-0.959947 10:1.0 11:-0.996241 13:-0.997875 14:-0.999446 15:-0.95 16:-0.960484 17:-0.931034 18:-0.959947 19:-1.0 
1.0 1:-0.912481 2:-0.911507 4:4001.0 5:-0.8202 6:4.0 7:-0.95 8:-1.0 9:-1.0 10:1.0 11:-0.996241 13:-1.0 14:-0.999446 15:-1.0 16:-1.0 17:-1.0 18:-1.0 19:-1.0 
1.0 1:-0.997177 2:-0.997178 3:1.0 4:4001.0 5:-0.992104 6:1.0 7:-0.95 8:-0.928571 9:-0.991997 11:-0.996241 12:1.0 13:-0.997875 14:-0.999446 15:-0.95 16:-0.992104 17:-0.931034 18:-0.991997 19:-0.996241 
0.6318885372123959 1:-0.932949 2:-0.931964 3:1.0 4:4999.0 5:-1.0 6:1.0 7:-1.0 8:-1.0 9:-1.0 10:1.0 11:-1.0 13:-0.982997 14:-0.973968 15:-1.0 16:-1.0 17:-1.0 18:-1.0 19:-1.0 
0.03708426163115862 1:-0.999216 2:-0.998981 3:1.0 4:2009.0 5:-1.0 6:9.0 7:-1.0 8:-1.0 9:-1.0 10:1.0 11:-0.996241 12:1.0 13:-0.997875 14:-0.999446 15:-1.0 16:-1.0 17:-1.0 18:-1.0 19:-0.977444 
1.0 1:-0.819629 2:-0.818702 4:1010.0 5:-0.993976 6:1.0 7:-0.95 8:-0.928571 9:-0.993894 10:1.0 11:-1.0 13:-0.997875 14:-0.999446 15:-0.95 16:-0.993976 17:-0.931034 18:-0.993894 19:-1.0 
1.0 1:-0.998196 2:-0.998981 3:1.0 4:1010.0 5:-0.99001 6:4.0 7:-0.95 8:-0.928571 9:-0.989874 10:1.0 11:-0.996241 13:-0.997875 14:-0.999446 15:-0.95 16:-0.99001 17:-0.931034 18:-0.989874 19:-0.992481 
0.07507776541847258 1:-0.998745 2:-0.998668 3:1.0 4:2009.0 5:-1.0 6:1.0 7:-1.0 8:-1.0 9:-1.0 11:-0.981203 12:1.0 13:-0.997875 14:-0.999446 15:-1.0 16:-1.0 17:-1.0 18:-1.0 19:-0.740602 
0.661712614310399 1:-0.997255 2:-0.997727 3:1.0 4:1001.0 5:-1.0 6:1.0 7:-1.0 8:-1.0 9:-1.0 11:-0.992481 13:-0.995749 14:-0.998892 15:-1.0 16:-1.0 17:-1.0 18:-1.0 19:-0.992481 
0.11811849295991407 1:-0.998275 2:-0.998981 3:1.0 4:4001.0 5:-0.96024 6:1.0 7:-0.8 8:-0.714286 9:-0.9597 11:-0.996241 13:-0.991498 14:-0.997785 15:-0.8 16:-0.96024 17:-0.724138 18:-0.9597 19:-0.996241 
1.0 1:-0.987766 2:-0.986753 3:1.0 4:1003.0 5:-0.996 6:4.0 7:-0.95 8:-0.928571 9:-0.995946 10:1.0 11:-1.0 13:-0.997875 14:-0.999446 15:-0.95 16:-0.996 17:-0.931034 18:-0.995946 19:-1.0 
1.0 1:-0.986825 2:-0.985891 3:1.0 4:1003.0 5:-1.0 6:4.0 7:-1.0 8:-1.0 9:-1.0 10:1.0 11:-0.996241 13:-1.0 14:-1.0 15:-1.0 16:-1.0 17:-1.0 18:-1.0 19:-0.996241 
1.0 1:-0.999216 2:-0.998197 3:1.0 4:2009.0 5:-1.0 6:4.0 7:-1.0 8:-1.0 9:-1.0 10:1.0 11:-1.0 13:-0.997875 14:-0.999446 15:-1.0 16:-1.0 17:-1.0 18:-1.0 19:-0.943609 
1.0 1:-0.997177 2:-0.998981 3:1.0 4:4001.0 5:-0.6602 6:4.0 7:-0.95 8:-0.928571 9:-0.655585 10:1.0 11:-0.996241 12:1.0 13:-0.997875 14:-0.999446 15:-0.95 16:-0.6602 17:-0.931034 18:-0.655585 19:-0.996241 
0.09891630834539576 1:-0.999843 2:-0.998981 3:1.0 4:4001.0 5:-0.92748 6:1.0 7:-0.85 8:-0.785714 9:-0.926495 11:-0.996241 13:-0.995749 14:-0.998338 15:-0.85 16:-0.92748 17:-0.793103 18:-0.926495 19:-0.996241 
1.0 1:-0.998902 2:-0.998981 4:1010.0 5:-0.99001 6:4.0 7:-0.95 8:-0.928571 9:-0.989874 11:-0.996241 13:-0.997875 14:-0.999446 15:-0.95 16:-0.99001 17:-0.931034 18:-0.989874 19:-0.996241 
1.0 1:-0.99553 2:-0.994513 4:4001.0 5:-1.0 6:4.0 7:-1.0 8:-1.0 9:-1.0 10:1.0 11:-1.0 13:-1.0 14:-1.0 15:-1.0 16:-1.0 17:-1.0 18:-1.0 19:-1.0 
1.0 1:-0.998824 2:-0.998981 3:1.0 4:4001.0 5:-0.7202 6:4.0 7:-0.95 8:-0.928571 9:-0.7164 10:1.0 11:-0.996241 13:-0.997875 14:-0.996123 15:-0.95 16:-0.7202 17:-0.931034 18:-0.7164 19:-0.996241 
0.04608886193900755 1:-0.998745 2:-0.998981 3:1.0 4:1999.0 5:-1.0 6:4.0 7:-1.0 8:-1.0 9:-1.0 10:1.0 11:-0.996241 13:-0.997875 14:-0.999446 15:-1.0 16:-1.0 17:-1.0 18:-1.0 19:-0.996241 
0.09661268063889324 1:-0.985492 2:-0.985891 3:1.0 4:2009.0 5:-1.0 6:4.0 7:-1.0 8:-1.0 9:-1.0 10:1.0 11:-0.996241 13:-0.827843 14:0.78067 15:-1.0 16:-1.0 17:-1.0 18:-1.0 19:-0.661654 
1.0 1:-0.999137 2:-0.998119 4:2009.0 5:-1.0 6:4.0 7:-1.0 8:-1.0 9:-1.0 10:1.0 11:-1.0 13:-1.0 14:-1.0 15:-1.0 16:-1.0 17:-1.0 18:-1.0 19:-1.0 
1.0 1:-0.998745 2:-0.998981 4:4001.0 5:-0.9848 6:4.0 7:-0.95 8:-0.928571 9:-0.984594 10:1.0 11:-0.996241 13:-0.997875 14:-0.999446 15:-0.95 16:-0.9848 17:-0.931034 18:-0.984594 19:-0.996241 
1.0 1:-0.755558 2:-0.998981 4:4001.0 5:-0.9364 6:4.0 7:-0.95 8:-0.928571 9:-0.935536 10:1.0 11:-0.996241 13:-1.0 14:-1.0 15:-0.95 16:-0.9364 17:-0.931034 18:-0.935536 19:-0.996241 
0.15125841390785436 1:-0.242677 2:-0.242044 3:1.0 4:4001.0 5:-1.0 6:4.0 7:-1.0 8:-1.0 9:-1.0 11:-1.0 13:-1.0 14:-1.0 15:-1.0 16:-1.0 17:-1.0 18:-1.0 19:-1.0 
1.0 1:-0.998824 2:-0.998981 3:1.0 4:1006.0 5:-1.0 6:4.0 7:-1.0 8:-1.0 9:-1.0 10:1.0 11:-0.996241 13:-0.997875 14:-0.998892 15:-1.0 16:-1.0 17:-1.0 18:-1.0 19:-0.996241 
1.0 1:-0.998824 2:-0.998981 4:4001.0 5:-0.99998 6:4.0 7:-0.95 8:-0.928571 9:-0.99998 10:1.0 11:-0.996241 13:-0.995749 14:-0.995015 15:-0.95 16:-0.99998 17:-0.931034 18:-0.99998 19:-0.996241 
1.0 1:-0.998353 2:-0.998981 3:1.0 4:1003.0 5:-0.99 6:4.0 7:-0.95 8:-0.928571 9:-0.989864 10:1.0 11:-0.996241 13:-0.997875 14:-0.999446 15:-0.95 16:-0.99 17:-0.931034 18:-0.989864 19:-0.996241 
1.0 1:-0.999529 2:-0.998981 3:1.0 4:2010.0 5:-1.0 6:4.0 7:-1.0 8:-1.0 9:-1.0 11:-0.996241 13:-0.997875 14:-0.999446 15:-1.0 16:-1.0 17:-1.0 18:-1.0 19:-0.996241 
1.0 1:-0.998902 2:-0.998981 4:2009.0 5:-1.0 6:1.0 7:-1.0 8:-1.0 9:-1.0 10:1.0 11:-0.996241 13:-0.997875 14:-0.999446 15:-1.0 16:-1.0 17:-1.0 18:-1.0 19:-0.984962 
0.39573507215784964 1:-0.986041 2:-0.985813 3:1.0 4:2009.0 5:-1.0 6:4.0 7:-1.0 8:-1.0 9:-1.0 10:1.0 11:-0.996241 12:1.0 13:-1.0 14:-1.0 15:-1.0 16:-1.0 17:-1.0 18:-1.0 19:-0.996241 
1.0 1:-0.98212 2:-0.98111 4:1007.0 5:-1.0 6:1.0 7:-1.0 8:-1.0 9:-1.0 11:-1.0 13:-0.997875 14:-0.998892 15:-1.0 16:-1.0 17:-1.0 18:-1.0 19:-1.0 
1.0 1:-0.99553 2:-0.994513 4:4001.0 5:-1.0 6:4.0 7:-1.0 8:-1.0 9:-1.0 10:1.0 11:-1.0 13:-1.0 14:-1.0 15:-1.0 16:-1.0 17:-1.0 18:-1.0 19:-1.0 
0.030942115850824993 1:-0.998824 2:-0.998589 3:1.0 4:4999.0 5:-1.0 6:1.0 7:-1.0 8:-1.0 9:-1.0 10:1.0 11:-0.996241 12:1.0 13:-0.997875 14:-0.997785 15:-1.0 16:-1.0 17:-1.0 18:-1.0 19:-0.996241 
0.06059536404559384 1:-0.998667 2:-0.997649 4:2001.0 5:-1.0 6:4.0 7:-1.0 8:-1.0 9:-1.0 10:1.0 11:-1.0 13:-0.997875 14:-0.999446 15:-1.0 16:-1.0 17:-1.0 18:-1.0 19:-1.0 
1.0 1:-0.998432 2:-0.998981 3:1.0 4:4001.0 5:-0.8714 6:4.0 7:-0.95 8:-0.928571 9:-0.869653 10:1.0 11:-0.996241 13:-0.997875 14:-0.999446 15:-0.95 16:-0.8714 17:-0.931034 18:-0.869653 19:-0.996241 
1.0 1:-0.831392 2:-0.993181 3:1.0 4:1003.0 5:-0.998 6:4.0 7:-0.95 8:-0.928571 9:-0.997973 10:1.0 11:-0.996241 12:1.0 13:-0.997875 14:-0.999446 15:-0.95 16:-0.998 17:-0.931034 18:-0.997973 19:-0.996241 
1.0 1:-0.953966 2:-0.998981 4:1010.0 5:-0.920968 6:1.0 7:-0.9 8:-0.857143 9:-0.919895 11:-0.996241 12:1.0 13:-0.995749 14:-0.998892 15:-0.9 16:-0.920968 17:-0.862069 18:-0.919895 19:-0.996241 
1.0 1:-0.999216 2:-0.998981 4:4001.0 5:-0.98882 6:4.0 7:-0.95 8:-0.928571 9:-0.988668 10:1.0 11:-0.996241 12:1.0 13:-0.997875 14:-0.999446 15:-0.95 16:-0.98882 17:-0.931034 18:-0.988668 19:-0.996241 
1.0 1:-0.998275 2:-0.998981 4:4001.0 5:-0.9878 6:4.0 7:-0.95 8:-0.928571 9:-0.987634 10:1.0 11:-0.996241 13:-0.997875 14:-0.999446 15:-0.95 16:-0.9878 17:-0.931034 18:-0.987634 19:-0.996241 
1.0 1:-0.765126 2:-0.982834 4:1010.0 5:-1.0 6:1.0 7:-1.0 8:-1.0 9:-1.0 10:1.0 11:-0.996241 13:-1.0 14:-1.0 15:-1.0 16:-1.0 17:-1.0 18:-1.0 19:-0.996241 
1.0 1:-0.998275 2:-0.998981 3:1.0 4:4001.0 5:-0.5002 6:4.0 7:-0.95 8:-0.928571 9:-0.493412 10:1.0 11:-0.996241 13:-0.997875 14:-0.999446 15:-0.95 16:-0.5002 17:-0.931034 18:-0.493412 19:-0.996241 
0.7818913383335049 1:-0.8499 2:-0.848958 3:1.0 4:1999.0 5:-1.0 6:4.0 7:-1.0 8:-1.0 9:-1.0 10:1.0 11:-1.0 13:-1.0 14:-1.0 15:-1.0 16:-1.0 17:-1.0 18:-1.0 19:-1.0 
